{
  "clip_coef": 0.2,
  "ent_coef": 0.01,
  "feature_names": [
    "step_frac",
    "remaining_frac",
    "is_two_player",
    "is_four_player_plus",
    "is_ahead",
    "is_behind",
    "is_dominating",
    "is_finishing",
    "my_ship_share",
    "my_prod_share",
    "lead_ratio",
    "base_score_norm",
    "base_value_norm",
    "eta_norm",
    "send_norm",
    "source_count_norm",
    "needed_norm",
    "target_prod_norm",
    "target_ships_norm",
    "target_is_neutral",
    "target_is_enemy",
    "target_is_friendly",
    "mission_attack",
    "mission_expand",
    "mission_defend",
    "mission_reinforce",
    "mission_swarm",
    "mission_snipe",
    "mission_comet",
    "mission_other",
    "enemy_priority",
    "committed_load",
    "is_defer"
  ],
  "hidden_size": 64,
  "input_size": 33,
  "kind": "ppo",
  "learning_rate": 0.0003,
  "max_grad_norm": 0.5,
  "state_dict": {
    "encoder.0.bias": [
      -0.1624738723039627,
      -0.14366735517978668,
      -0.23161332309246063,
      -0.805886447429657,
      0.4555915892124176,
      0.16260407865047455,
      0.11043968051671982,
      -0.9296632409095764,
      0.3249771296977997,
      -0.16498558223247528,
      -0.2154190093278885,
      0.04445304721593857,
      -0.3518392741680145,
      -0.8428848385810852,
      0.2549802362918854,
      -0.07510180026292801,
      -0.12877753376960754,
      -0.11363109201192856,
      -0.22891004383563995,
      0.05012248829007149,
      0.02052493579685688,
      0.3356507122516632,
      0.06620687246322632,
      0.20509082078933716,
      -0.13429543375968933,
      0.039112187922000885,
      0.4532034695148468,
      0.06459247320890427,
      -0.1475076973438263,
      -0.36464524269104004,
      -0.19728146493434906,
      -0.8630180358886719,
      0.2583165168762207,
      -0.23353247344493866,
      -0.5422993302345276,
      0.019283585250377655,
      -0.24308384954929352,
      0.2886848449707031,
      0.2692658007144928,
      -0.019212892279028893,
      -0.18517938256263733,
      0.09520959109067917,
      0.08264584094285965,
      -0.33839142322540283,
      -0.256425142288208,
      -0.4265517294406891,
      -0.2697969675064087,
      -0.05830337852239609,
      0.022623231634497643,
      0.4639553129673004,
      0.32547128200531006,
      -0.10042903572320938,
      -0.008405384607613087,
      -0.01501989085227251,
      -0.19546253979206085,
      0.492697536945343,
      0.9369460344314575,
      0.03072635643184185,
      -0.006993736140429974,
      -0.3679867684841156,
      -0.6415746212005615,
      -0.20496787130832672,
      0.15553966164588928,
      0.06719355285167694
    ],
    "encoder.0.weight": [
      [
        -0.015181049704551697,
        -0.011936718598008156,
        0.08868712931871414,
        0.09495734423398972,
        0.007754909340292215,
        -0.03208867087960243,
        0.0015171455452218652,
        0.053849201649427414,
        0.029819423332810402,
        0.04198826476931572,
        -0.016139820218086243,
        -0.03287586569786072,
        -0.009159133769571781,
        -0.05078002065420151,
        -0.017316948622465134,
        0.07697814702987671,
        0.026310686022043228,
        0.043090350925922394,
        0.023365367203950882,
        0.030871640890836716,
        0.0308856051415205,
        0.009527995251119137,
        0.097212053835392,
        0.07113292813301086,
        0.048507411032915115,
        0.06088954582810402,
        0.05847347155213356,
        0.07200104743242264,
        0.11665798723697662,
        0.04222950339317322,
        -0.02076152339577675,
        -0.02398008294403553,
        -0.011377939954400063
      ],
      [
        0.0237838514149189,
        0.010957468301057816,
        0.06727096438407898,
        0.029995134100317955,
        -0.027954090386629105,
        0.029136668890714645,
        0.02538834512233734,
        -0.015847131609916687,
        -0.06266504526138306,
        -0.058381643146276474,
        0.004121335223317146,
        0.4969710409641266,
        0.14499996602535248,
        -0.08584429323673248,
        -0.20404139161109924,
        0.02544216439127922,
        -0.22942660748958588,
        0.08984415978193283,
        0.09111078083515167,
        0.04256228730082512,
        0.025831708684563637,
        -0.0681183934211731,
        0.0956960916519165,
        0.058707863092422485,
        0.007222834043204784,
        0.05375473201274872,
        -0.006021447014063597,
        -0.000889291288331151,
        -0.004057271406054497,
        -0.1269504427909851,
        -0.03721289336681366,
        -0.001205460517667234,
        0.07320822030305862
      ],
      [
        -0.10035697370767593,
        -0.10457125306129456,
        0.11029758304357529,
        0.08042333275079727,
        0.0012948682997375727,
        0.001982362475246191,
        0.0442008376121521,
        -0.0226779542863369,
        0.06889310479164124,
        0.081019826233387,
        -0.011529658921062946,
        0.04460780322551727,
        -0.010261188261210918,
        0.03495621681213379,
        0.05227062851190567,
        -0.008576097898185253,
        -0.0008504426805302501,
        0.07229751348495483,
        0.011321630328893661,
        0.08318264782428741,
        0.040610723197460175,
        0.03960571065545082,
        0.05733327940106392,
        -0.009031171910464764,
        0.02735997550189495,
        -0.02192864380776882,
        -0.0026989788748323917,
        -0.06847008317708969,
        -0.004375605843961239,
        -0.06437740474939346,
        -0.01668243482708931,
        0.09951618313789368,
        0.01578586734831333
      ],
      [
        -0.4298664927482605,
        -0.9037672877311707,
        -0.6510233283042908,
        -0.4427233934402466,
        -0.43172428011894226,
        -0.17634643614292145,
        -0.17326350510120392,
        0.0025561745278537273,
        -0.5658995509147644,
        -0.6066800355911255,
        -0.4088059961795807,
        -0.7569650411605835,
        -0.43772128224372864,
        -0.22815658152103424,
        -0.273347407579422,
        -0.44288650155067444,
        -0.41833844780921936,
        -0.7658382058143616,
        -0.4397735893726349,
        -0.49299418926239014,
        -0.33945080637931824,
        -0.19702696800231934,
        -0.41168636083602905,
        -0.2563702464103699,
        -0.30843570828437805,
        -0.3076660931110382,
        -0.1406858116388321,
        -0.5185434222221375,
        -0.15367580950260162,
        0.16005972027778625,
        -0.33980971574783325,
        -0.667797327041626,
        -0.01849953457713127
      ],
      [
        -0.008763500489294529,
        0.12403497099876404,
        0.1293296068906784,
        0.12030820548534393,
        -0.0449821799993515,
        0.007722651120275259,
        0.06131082773208618,
        -0.02602464333176613,
        -0.012967301532626152,
        0.035056646913290024,
        0.017886720597743988,
        -0.9253818988800049,
        -0.36070486903190613,
        0.07970991730690002,
        0.33314627408981323,
        -0.014589762315154076,
        0.3977692723274231,
        -0.17179889976978302,
        -0.15838810801506042,
        -0.17211118340492249,
        -0.14821994304656982,
        0.12912485003471375,
        -0.10506138950586319,
        -0.08617179840803146,
        0.011199075728654861,
        -0.031712159514427185,
        0.21613460779190063,
        -0.008464035578072071,
        0.015470010228455067,
        0.21796685457229614,
        -0.04527299106121063,
        -0.12829644978046417,
        -0.0017859969520941377
      ],
      [
        -0.10153157263994217,
        -0.09005263447761536,
        -0.021455146372318268,
        -0.02475140430033207,
        -0.012160313315689564,
        0.032723382115364075,
        0.02227393351495266,
        -0.019486794248223305,
        -0.027335403487086296,
        0.0006807885365560651,
        -0.006634416989982128,
        0.046148523688316345,
        0.002597677754238248,
        0.04032135382294655,
        0.023190004751086235,
        -0.074369877576828,
        -0.030936330556869507,
        -0.033294182270765305,
        0.001839170465245843,
        -0.11895707249641418,
        -0.11096499860286713,
        -0.06833728402853012,
        0.01727975346148014,
        0.026726294308900833,
        0.06883832812309265,
        0.0007626836886629462,
        0.011452019214630127,
        -0.015709981322288513,
        -0.016820676624774933,
        0.044331859797239304,
        0.007653613109141588,
        0.042743753641843796,
        0.0024001554120332003
      ],
      [
        -0.05453391745686531,
        -0.10174719244241714,
        0.12775221467018127,
        0.1100790873169899,
        -0.015759026631712914,
        -0.02704748697578907,
        -0.06138897314667702,
        -0.0007914085872471333,
        -0.01198496948927641,
        0.018655553460121155,
        0.0024283051025122404,
        0.999196469783783,
        0.22619633376598358,
        -0.17827527225017548,
        -0.4058932960033417,
        0.020649297162890434,
        -0.30759182572364807,
        0.17382176220417023,
        0.15748025476932526,
        0.1285904049873352,
        0.061084501445293427,
        -0.16916559636592865,
        0.20240835845470428,
        0.10114136338233948,
        -0.11468087136745453,
        0.08381375670433044,
        -0.15198186039924622,
        -0.08195041865110397,
        -0.02469646744430065,
        -0.23825030028820038,
        -0.0839967355132103,
        -0.06923368573188782,
        -0.05010247230529785
      ],
      [
        -0.36514773964881897,
        -0.6212870478630066,
        -0.2091236710548401,
        -0.11413748562335968,
        -0.322842001914978,
        -0.19907522201538086,
        -0.04096859320998192,
        -0.06534196436405182,
        -0.47222816944122314,
        -0.46060723066329956,
        -0.35500162839889526,
        -0.5729150772094727,
        -0.45768675208091736,
        -0.23090732097625732,
        -0.1556461751461029,
        -0.42074552178382874,
        -0.32919925451278687,
        -0.577332079410553,
        -0.2334439903497696,
        -0.3466622829437256,
        -0.299059122800827,
        -0.16723573207855225,
        -0.28344112634658813,
        -0.225923091173172,
        -0.16734500229358673,
        -0.28039976954460144,
        -0.03647501394152641,
        -0.3106817305088043,
        -0.10528197884559631,
        0.0777776688337326,
        -0.2752319872379303,
        -0.45474711060523987,
        -0.06730467081069946
      ],
      [
        0.16164299845695496,
        0.08469623327255249,
        -0.013547812588512897,
        -0.04558330029249191,
        -0.07942041754722595,
        0.024867044761776924,
        -0.08133234828710556,
        -0.03745780885219574,
        -0.023345068097114563,
        0.1100095734000206,
        -0.061667125672101974,
        -0.9208732843399048,
        -0.2963483929634094,
        0.1409967541694641,
        0.36057186126708984,
        0.08091011643409729,
        0.32212162017822266,
        -0.13324445486068726,
        -0.1623225212097168,
        -0.10847244411706924,
        -0.11148086190223694,
        0.1386234611272812,
        -0.2908801734447479,
        -0.19339245557785034,
        0.10840465873479843,
        -0.16596899926662445,
        0.10060383379459381,
        -0.03664373233914375,
        -0.09367688000202179,
        0.14704963564872742,
        -0.013987298123538494,
        0.0523795448243618,
        -0.053505390882492065
      ],
      [
        0.06857442110776901,
        0.0005681273178197443,
        0.13463452458381653,
        0.14444580674171448,
        -0.04042171314358711,
        0.009756507351994514,
        3.0886913009453565e-05,
        0.02365085296332836,
        0.021587861701846123,
        0.022542595863342285,
        -0.017419634386897087,
        0.015010029077529907,
        0.025828205049037933,
        -0.03326200321316719,
        -0.031277675181627274,
        0.029489565640687943,
        0.049731142818927765,
        0.0465930812060833,
        0.05656612664461136,
        0.04475955665111542,
        0.061020467430353165,
        0.017575526610016823,
        -0.005333427805453539,
        -0.050268128514289856,
        -0.06517884880304337,
        -0.05499231815338135,
        -0.055450212210416794,
        -0.04743536561727524,
        -0.04922374710440636,
        -0.08771668374538422,
        -0.00030616155709140003,
        0.00449251988902688,
        -0.024315552785992622
      ],
      [
        0.04190385341644287,
        0.05366358533501625,
        -0.16342057287693024,
        -0.17164820432662964,
        -0.009280413389205933,
        0.016000203788280487,
        -0.008905532769858837,
        -0.009054738096892834,
        0.01272553764283657,
        -0.03289283812046051,
        0.0623178593814373,
        0.7779280543327332,
        0.2681426405906677,
        -0.15567131340503693,
        -0.3148706555366516,
        -0.001933848368935287,
        -0.2674482464790344,
        0.19384093582630157,
        0.05605184659361839,
        0.07690072059631348,
        0.038900136947631836,
        -0.13121911883354187,
        0.11469519138336182,
        0.10763558745384216,
        -0.1262221336364746,
        0.027421489357948303,
        -0.13746556639671326,
        -0.0006363569991663098,
        -0.018019340932369232,
        -0.1311173141002655,
        0.051464807242155075,
        0.04736723005771637,
        0.034185875207185745
      ],
      [
        0.0031585190445184708,
        0.010628153569996357,
        -0.1398579627275467,
        -0.08584172278642654,
        -0.011217094026505947,
        0.057390451431274414,
        -0.06329044699668884,
        -0.08776383101940155,
        0.04045571759343147,
        -0.016057249158620834,
        -0.011227800510823727,
        -0.03343267738819122,
        -0.019897431135177612,
        -0.013123022392392159,
        -0.01841168850660324,
        0.10286819189786911,
        0.05806507170200348,
        0.04304450377821922,
        0.009328766725957394,
        0.022379949688911438,
        0.0756676122546196,
        0.008389022201299667,
        0.01563301496207714,
        0.00026400890783406794,
        -0.029667051509022713,
        0.0020626126788556576,
        -0.006844347808510065,
        0.028037602081894875,
        -0.029031889513134956,
        0.02630850113928318,
        -0.015730004757642746,
        -0.06348886340856552,
        -0.025561798363924026
      ],
      [
        -0.14478451013565063,
        -0.10664914548397064,
        0.02348199114203453,
        0.04829578101634979,
        0.004654617514461279,
        0.07031708210706711,
        0.06503164768218994,
        -0.09177673608064651,
        0.02514009363949299,
        0.09445642679929733,
        -0.020190946757793427,
        0.9237730503082275,
        0.25893139839172363,
        -0.12166611850261688,
        -0.31641581654548645,
        -0.11249437928199768,
        -0.38561326265335083,
        0.2731998860836029,
        0.07254958152770996,
        -0.09778217226266861,
        -0.11075771600008011,
        -0.32924148440361023,
        0.1893131136894226,
        0.12070587277412415,
        -0.15447784960269928,
        0.04969858378171921,
        -0.14387652277946472,
        0.0034304079599678516,
        0.02015702985227108,
        -0.2331807017326355,
        0.07757764309644699,
        0.12755316495895386,
        -0.035195283591747284
      ],
      [
        -0.3988305628299713,
        -0.849807858467102,
        -0.4785272181034088,
        -0.35089513659477234,
        -0.3806016743183136,
        -0.12647955119609833,
        -0.13490651547908783,
        0.05071813613176346,
        -0.5572113394737244,
        -0.6405770778656006,
        -0.3933440148830414,
        -0.6331940293312073,
        -0.5357778668403625,
        -0.4842853546142578,
        -0.37044838070869446,
        -0.3155181109905243,
        -0.12235795706510544,
        -0.7368088960647583,
        -0.5508886575698853,
        -0.3889443576335907,
        -0.32998794317245483,
        -0.20756034553050995,
        -0.36029237508773804,
        -0.2252822369337082,
        -0.13228794932365417,
        -0.24051478505134583,
        0.16214419901371002,
        -0.41810381412506104,
        -0.11423343420028687,
        0.09319787472486496,
        -0.13892225921154022,
        -0.6712172031402588,
        0.13395820558071136
      ],
      [
        0.2241819053888321,
        0.27355873584747314,
        -0.024885226041078568,
        -0.03457547724246979,
        0.01338169351220131,
        0.054190494120121,
        0.04678001627326012,
        0.037658121436834335,
        0.05169301480054855,
        -0.02280549705028534,
        -0.00026836403412744403,
        0.8497878313064575,
        0.27185335755348206,
        -0.09532535821199417,
        -0.24837835133075714,
        0.04647788777947426,
        -0.39806604385375977,
        0.23595432937145233,
        0.10391505807638168,
        0.18776002526283264,
        0.10712423920631409,
        -0.18538779020309448,
        0.24418261647224426,
        0.11377886682748795,
        -0.0043410612270236015,
        0.1221848800778389,
        -0.10229271650314331,
        -0.052672047168016434,
        0.020580556243658066,
        -0.13949228823184967,
        -0.02028384804725647,
        0.16174402832984924,
        -0.06157384067773819
      ],
      [
        0.03992819786071777,
        0.04190267249941826,
        -0.15794825553894043,
        -0.153750479221344,
        -0.0032401762437075377,
        -0.04367142543196678,
        -0.05392201989889145,
        0.03047451190650463,
        -0.0724545270204544,
        0.014028268866240978,
        -0.003378902096301317,
        1.0204132795333862,
        0.312866747379303,
        -0.2774859666824341,
        -0.41551944613456726,
        0.03253106772899628,
        -0.42781999707221985,
        0.26188820600509644,
        0.0571126863360405,
        0.1462859809398651,
        0.10708931088447571,
        -0.20629310607910156,
        0.07925909012556076,
        0.04662731662392616,
        -0.148426815867424,
        0.01341279223561287,
        -0.131498321890831,
        -0.03713693469762802,
        -0.08112882077693939,
        -0.17788538336753845,
        0.006856316234916449,
        -0.01869385316967964,
        0.0031578857451677322
      ],
      [
        0.039696402847766876,
        0.04236995428800583,
        0.032965075224637985,
        0.009841475635766983,
        0.030246885493397713,
        -0.0520421527326107,
        -0.01863766461610794,
        0.015480667352676392,
        -0.013080270029604435,
        -0.0006920878659002483,
        0.010006588883697987,
        -0.00018884104792959988,
        0.04469938948750496,
        -0.003147318260744214,
        0.02913123182952404,
        0.000703651225194335,
        -0.0139847993850708,
        -0.013555875048041344,
        -0.03405018895864487,
        0.06613972783088684,
        0.022837640717625618,
        0.04592509940266609,
        -0.043297190219163895,
        -0.025700166821479797,
        -0.03686792775988579,
        -0.0018533427501097322,
        0.00884766224771738,
        0.035844773054122925,
        -0.01647644117474556,
        0.007451102137565613,
        0.012516568414866924,
        0.07576728612184525,
        0.01193440891802311
      ],
      [
        -0.03395684435963631,
        0.05931677296757698,
        0.06180251017212868,
        0.031655628234148026,
        0.016024064272642136,
        -0.014266793616116047,
        0.00929658766835928,
        0.008141864091157913,
        0.017528746277093887,
        0.03226648271083832,
        -0.014418377541005611,
        0.02941831201314926,
        -0.008612103760242462,
        -0.045050568878650665,
        0.05518209934234619,
        -0.02406689152121544,
        -0.023169828578829765,
        0.009511720389127731,
        -0.030871547758579254,
        -0.006041423883289099,
        -0.039128825068473816,
        0.013969724997878075,
        -0.00036775690387003124,
        -0.02576920948922634,
        0.042750224471092224,
        -0.022248579189181328,
        -0.018838584423065186,
        -0.062331002205610275,
        -0.039744749665260315,
        0.011897891759872437,
        0.012288657948374748,
        0.10959422588348389,
        0.007656000088900328
      ],
      [
        -0.1168241798877716,
        -0.021605176851153374,
        0.028118235990405083,
        -0.017900777980685234,
        -0.014266185462474823,
        0.031062092632055283,
        -0.02354215458035469,
        -0.007646224927157164,
        -0.09981856495141983,
        0.047859884798526764,
        -0.010668695904314518,
        0.9032931327819824,
        0.3180902898311615,
        -0.2276715785264969,
        -0.3727056086063385,
        0.04209994524717331,
        -0.27844738960266113,
        0.18222284317016602,
        0.21667785942554474,
        0.10953042656183243,
        0.03602595999836922,
        -0.1805555820465088,
        0.1814413219690323,
        0.04103991389274597,
        -0.1943962424993515,
        0.01261834241449833,
        -0.27592480182647705,
        -0.016911368817090988,
        -0.05109066516160965,
        -0.2742865979671478,
        -0.013669220730662346,
        0.10820186138153076,
        -0.017723524942994118
      ],
      [
        0.12126772850751877,
        0.1125275269150734,
        -0.0974210798740387,
        -0.10154080390930176,
        0.001988238887861371,
        -0.053893834352493286,
        0.008778650313615799,
        0.04893533140420914,
        -0.037431225180625916,
        0.019950538873672485,
        0.004756357986479998,
        -0.020960494875907898,
        0.005095832049846649,
        -0.02499392069876194,
        0.0003577997558750212,
        -0.04052125662565231,
        0.007893336936831474,
        -0.014336170628666878,
        0.006056978367269039,
        0.01313211489468813,
        0.013905664905905724,
        0.02901819720864296,
        -0.03931405022740364,
        -0.04843073710799217,
        -0.08294188976287842,
        -0.02767481468617916,
        -0.045595165342092514,
        -0.002814582549035549,
        0.009656572714447975,
        -0.05560172721743584,
        0.009302040562033653,
        -0.005800384096801281,
        -0.015241708606481552
      ],
      [
        -0.08513426780700684,
        -0.08539289236068726,
        -0.06052332744002342,
        -0.0646931529045105,
        0.0007709314813837409,
        0.040112413465976715,
        -0.002604095730930567,
        -0.028946299105882645,
        0.008034070022404194,
        0.015374323353171349,
        -0.005826578009873629,
        0.007947707548737526,
        -0.01640377938747406,
        -0.017786888405680656,
        0.027054930105805397,
        -0.007726259063929319,
        -0.0050157359801232815,
        0.03940447419881821,
        -0.01962406560778618,
        0.11395162343978882,
        0.11450117081403732,
        0.12557217478752136,
        -0.02102913148701191,
        -0.08410976082086563,
        -0.025244522839784622,
        -0.07121271640062332,
        -0.07592935115098953,
        -0.08532503992319107,
        -0.07392498105764389,
        -0.055504221469163895,
        0.0068861511535942554,
        0.12263894081115723,
        0.03713522106409073
      ],
      [
        0.18540558218955994,
        0.15164697170257568,
        0.10293237119913101,
        0.1162247583270073,
        -0.01592400297522545,
        0.006279892288148403,
        0.0031768435146659613,
        0.005681365262717009,
        -0.03142465278506279,
        -0.0483887754380703,
        -0.012171650305390358,
        -0.9133312106132507,
        -0.27170035243034363,
        0.23687505722045898,
        0.31936851143836975,
        -0.04960593208670616,
        0.21830172836780548,
        -0.15263092517852783,
        -0.09789440780878067,
        -0.10357598960399628,
        -0.06947921961545944,
        0.19859592616558075,
        -0.21238261461257935,
        -0.08446893841028214,
        0.12223446369171143,
        -0.1010209396481514,
        0.2149515599012375,
        -0.02384917624294758,
        0.132761612534523,
        0.29812461137771606,
        0.030752165243029594,
        0.08173462748527527,
        -0.0034516449086368084
      ],
      [
        0.024052787572145462,
        0.07761150598526001,
        -0.11943046748638153,
        -0.16843639314174652,
        -0.00975984800606966,
        -0.019961202517151833,
        0.03660794720053673,
        0.05614268407225609,
        0.016262687742710114,
        0.02986806258559227,
        -0.03256884962320328,
        0.01842563785612583,
        0.012542156502604485,
        -0.04057293012738228,
        0.03597046807408333,
        0.012008557096123695,
        0.012680207379162312,
        0.02402501180768013,
        -0.01988535374403,
        0.004284336231648922,
        -0.01699744537472725,
        0.023830337449908257,
        0.046662624925374985,
        -0.012722533196210861,
        0.0448739267885685,
        -0.027866460382938385,
        -0.03013499453663826,
        -0.08753802627325058,
        -0.02121587283909321,
        -0.02231283113360405,
        0.0043891542591154575,
        0.08139939606189728,
        -0.009177236817777157
      ],
      [
        0.12615376710891724,
        0.0929081067442894,
        -0.1415674239397049,
        -0.18439020216464996,
        0.03390208259224892,
        -0.10407982766628265,
        0.030408067628741264,
        0.09312498569488525,
        -0.01895545981824398,
        0.07877276092767715,
        -0.015281961299479008,
        -0.02177274227142334,
        0.00020955802756361663,
        -0.044681236147880554,
        0.0023797182366251945,
        0.001296775764785707,
        -0.006194805260747671,
        -0.002619619481265545,
        -0.016676632687449455,
        -0.06733749061822891,
        -0.10424386709928513,
        -0.05483446642756462,
        0.001132037490606308,
        -0.02447783574461937,
        -0.066485196352005,
        -0.025934802368283272,
        0.002732600085437298,
        -0.014984294772148132,
        0.007004998158663511,
        -0.05802062526345253,
        0.011197419837117195,
        0.02622075192630291,
        -0.0023446062114089727
      ],
      [
        0.01530965231359005,
        0.001178779173642397,
        0.032858848571777344,
        0.026034880429506302,
        0.028561756014823914,
        -0.05550263077020645,
        -0.00460659246891737,
        0.0391865111887455,
        0.020290257409214973,
        0.003264050930738449,
        0.009254091419279575,
        -0.02340855449438095,
        0.03328483924269676,
        0.004599816631525755,
        0.014689679257571697,
        0.03718402236700058,
        0.0032124833669513464,
        -0.010082718916237354,
        -0.020231489092111588,
        0.04228566586971283,
        0.022077081725001335,
        0.033243220299482346,
        -0.008544402197003365,
        0.016032453626394272,
        -0.036211367696523666,
        0.018966389819979668,
        0.019458770751953125,
        0.07117549329996109,
        0.026218736544251442,
        0.002035747282207012,
        0.011824172921478748,
        0.07764190435409546,
        0.010344565846025944
      ],
      [
        0.08820360898971558,
        0.10401767492294312,
        0.03762919455766678,
        0.018683861941099167,
        -0.009821475483477116,
        0.03499729931354523,
        -0.009059738367795944,
        -0.01564578153192997,
        -0.08880501240491867,
        -0.03326736390590668,
        -0.018705742433667183,
        -0.0688561201095581,
        0.017619911581277847,
        0.024985114112496376,
        0.017643047496676445,
        -0.03491174429655075,
        0.01521772425621748,
        -0.05236711725592613,
        -0.023514997214078903,
        -0.014848152175545692,
        0.03473901376128197,
        0.022917354479432106,
        0.0023457594215869904,
        0.0022304861340671778,
        0.03520066291093826,
        -0.011364494450390339,
        -0.011882137507200241,
        -0.02841300703585148,
        -0.02730274386703968,
        0.048750296235084534,
        0.01778838038444519,
        -0.12475812435150146,
        -0.007301297504454851
      ],
      [
        -0.018232112750411034,
        0.010460433550179005,
        0.06230514124035835,
        0.07199925184249878,
        0.023821746930480003,
        0.0028062413912266493,
        0.03836860880255699,
        0.014644796028733253,
        -0.03841996565461159,
        -0.017308618873357773,
        0.04031333699822426,
        -0.8990746736526489,
        -0.23185570538043976,
        0.1960247904062271,
        0.33618196845054626,
        -0.06712931394577026,
        0.26894456148147583,
        -0.27006661891937256,
        -0.08778434991836548,
        -0.12793467938899994,
        -0.10447210818529129,
        0.2122974842786789,
        -0.16104558110237122,
        -0.10054279863834381,
        0.06772463023662567,
        -0.09753504395484924,
        0.07426740974187851,
        0.03887021169066429,
        -0.007164797745645046,
        0.13332197070121765,
        0.02386285923421383,
        -0.015787726268172264,
        -0.06445570290088654
      ],
      [
        -0.004979993216693401,
        -0.012378894723951817,
        -0.01577424257993698,
        0.03535781055688858,
        0.011865592561662197,
        0.010735861957073212,
        -0.0032664777245372534,
        0.016356956213712692,
        0.0011159502901136875,
        0.048487357795238495,
        -0.020252322778105736,
        -0.43581128120422363,
        -0.1625206172466278,
        0.03373197093605995,
        0.23197507858276367,
        -0.06221945956349373,
        0.2856614291667938,
        -0.08959975838661194,
        0.008835808373987675,
        -0.025745002552866936,
        -0.010752053931355476,
        0.08157096058130264,
        -0.11542002111673355,
        -0.07851998507976532,
        -0.010622868314385414,
        -0.12630106508731842,
        -0.025395918637514114,
        -0.04649966582655907,
        -0.05498936027288437,
        0.08096665143966675,
        0.006008354015648365,
        0.042047787457704544,
        -0.03624607250094414
      ],
      [
        -0.13847216963768005,
        -0.07062290608882904,
        0.12554964423179626,
        0.13053008913993835,
        -0.023933684453368187,
        -0.01357079017907381,
        -0.008356334641575813,
        -0.02961781620979309,
        0.031047986820340157,
        -0.02709731087088585,
        -0.002669180976226926,
        -0.012334635481238365,
        -0.011435196734964848,
        -0.025099415332078934,
        -0.007846144028007984,
        0.0036036893725395203,
        0.011306186206638813,
        -0.02942732349038124,
        0.011246961541473866,
        0.09539098292589188,
        0.10948893427848816,
        0.09316431730985641,
        0.04548586905002594,
        0.08184108883142471,
        0.05402195826172829,
        0.0735609382390976,
        0.06890615820884705,
        0.08544298261404037,
        0.04470253735780716,
        0.0761483833193779,
        -0.012342004105448723,
        -0.06140360236167908,
        -0.054897602647542953
      ],
      [
        -0.09757588803768158,
        0.0016878406750038266,
        -0.026757737621665,
        -0.00592498853802681,
        -0.0029450792353600264,
        0.04290119186043739,
        0.03299102187156677,
        -0.03854348137974739,
        0.00020180630963295698,
        0.023523494601249695,
        -0.06168927997350693,
        1.0344151258468628,
        0.3008003234863281,
        -0.13050077855587006,
        -0.34681928157806396,
        -0.10929053276777267,
        -0.35203415155410767,
        0.19023239612579346,
        0.05205259844660759,
        0.11475349962711334,
        0.08240491896867752,
        -0.202816903591156,
        0.2624202072620392,
        0.15420913696289062,
        0.017035864293575287,
        0.1791330724954605,
        -0.1558338850736618,
        -0.08691941946744919,
        -0.06172170490026474,
        -0.07216674834489822,
        -0.05496547371149063,
        0.021227000281214714,
        0.04133544862270355
      ],
      [
        -0.0682654157280922,
        0.056730423122644424,
        -0.043646953999996185,
        -0.05239877477288246,
        0.03907576575875282,
        -0.026039747521281242,
        -0.004439062904566526,
        -0.04190901294350624,
        0.01754004694521427,
        0.14749619364738464,
        0.04886297509074211,
        0.8074272274971008,
        0.22902797162532806,
        -0.12965057790279388,
        -0.3004227578639984,
        0.09320788085460663,
        -0.36836427450180054,
        0.15290197730064392,
        0.0060486397705972195,
        0.06050025299191475,
        0.014647134579718113,
        -0.1482098251581192,
        0.05764918029308319,
        0.048818960785865784,
        -0.18004685640335083,
        0.03628372773528099,
        -0.2173028588294983,
        -0.09499918669462204,
        -0.006199132185429335,
        -0.29846975207328796,
        -0.0692247599363327,
        -0.05636799335479736,
        -0.042821645736694336
      ],
      [
        -0.28169485926628113,
        -0.7968377470970154,
        -0.44579121470451355,
        -0.2677781879901886,
        -0.29206082224845886,
        -0.20964425802230835,
        -0.0548822358250618,
        -0.11173466593027115,
        -0.3965182900428772,
        -0.26477596163749695,
        -0.25962188839912415,
        -0.9791957139968872,
        -0.823661208152771,
        -0.3358463644981384,
        -0.2512338161468506,
        -0.3485063314437866,
        -0.3302801549434662,
        -0.6914843320846558,
        -0.20538894832134247,
        -0.37377533316612244,
        -0.42682957649230957,
        -0.1270216554403305,
        -0.4633979797363281,
        -0.46333643794059753,
        -0.4302274286746979,
        -0.3595643639564514,
        -0.051878299564123154,
        -0.3940930962562561,
        -0.0965399444103241,
        0.05614997074007988,
        -0.43590304255485535,
        -0.5754603743553162,
        -0.04155915603041649
      ],
      [
        0.06927290558815002,
        -0.013761120848357677,
        0.07901554554700851,
        0.054151784628629684,
        -0.08453696966171265,
        0.06656674295663834,
        0.02027098461985588,
        -0.03204809129238129,
        -0.1468803435564041,
        -0.16528506577014923,
        -0.023322265595197678,
        0.04692034795880318,
        0.018874531611800194,
        -0.059994034469127655,
        -0.09618253260850906,
        -0.0760330781340599,
        -0.07307324558496475,
        -0.07159694284200668,
        0.011291234754025936,
        0.012735672295093536,
        0.10580665618181229,
        0.06910412758588791,
        -0.027432747185230255,
        -0.06447650492191315,
        -0.006872585043311119,
        -0.054558929055929184,
        -0.029239006340503693,
        -0.056649841368198395,
        -0.05322181433439255,
        -0.0429849810898304,
        -0.01197437196969986,
        -0.00258115422911942,
        -0.00031717336969450116
      ],
      [
        -0.13993525505065918,
        -0.029445840045809746,
        -0.06839063763618469,
        -0.07200297713279724,
        -0.0020029782317578793,
        -0.04217879846692085,
        -0.01906747743487358,
        -0.06084505096077919,
        -0.12175431102514267,
        0.09403977543115616,
        0.029797911643981934,
        0.9593774080276489,
        0.3203464150428772,
        -0.24403439462184906,
        -0.3680858612060547,
        -0.05457315966486931,
        -0.3529090881347656,
        0.21368354558944702,
        0.1946529597043991,
        0.040233537554740906,
        0.026714131236076355,
        -0.16354626417160034,
        0.14477010071277618,
        0.1323772668838501,
        -0.1160104051232338,
        0.12014786154031754,
        -0.08425544947385788,
        -0.003278756747022271,
        -0.11542555689811707,
        -0.24873222410678864,
        0.0709075927734375,
        -0.059025008231401443,
        0.05510563403367996
      ],
      [
        -0.44145700335502625,
        -0.4835747480392456,
        -0.11567755043506622,
        -0.06237378716468811,
        -0.1717223823070526,
        -0.07078244537115097,
        -0.15220586955547333,
        -0.018281372264027596,
        -0.13809652626514435,
        -0.11297646909952164,
        -0.09892797470092773,
        0.19659370183944702,
        0.0317099504172802,
        -0.21424320340156555,
        -0.40272852778434753,
        0.10484100878238678,
        -0.39183509349823,
        -0.07309183478355408,
        -0.0031983579974621534,
        -0.08779293298721313,
        -0.10761480033397675,
        -0.2830994129180908,
        0.09784788638353348,
        0.04429008811712265,
        -0.254386305809021,
        -0.12112458795309067,
        0.02996022440493107,
        -0.09522029757499695,
        -0.006933143362402916,
        -0.20684553682804108,
        -0.11182474344968796,
        -0.1558562070131302,
        -0.06133218854665756
      ],
      [
        -0.022817689925432205,
        -0.014020570553839207,
        0.031740374863147736,
        0.0585959367454052,
        0.018180198967456818,
        -0.008027905598282814,
        -0.05107210949063301,
        -0.00814146175980568,
        -6.494349509011954e-05,
        -0.042067866772413254,
        -0.0022458992898464203,
        -0.037055693566799164,
        -0.003167695365846157,
        -0.009546707384288311,
        -0.003591141663491726,
        0.06842567026615143,
        0.014013242907822132,
        0.00312750949524343,
        0.0027759948279708624,
        0.026586029678583145,
        0.04053008183836937,
        0.011409015394747257,
        -0.0827447772026062,
        -0.04064270481467247,
        -0.08452966809272766,
        -0.0254879891872406,
        -0.0631503164768219,
        0.02357601188123226,
        -0.05877408757805824,
        -0.03571644052863121,
        0.008709408342838287,
        -0.031319476664066315,
        -0.011360138654708862
      ],
      [
        -0.0478057861328125,
        -0.043796606361866,
        0.03424130752682686,
        0.01854824647307396,
        -0.025875307619571686,
        0.04259825125336647,
        0.02442251890897751,
        -0.012566504999995232,
        -0.034583427011966705,
        0.07621492445468903,
        0.0033157705329358578,
        0.3900150954723358,
        0.11065119504928589,
        -0.07878401130437851,
        -0.12730154395103455,
        -0.009985423646867275,
        -0.14320580661296844,
        0.09244433790445328,
        0.0702972412109375,
        0.037845462560653687,
        0.02146131731569767,
        -0.045058418065309525,
        0.11244532465934753,
        0.08212009072303772,
        0.0919700413942337,
        0.09038945287466049,
        0.06428448855876923,
        0.05253645032644272,
        0.05439910292625427,
        -0.05029461905360222,
        0.004935537464916706,
        0.08569550514221191,
        0.07767413556575775
      ],
      [
        0.16530516743659973,
        0.20817327499389648,
        0.07168527692556381,
        0.055407311767339706,
        0.012911362573504448,
        -0.03696940094232559,
        0.024233942851424217,
        -0.07117150723934174,
        0.051771294325590134,
        0.08273877948522568,
        -0.04938605800271034,
        -1.0141925811767578,
        -0.2856176495552063,
        0.2153998464345932,
        0.43095535039901733,
        -0.07845001667737961,
        0.2753271460533142,
        -0.20900675654411316,
        -0.18144796788692474,
        -0.09579960256814957,
        -0.05970226973295212,
        0.2012428194284439,
        -0.1663244366645813,
        -0.053021010011434555,
        0.10549131035804749,
        -0.004991572815924883,
        0.1703953742980957,
        0.0846160352230072,
        0.03351669758558273,
        0.18659456074237823,
        0.03553202003240585,
        0.09267085790634155,
        0.01717199571430683
      ],
      [
        -0.0179901160299778,
        0.10544752329587936,
        0.10629189014434814,
        0.08478213101625443,
        -0.04512150585651398,
        -0.04543290287256241,
        0.05468326434493065,
        0.04362435266375542,
        -0.029668178409337997,
        0.0322609506547451,
        0.020176244899630547,
        -0.9943763017654419,
        -0.21553292870521545,
        0.16443637013435364,
        0.2655794620513916,
        0.05080147832632065,
        0.3764994740486145,
        -0.24374903738498688,
        -0.11683154106140137,
        -0.12542974948883057,
        -0.06255701184272766,
        0.16294623911380768,
        -0.12375526130199432,
        -0.14888839423656464,
        0.16174259781837463,
        -0.14491909742355347,
        0.12354405969381332,
        -0.051966845989227295,
        -0.04590875282883644,
        0.27260926365852356,
        0.05570043623447418,
        0.11799263209104538,
        0.012294787913560867
      ],
      [
        0.010579962283372879,
        -0.04605139419436455,
        0.012050310149788857,
        0.012538203969597816,
        -0.003492035437375307,
        -0.014089039526879787,
        -0.002608198905363679,
        -0.02259192243218422,
        0.008157690055668354,
        0.008526351302862167,
        0.005510000977665186,
        -0.018662886694073677,
        0.02097012661397457,
        -0.020244726911187172,
        0.015179730951786041,
        -0.010762366466224194,
        0.03552932292222977,
        0.03881680220365524,
        -0.028129488229751587,
        -0.02884821407496929,
        -0.029436348006129265,
        -0.05596325919032097,
        0.05760975554585457,
        -0.0029973385389894247,
        0.022387627512216568,
        0.03182385861873627,
        0.020396465435624123,
        0.05984557792544365,
        0.035173170268535614,
        0.00788351520895958,
        0.019597740843892097,
        0.08716315776109695,
        -0.00814766250550747
      ],
      [
        -0.16783207654953003,
        -0.14080938696861267,
        0.08765458315610886,
        0.08411963284015656,
        -0.005780278239399195,
        0.034405626356601715,
        -0.02082747034728527,
        -0.06785465031862259,
        -0.060229163616895676,
        -0.0006345962174236774,
        0.04393662139773369,
        1.0163350105285645,
        0.2260735183954239,
        -0.1732073426246643,
        -0.2774888575077057,
        -0.09314104914665222,
        -0.3975909948348999,
        0.1348162442445755,
        0.16444842517375946,
        -0.019983908161520958,
        -0.06494897603988647,
        -0.21742211282253265,
        0.2173362374305725,
        0.13791750371456146,
        -0.15277251601219177,
        0.1491878777742386,
        -0.07631131261587143,
        -0.03319200873374939,
        -0.08515596389770508,
        -0.2522069215774536,
        -0.02593846805393696,
        -0.07310772687196732,
        0.03362656012177467
      ],
      [
        0.07905952632427216,
        0.0764688029885292,
        -0.04306606575846672,
        -0.02988075278699398,
        -0.08042710274457932,
        0.10413631051778793,
        -0.008090751245617867,
        -0.07747221738100052,
        0.008998454548418522,
        -0.08739253878593445,
        0.006556838750839233,
        -0.003920278046280146,
        0.018039187416434288,
        0.013442516326904297,
        0.0016306160250678658,
        -0.03019925020635128,
        -0.003626333549618721,
        0.013395072892308235,
        0.009474512189626694,
        -0.0803716704249382,
        -0.016467371955513954,
        -0.061642393469810486,
        -0.04607738181948662,
        -0.057145871222019196,
        0.016784200444817543,
        -0.03326035290956497,
        -0.07814142107963562,
        -0.07536422461271286,
        -0.07086197286844254,
        -0.04519839212298393,
        0.007398461457341909,
        -0.0702357217669487,
        -0.02526760846376419
      ],
      [
        -0.21144132316112518,
        -0.12482061982154846,
        0.027297867462038994,
        0.0173384677618742,
        -0.010530919767916203,
        0.05057813599705696,
        -0.010363076813519001,
        -0.07269363850355148,
        0.009561548009514809,
        0.05153721198439598,
        -0.0028433504048734903,
        -0.00336828944273293,
        -0.03796350210905075,
        -0.005050876643508673,
        0.012382376939058304,
        -0.01124159898608923,
        -0.004690639674663544,
        0.027528274804353714,
        -0.009626645594835281,
        0.06306718289852142,
        0.0670664831995964,
        0.06885900348424911,
        0.015480863861739635,
        -0.014279130846261978,
        0.026992516592144966,
        -0.017220156267285347,
        -0.0051164948381483555,
        -0.06876527518033981,
        -0.02813422866165638,
        0.013433990068733692,
        -0.01340668648481369,
        -0.061941202729940414,
        -0.0082770437002182
      ],
      [
        -0.12141866981983185,
        -0.1634247899055481,
        0.02658706158399582,
        -0.005337154492735863,
        0.04585905373096466,
        0.01687556877732277,
        0.03485577553510666,
        -0.013106483034789562,
        0.04811649024486542,
        -0.08527015894651413,
        -0.007689913734793663,
        0.9828333258628845,
        0.23471911251544952,
        -0.17898954451084137,
        -0.32991930842399597,
        -0.0985175147652626,
        -0.3855665326118469,
        0.16380198299884796,
        0.11656474322080612,
        0.12980647385120392,
        0.0750458613038063,
        -0.17430566251277924,
        0.19869057834148407,
        0.13644060492515564,
        -0.09756320714950562,
        0.14087098836898804,
        -0.06436597555875778,
        -0.061110541224479675,
        -0.07111385464668274,
        -0.1838107854127884,
        0.08784617483615875,
        0.0402945801615715,
        -0.0728907436132431
      ],
      [
        0.09055119007825851,
        0.16766975820064545,
        0.12437374144792557,
        0.11659729480743408,
        -0.005697702988982201,
        0.013198526576161385,
        -0.00015769086894579232,
        -0.02412411943078041,
        0.04325166344642639,
        0.04603278636932373,
        -0.021431485190987587,
        0.02018485963344574,
        -0.03254081308841705,
        -0.036256104707717896,
        0.024741483852267265,
        -0.011831860989332199,
        -0.008265278302133083,
        -0.008970608003437519,
        -0.0020622864831238985,
        -0.01806293986737728,
        -0.02622353285551071,
        0.02145954966545105,
        -0.012471474707126617,
        -0.03285003453493118,
        0.019133012741804123,
        -0.029917197301983833,
        -0.038624800741672516,
        -0.07362376898527145,
        -0.06266836822032928,
        0.008298389613628387,
        0.025045767426490784,
        0.03230825811624527,
        -0.017396844923496246
      ],
      [
        -0.08469640463590622,
        -0.061308182775974274,
        0.07656308263540268,
        0.06477656215429306,
        0.00215742620639503,
        -0.0056643299758434296,
        -0.015132321044802666,
        -0.015293529257178307,
        0.09072806686162949,
        -0.04890220984816551,
        0.008144734427332878,
        0.7906009554862976,
        0.2636141777038574,
        -0.09194197505712509,
        -0.30304908752441406,
        -0.05461328849196434,
        -0.3164044916629791,
        0.16082897782325745,
        0.15190085768699646,
        -0.058208927512168884,
        -0.06434264034032822,
        -0.2714225947856903,
        0.0759127140045166,
        0.02473551779985428,
        -0.14239709079265594,
        0.01807538792490959,
        -0.170750692486763,
        -0.08473484963178635,
        -0.09934357553720474,
        -0.23680901527404785,
        0.03694881871342659,
        0.025702757760882378,
        -0.0009828406618908048
      ],
      [
        -0.022701146081089973,
        0.025658711791038513,
        0.016972752287983894,
        0.03844929486513138,
        -0.01235868502408266,
        0.024383507668972015,
        -0.0035539695527404547,
        -0.006227103061974049,
        0.09248784929513931,
        0.06017126888036728,
        0.014346457086503506,
        0.25389206409454346,
        0.034841544926166534,
        -0.0309419184923172,
        -0.0633164495229721,
        0.003587966552004218,
        -0.07294652611017227,
        0.06165529787540436,
        0.062007687985897064,
        0.002909430768340826,
        -0.03518735617399216,
        -0.03479495644569397,
        0.03636394441127777,
        0.04412025213241577,
        0.061261992901563644,
        0.03444225713610649,
        0.0018741703825071454,
        0.012312459759414196,
        0.01196077186614275,
        -0.03257935121655464,
        -0.023395802825689316,
        0.08712984621524811,
        0.04509640857577324
      ],
      [
        0.003326759207993746,
        -0.0720987468957901,
        -0.013939819298684597,
        -0.021290086209774017,
        -0.05827300250530243,
        -0.04391089454293251,
        -0.01706107333302498,
        -0.020687734708189964,
        0.03452271595597267,
        -0.16099809110164642,
        -0.02845672518014908,
        1.0233818292617798,
        0.25071415305137634,
        -0.2347717583179474,
        -0.29177528619766235,
        -0.1012389212846756,
        -0.38866063952445984,
        0.16032393276691437,
        0.03895300254225731,
        0.07086112350225449,
        0.03250671550631523,
        -0.16028161346912384,
        0.26086071133613586,
        0.19974689185619354,
        0.016250675544142723,
        0.07732000201940536,
        -0.05068052560091019,
        -0.015003449283540249,
        0.035351067781448364,
        -0.20536983013153076,
        0.07403154671192169,
        -0.01245906949043274,
        0.011272183619439602
      ],
      [
        -0.024558037519454956,
        0.010372253134846687,
        0.039556391537189484,
        0.06286713480949402,
        0.006175455171614885,
        0.06244838982820511,
        -0.02357957698404789,
        -0.07634526491165161,
        0.003211145754903555,
        -0.053624559193849564,
        0.016983143985271454,
        0.01968025229871273,
        -0.057319313287734985,
        -0.0027641411870718002,
        -0.0014496617950499058,
        -0.013940884731709957,
        -0.04424217715859413,
        -0.010414998047053814,
        0.025708293542265892,
        -0.016623977571725845,
        -0.012512494809925556,
        -0.031345073133707047,
        -0.02749393880367279,
        0.014763198792934418,
        0.0374397449195385,
        0.003795409807935357,
        0.0025315331295132637,
        -0.011287452653050423,
        -0.01614481396973133,
        0.010853704996407032,
        -0.038211118429899216,
        -0.08260881155729294,
        0.019520310685038567
      ],
      [
        0.2337222844362259,
        0.20202435553073883,
        0.10354810953140259,
        0.11149467527866364,
        -0.009701070375740528,
        -0.01761210896074772,
        -0.04681309312582016,
        -0.035538800060749054,
        0.058484870940446854,
        0.0857982188463211,
        0.009872728027403355,
        -0.759985089302063,
        -0.30051103234291077,
        0.13736990094184875,
        0.25974857807159424,
        -0.03395377844572067,
        0.2914345860481262,
        -0.2204526662826538,
        -0.14010745286941528,
        -0.07586437463760376,
        -0.1270054429769516,
        0.11160491406917572,
        -0.15620596706867218,
        -0.09249820560216904,
        0.10374286770820618,
        -0.07337288558483124,
        0.14109544456005096,
        0.058112628757953644,
        0.05136733874678612,
        0.17332258820533752,
        -0.032554712146520615,
        -0.008559523150324821,
        -0.021656416356563568
      ],
      [
        0.05012275651097298,
        -0.03607076406478882,
        -0.11783003062009811,
        -0.0827145203948021,
        0.03139307349920273,
        0.02241915836930275,
        0.0320778451859951,
        -0.060956478118896484,
        -0.035130824893713,
        -0.1386866718530655,
        -0.04538487643003464,
        -0.9129939079284668,
        -0.20103132724761963,
        0.08006754517555237,
        0.35616856813430786,
        0.13523826003074646,
        0.2843039929866791,
        -0.16290292143821716,
        -0.055921345949172974,
        0.04143436998128891,
        0.05853673815727234,
        0.277241975069046,
        -0.12299395352602005,
        -0.09861531853675842,
        0.16000379621982574,
        -0.043975505977869034,
        0.18500754237174988,
        0.06951524317264557,
        0.008537974208593369,
        0.2871139943599701,
        0.006058089435100555,
        -0.06048876792192459,
        -0.01679091714322567
      ],
      [
        -0.057880185544490814,
        -0.07374054193496704,
        -0.08687012642621994,
        -0.010211434215307236,
        0.04548729583621025,
        -0.017166778445243835,
        -0.006463272962719202,
        -0.008604863658547401,
        -0.0613977275788784,
        0.07391739636659622,
        -0.08048677444458008,
        -0.8885523676872253,
        -0.30709969997406006,
        0.18008936941623688,
        0.32786378264427185,
        -0.017942136153578758,
        0.2763086259365082,
        -0.15015511214733124,
        -0.07503634691238403,
        -0.1896643042564392,
        -0.15195332467556,
        0.10273634642362595,
        -0.2104252129793167,
        -0.13040044903755188,
        0.08943639695644379,
        -0.18360641598701477,
        0.06261999905109406,
        0.00037589133717119694,
        -0.004347808193415403,
        0.23400719463825226,
        0.004757855553179979,
        0.008159813471138477,
        -0.008251827210187912
      ],
      [
        0.06235407665371895,
        0.1037326455116272,
        -0.11713045835494995,
        -0.06350827217102051,
        -0.01300231646746397,
        0.0908944383263588,
        -0.030171917751431465,
        -0.07924892008304596,
        0.008500566706061363,
        -0.057745348662137985,
        0.028348414227366447,
        0.02484459988772869,
        -0.02696208283305168,
        0.0015340509125962853,
        0.03118048422038555,
        -0.022526435554027557,
        -0.03904878720641136,
        -0.025484446436166763,
        0.0314909890294075,
        0.12439777702093124,
        0.1290925294160843,
        0.08653435856103897,
        -0.12637190520763397,
        -0.0635894238948822,
        0.006235850043594837,
        -0.06539537012577057,
        -0.06845005601644516,
        -0.07539194077253342,
        -0.08866520971059799,
        -0.0455223023891449,
        -0.032125089317560196,
        -0.09312587231397629,
        -0.006249761208891869
      ],
      [
        0.13348056375980377,
        0.09117508679628372,
        -0.05788715183734894,
        -0.054567720741033554,
        0.03930800408124924,
        -0.03449047729372978,
        -0.023562949150800705,
        -0.05017838254570961,
        -0.06984833627939224,
        0.0021475162357091904,
        -0.006929120514541864,
        -1.0117700099945068,
        -0.25177380442619324,
        0.2344190776348114,
        0.41476693749427795,
        0.007883433252573013,
        0.4162171483039856,
        -0.12846796214580536,
        -0.07940587401390076,
        0.0007807608926668763,
        0.00977249164134264,
        0.16526371240615845,
        -0.12134797126054764,
        -0.07903487235307693,
        0.13574248552322388,
        -0.11468692123889923,
        0.14075425267219543,
        -0.07046816498041153,
        -0.01802830770611763,
        0.12569782137870789,
        -0.02960842475295067,
        0.05621013417840004,
        -0.0061905281618237495
      ],
      [
        -0.10444525629281998,
        -0.09739677608013153,
        -0.04344244301319122,
        -0.007015999872237444,
        0.029003312811255455,
        0.06129159778356552,
        0.02010871097445488,
        0.06554607301950455,
        -0.10028550028800964,
        -0.007887853309512138,
        -0.0190865658223629,
        0.9437640309333801,
        0.28990620374679565,
        -0.21095295250415802,
        -0.28107020258903503,
        -0.02898893877863884,
        -0.3637755513191223,
        0.13522285223007202,
        0.058639008551836014,
        0.14057284593582153,
        0.11946715414524078,
        -0.15084630250930786,
        0.23958328366279602,
        0.22956618666648865,
        -0.049746062606573105,
        0.1532122790813446,
        -0.03441877290606499,
        0.05660885199904442,
        0.006263235118240118,
        -0.06920002400875092,
        0.02525501139461994,
        0.08572425693273544,
        -0.037224821746349335
      ],
      [
        0.17135056853294373,
        0.2081259787082672,
        -0.08877004683017731,
        -0.10562197118997574,
        -0.0074613685719668865,
        0.014673499390482903,
        -0.04600580409169197,
        -0.012487117201089859,
        -0.11052971333265305,
        -0.008848615922033787,
        -0.020902268588542938,
        -1.0559862852096558,
        -0.21709023416042328,
        0.1731821596622467,
        0.24428033828735352,
        0.06599494814872742,
        0.3616006076335907,
        -0.2476409375667572,
        -0.16420632600784302,
        -0.11543398350477219,
        -0.07520105689764023,
        0.17821717262268066,
        -0.08344581723213196,
        -0.00795761775225401,
        0.03311837092041969,
        0.04164241626858711,
        0.18698716163635254,
        -0.021931780502200127,
        0.12621477246284485,
        0.2805659770965576,
        0.00021069677313789725,
        -0.10485757887363434,
        0.0431206114590168
      ],
      [
        0.5010241866111755,
        0.6047570705413818,
        0.43246299028396606,
        0.3205966651439667,
        0.4551168382167816,
        0.28029030561447144,
        0.15327775478363037,
        0.030238959938287735,
        0.4040433466434479,
        0.3838962912559509,
        0.4745691120624542,
        0.29075583815574646,
        0.3852480947971344,
        0.4760802686214447,
        0.5613082051277161,
        0.1695832908153534,
        0.43293049931526184,
        0.49670925736427307,
        0.24658441543579102,
        0.5296380519866943,
        0.4044993221759796,
        0.4107838571071625,
        0.2807670831680298,
        0.29858699440956116,
        0.24785766005516052,
        0.3907013237476349,
        0.09092935174703598,
        0.27245306968688965,
        0.0315403938293457,
        0.11757156997919083,
        0.3232034742832184,
        0.540391743183136,
        -0.06495637446641922
      ],
      [
        0.05555102601647377,
        -0.005247041117399931,
        -0.16439342498779297,
        -0.1558949202299118,
        -0.04222952947020531,
        -0.01023449283093214,
        0.09182313829660416,
        0.038077935576438904,
        0.02321026287972927,
        0.0852557048201561,
        -0.037718191742897034,
        0.8988227844238281,
        0.28542619943618774,
        -0.2522587776184082,
        -0.39089903235435486,
        0.08469050377607346,
        -0.3449879586696625,
        0.1389092057943344,
        0.16938525438308716,
        0.12897570431232452,
        0.0829673483967781,
        -0.15379925072193146,
        0.22932752966880798,
        0.17159317433834076,
        -0.06667303293943405,
        0.017455335706472397,
        -0.07781147956848145,
        -0.07992862164974213,
        -0.006729217246174812,
        -0.2643145024776459,
        -0.00443599559366703,
        -0.025677945464849472,
        0.0070977481082081795
      ],
      [
        0.00469822296872735,
        -0.09669216722249985,
        -0.03539992496371269,
        -0.027279840782284737,
        -0.04623275250196457,
        -0.05368184298276901,
        0.02281005308032036,
        -0.02050076611340046,
        -0.11464492231607437,
        -0.019054647535085678,
        -0.0068431515246629715,
        0.9826208353042603,
        0.28466618061065674,
        -0.15475401282310486,
        -0.34197625517845154,
        -0.13675624132156372,
        -0.33853062987327576,
        0.19245733320713043,
        0.17553579807281494,
        0.15272651612758636,
        0.11902362108230591,
        -0.15187416970729828,
        0.19127029180526733,
        0.11456461995840073,
        -0.10615372657775879,
        0.14044491946697235,
        -0.07959719747304916,
        0.02087518200278282,
        -0.06175818666815758,
        -0.07932526618242264,
        0.08397551625967026,
        -0.04933634027838707,
        0.000854438403621316
      ],
      [
        0.019214728847146034,
        -0.12233004719018936,
        -0.02478262223303318,
        -0.02356773056089878,
        -0.030834199860692024,
        -0.038608845323324203,
        -0.028195757418870926,
        -0.03635222092270851,
        0.01072897482663393,
        0.06851255893707275,
        -0.034879107028245926,
        0.997900664806366,
        0.29808247089385986,
        -0.17517629265785217,
        -0.27663418650627136,
        -0.05530592054128647,
        -0.32463881373405457,
        0.10740190744400024,
        0.09776506572961807,
        0.01934962160885334,
        0.03275967389345169,
        -0.2520047426223755,
        0.24376684427261353,
        0.11153217405080795,
        -0.07964127510786057,
        0.06906650960445404,
        -0.1574723720550537,
        -0.065492644906044,
        -0.03427547216415405,
        -0.11535003036260605,
        0.03805742412805557,
        0.0886174887418747,
        -0.06216603145003319
      ],
      [
        -0.3104884922504425,
        -0.6027078032493591,
        -0.3633159101009369,
        -0.37013134360313416,
        -0.5314023494720459,
        -0.2136276513338089,
        0.10820066928863525,
        -0.18571238219738007,
        -0.34549397230148315,
        -0.13748563826084137,
        -0.3737388849258423,
        -0.7819831371307373,
        -0.3394445776939392,
        -0.05795565992593765,
        0.016750728711485863,
        -0.3065764009952545,
        -0.24119919538497925,
        -0.698464035987854,
        -0.20870035886764526,
        -0.5226342678070068,
        -0.18831279873847961,
        -0.03937874734401703,
        -0.2641017735004425,
        -0.3813396394252777,
        -0.0716996043920517,
        -0.3378690779209137,
        -0.06382325291633606,
        -0.40764161944389343,
        0.02075706049799919,
        0.14971530437469482,
        -0.43037161231040955,
        -0.3947397470474243,
        0.1766117364168167
      ],
      [
        -0.09829264879226685,
        0.07628227025270462,
        -0.07617440074682236,
        -0.05159749090671539,
        0.01929098181426525,
        -0.035360973328351974,
        0.003928591962903738,
        -0.005058838985860348,
        0.029619375243782997,
        0.1259516030550003,
        -0.026096850633621216,
        1.002943515777588,
        0.25874564051628113,
        -0.2129787653684616,
        -0.34663164615631104,
        -0.07700061053037643,
        -0.33350110054016113,
        0.19434405863285065,
        0.14096829295158386,
        -0.01920296624302864,
        -0.05875830724835396,
        -0.27800703048706055,
        0.11215001344680786,
        0.024309778586030006,
        -0.19284014403820038,
        0.029574157670140266,
        -0.1790943294763565,
        0.0122908940538764,
        -0.07641690224409103,
        -0.2760676145553589,
        -0.06466735154390335,
        -0.023747922852635384,
        -0.0012964861234650016
      ],
      [
        -0.039167825132608414,
        0.03653710335493088,
        0.11897259205579758,
        0.10545840114355087,
        -0.015106703154742718,
        -0.05074088275432587,
        -0.05994948372244835,
        -0.0514049157500267,
        0.10433420538902283,
        0.09607522934675217,
        0.01351103838533163,
        -0.9387372136116028,
        -0.2746760845184326,
        0.12114909291267395,
        0.37520092725753784,
        -0.06954577565193176,
        0.3287961483001709,
        -0.18853601813316345,
        -0.19396470487117767,
        0.025696204975247383,
        0.03349316120147705,
        0.2389276623725891,
        -0.1314728856086731,
        -0.13354340195655823,
        0.015767527744174004,
        -0.1084790974855423,
        0.05890323221683502,
        0.01520234439522028,
        0.04638086259365082,
        0.12291370332241058,
        -0.038387514650821686,
        0.09780436009168625,
        -0.0068023549392819405
      ],
      [
        0.09670159965753555,
        -0.038775552064180374,
        0.03952284902334213,
        0.02502434328198433,
        -0.032866667956113815,
        0.007820778526365757,
        -0.03824090585112572,
        0.03864080831408501,
        -0.06684043258428574,
        0.03632642328739166,
        0.015716588124632835,
        -0.9312506318092346,
        -0.17549695074558258,
        0.15799503028392792,
        0.3645416498184204,
        0.06682246923446655,
        0.3352199196815491,
        -0.17772647738456726,
        -0.08186353743076324,
        -0.09807790815830231,
        -0.0423491969704628,
        0.19010592997074127,
        -0.12049780040979385,
        -0.09959997981786728,
        0.026974992826581,
        -0.011231422424316406,
        0.20828451216220856,
        0.04859473556280136,
        0.008153229020535946,
        0.17214439809322357,
        -0.018198879435658455,
        0.022025324404239655,
        -0.08909561485052109
      ]
    ],
    "encoder.2.bias": [
      0.4562983214855194,
      -0.13044610619544983,
      0.31196677684783936,
      -0.6603472232818604,
      0.5439888834953308,
      -0.23151139914989471,
      -0.4306410849094391,
      0.5247009992599487,
      -0.1482192724943161,
      0.7764365673065186,
      0.7262969613075256,
      0.3382166624069214,
      0.19845184683799744,
      -0.17853502929210663,
      -0.016504960134625435,
      -0.526682436466217,
      -0.6855040788650513,
      -0.5159627199172974,
      0.08567571640014648,
      -0.30437272787094116,
      0.6414551734924316,
      0.5531392693519592,
      -0.5868418216705322,
      -0.4406256377696991,
      -0.3700805604457855,
      -0.39942142367362976,
      0.3784472942352295,
      -0.5911899209022522,
      -0.7321147322654724,
      0.5382112860679626,
      0.23615288734436035,
      0.3797813653945923,
      -0.05991961807012558,
      0.44943341612815857,
      -0.4997091293334961,
      -0.17919722199440002,
      0.7355325222015381,
      0.15159064531326294,
      -0.5566548109054565,
      -0.3010128140449524,
      0.07663064450025558,
      -0.2085544466972351,
      -0.7518474459648132,
      0.27760568261146545,
      0.5484045743942261,
      0.2391645312309265,
      -0.7260354161262512,
      -0.5501041412353516,
      0.4408387839794159,
      0.6179257035255432,
      -0.20543718338012695,
      -0.28246232867240906,
      -0.5432864427566528,
      -0.6637392640113831,
      0.14146625995635986,
      0.5159087777137756,
      0.7765125036239624,
      -0.7938872575759888,
      0.4425410330295563,
      0.4487326741218567,
      0.20826584100723267,
      0.26629698276519775,
      -0.42768025398254395,
      0.1283280849456787
    ],
    "encoder.2.weight": [
      [
        0.056055519729852676,
        0.00829184241592884,
        -0.03190679848194122,
        -0.2840130031108856,
        -0.21049220860004425,
        -0.13080978393554688,
        0.2266121357679367,
        -0.20549346506595612,
        -0.13835066556930542,
        0.06989464908838272,
        0.16932463645935059,
        -0.001964577240869403,
        0.2108943909406662,
        -0.40138086676597595,
        0.18404239416122437,
        0.16077986359596252,
        -0.013263897970318794,
        0.020490065217018127,
        0.14641258120536804,
        -0.05636407807469368,
        -0.007470781449228525,
        0.04663578420877457,
        -0.02651990018785,
        0.04824768379330635,
        0.01634008251130581,
        0.024594159796833992,
        -0.15841355919837952,
        0.009213754907250404,
        0.02298465371131897,
        0.07463540136814117,
        0.06465466320514679,
        -0.3625614047050476,
        -0.09998419880867004,
        0.015423836186528206,
        -0.0933060422539711,
        0.12876570224761963,
        0.10179849714040756,
        -0.006502598524093628,
        -0.20581090450286865,
        0.07978038489818573,
        0.22187672555446625,
        0.02453150972723961,
        0.12265193462371826,
        0.21100591123104095,
        0.038552168756723404,
        0.04152578115463257,
        -0.06017853692173958,
        0.14790944755077362,
        -0.1079811379313469,
        0.12913234531879425,
        0.020749209448695183,
        -0.17037631571292877,
        0.11669591069221497,
        -0.18316225707530975,
        0.05383771285414696,
        -0.06413518637418747,
        0.3665495216846466,
        0.23356421291828156,
        0.19072325527668,
        0.16593307256698608,
        -0.21887105703353882,
        0.19787909090518951,
        -0.1510486900806427,
        -0.132328599691391
      ],
      [
        0.02119920589029789,
        0.11546878516674042,
        -0.0003277106734458357,
        0.2606717646121979,
        0.03970257565379143,
        -0.05108555406332016,
        -0.061795830726623535,
        0.1537570208311081,
        0.14531779289245605,
        0.03378099203109741,
        0.027848275378346443,
        -0.06678501516580582,
        -0.03251056373119354,
        0.29950374364852905,
        -0.05399345979094505,
        -0.26018786430358887,
        -0.026506302878260612,
        0.03159346804022789,
        -0.0797882080078125,
        -0.04772307351231575,
        -0.02067875675857067,
        0.08634089678525925,
        0.06159241124987602,
        -0.016525017097592354,
        0.06891364604234695,
        -0.010825436562299728,
        0.1548984944820404,
        -0.1093391552567482,
        0.11720558255910873,
        -0.1620924025774002,
        -0.07738124579191208,
        0.2680662274360657,
        -0.053019892424345016,
        -0.17414137721061707,
        -0.03582727164030075,
        0.14202037453651428,
        0.08419410139322281,
        0.20725306868553162,
        0.10235044360160828,
        -0.02107851207256317,
        -0.14107315242290497,
        -0.12250331789255142,
        -0.12331270426511765,
        -0.12512971460819244,
        0.061069339513778687,
        -0.0718500092625618,
        -0.1412024348974228,
        -0.1055968850851059,
        0.01811411790549755,
        0.10131081938743591,
        0.08427335321903229,
        -0.07070513069629669,
        -0.03592707961797714,
        0.18202883005142212,
        -0.15184079110622406,
        0.10675100982189178,
        -0.2559100389480591,
        -0.014476530253887177,
        -0.058430809527635574,
        -0.13133342564105988,
        0.2635107934474945,
        -0.0700923502445221,
        0.12097587436437607,
        0.1115085631608963
      ],
      [
        0.0005576041876338422,
        -0.07059173285961151,
        -0.05216715857386589,
        -0.1451999396085739,
        -0.004401968326419592,
        -0.004416835494339466,
        -0.20455294847488403,
        0.003124133450910449,
        0.11354879289865494,
        -0.059540968388319016,
        0.016630122438073158,
        0.037319302558898926,
        0.0005437356303445995,
        -0.035007212311029434,
        0.002249784069135785,
        -0.09032909572124481,
        0.05018331855535507,
        0.05237201973795891,
        -0.1674991250038147,
        0.10291075706481934,
        0.05815928801894188,
        0.14331969618797302,
        -0.08462947607040405,
        -0.020990997552871704,
        0.06997788697481155,
        -0.039237380027770996,
        0.1090746521949768,
        0.02358199656009674,
        0.03654522821307182,
        -0.16291305422782898,
        -0.1197066381573677,
        -0.21222423017024994,
        -0.11653339862823486,
        -0.1760612577199936,
        -0.02675211988389492,
        -0.021046429872512817,
        0.09122996777296066,
        0.14234007894992828,
        0.1280873566865921,
        -0.0440593883395195,
        0.04583229497075081,
        0.08134159445762634,
        0.04295855388045311,
        -0.10330567508935928,
        0.034901395440101624,
        0.0062011065892875195,
        -0.06037937104701996,
        -0.04466908797621727,
        -0.0035714041441679,
        -0.061503324657678604,
        0.022578567266464233,
        0.16963094472885132,
        0.03762543946504593,
        0.11429128050804138,
        -0.05762612447142601,
        0.12330982089042664,
        0.11361118406057358,
        -0.15279166400432587,
        -0.08569911867380142,
        -0.11483573913574219,
        -0.20455913245677948,
        -0.16493672132492065,
        0.044174809008836746,
        -0.05633264407515526
      ],
      [
        -0.08738740533590317,
        0.08872868865728378,
        0.033744629472494125,
        0.5260099768638611,
        -0.07540520280599594,
        -0.05915616825222969,
        0.010130983777344227,
        0.5453143119812012,
        -0.06883532553911209,
        -0.11772512644529343,
        0.04349908232688904,
        0.13834364712238312,
        0.1386285424232483,
        0.396950364112854,
        -0.35290399193763733,
        -0.0026105267461389303,
        0.02045980840921402,
        -0.07780823856592178,
        0.009491951204836369,
        0.0791393592953682,
        0.010210870765149593,
        -0.0814250037074089,
        0.044829919934272766,
        -0.004372310359030962,
        0.04495638236403465,
        -0.04692754149436951,
        0.09330829232931137,
        0.09736469388008118,
        -0.06424611806869507,
        0.0861639752984047,
        -0.10836827009916306,
        0.594433069229126,
        -0.13873827457427979,
        -0.03459547087550163,
        0.38870641589164734,
        -0.027988800778985023,
        -0.12457849830389023,
        -0.14338818192481995,
        -0.058366626501083374,
        -0.10096106678247452,
        0.047223400324583054,
        0.0021955762058496475,
        0.08420500159263611,
        -0.04428773373365402,
        -0.09672051668167114,
        -0.04773854464292526,
        0.08471265435218811,
        -0.11947855353355408,
        0.07238364964723587,
        -0.18779905140399933,
        0.041595108807086945,
        0.2682237923145294,
        0.06490029394626617,
        0.07712536305189133,
        -0.11225499212741852,
        -0.02876819670200348,
        -0.56812983751297,
        -0.007144874893128872,
        0.017140980809926987,
        0.08883444964885712,
        0.5103504657745361,
        -0.04142111539840698,
        0.015200587920844555,
        -0.0487823486328125
      ],
      [
        0.06032440811395645,
        -0.11882002651691437,
        -0.08452899008989334,
        -0.14750467240810394,
        0.036763034760951996,
        -0.0324142761528492,
        -0.10845156013965607,
        -0.1328277438879013,
        0.15863952040672302,
        -0.05818498134613037,
        -0.07729577273130417,
        0.09965543448925018,
        -0.03802883252501488,
        -0.30292659997940063,
        -0.005794042255729437,
        -0.3093239963054657,
        0.09792979061603546,
        -0.05956912040710449,
        -0.15985794365406036,
        0.13442079722881317,
        0.043795838952064514,
        0.12334957718849182,
        -0.07548942416906357,
        -0.0225205160677433,
        -0.04409938305616379,
        -0.0093918452039361,
        -9.901315934257582e-06,
        -0.07295813411474228,
        0.01583831198513508,
        -0.2550789415836334,
        -0.08281799405813217,
        -0.2910408079624176,
        -0.0021922518499195576,
        -0.03430086374282837,
        0.02884296141564846,
        0.04733569920063019,
        0.02459627017378807,
        0.0751437246799469,
        0.01037513092160225,
        0.0013754244428128004,
        -0.2061995565891266,
        -0.03603187948465347,
        0.08027487993240356,
        -0.18705874681472778,
        -0.03331570699810982,
        0.026707781478762627,
        -0.005029505118727684,
        -0.06921576708555222,
        0.013165650889277458,
        -0.04876704141497612,
        0.13969750702381134,
        -0.010936775244772434,
        -0.029717987403273582,
        0.1618771106004715,
        -0.10041694343090057,
        0.16365580260753632,
        0.1558479517698288,
        -0.19866810739040375,
        -0.08187035471200943,
        -0.07083252817392349,
        -0.2164044976234436,
        -0.11726436018943787,
        0.11728791147470474,
        0.16500645875930786
      ],
      [
        0.038589637726545334,
        0.05457498878240585,
        -0.05244745686650276,
        0.20139135420322418,
        0.05946696922183037,
        -0.033635616302490234,
        -0.15299028158187866,
        0.17073960602283478,
        0.05301704257726669,
        0.042403120547533035,
        0.006509493105113506,
        0.008515375666320324,
        -0.08395189046859741,
        0.29897692799568176,
        -0.08108591288328171,
        -0.19055119156837463,
        -0.06911220401525497,
        -0.02630697190761566,
        -0.20318923890590668,
        -0.07023748755455017,
        -0.0711733028292656,
        0.1413453221321106,
        -0.014643206261098385,
        0.033367838710546494,
        -0.021166173741221428,
        0.03538421913981438,
        0.06189524754881859,
        -0.04517536982893944,
        -0.045318495482206345,
        -0.1462605893611908,
        -0.08726660162210464,
        0.2866831123828888,
        0.00496749859303236,
        -0.18294332921504974,
        0.2068432867527008,
        -0.11189746111631393,
        -0.02949552983045578,
        0.14393167197704315,
        0.1506068855524063,
        0.03171288222074509,
        -0.09984119981527328,
        0.09367413073778152,
        0.03580951690673828,
        -0.09819819778203964,
        -0.0685158297419548,
        -0.11854484677314758,
        0.01939769834280014,
        -0.15864387154579163,
        0.046086911112070084,
        0.025535274296998978,
        0.08461608737707138,
        -0.06324870139360428,
        -0.11840171366930008,
        0.041548650711774826,
        -0.13187190890312195,
        0.23894381523132324,
        -0.2117363065481186,
        -0.09735259413719177,
        -0.14804428815841675,
        -0.09844568371772766,
        0.23603397607803345,
        -0.16781941056251526,
        0.14052999019622803,
        -0.03624844551086426
      ],
      [
        -0.07699641585350037,
        -0.0501546673476696,
        -0.008950093761086464,
        0.5310301780700684,
        -0.002137965289875865,
        0.005583779886364937,
        -0.3025224804878235,
        0.2816842496395111,
        0.1604994833469391,
        0.04865878447890282,
        -0.07509540021419525,
        0.022442080080509186,
        -0.08829186111688614,
        0.4609720706939697,
        -0.31038931012153625,
        -0.2088676244020462,
        -0.004381380509585142,
        0.07137815654277802,
        -0.10894059389829636,
        0.051784709095954895,
        -0.021781275048851967,
        -0.07917658239603043,
        0.03752549737691879,
        0.11909008026123047,
        0.1036434918642044,
        0.02471069246530533,
        0.1114596277475357,
        0.021827971562743187,
        -0.0898086428642273,
        -0.15599174797534943,
        0.0195810254663229,
        0.5050369501113892,
        0.0005543359438888729,
        -0.25224021077156067,
        0.2767295837402344,
        0.04415217041969299,
        -0.1112089529633522,
        -0.034136563539505005,
        0.14395223557949066,
        -0.06151494011282921,
        -0.11240728199481964,
        0.06558863818645477,
        0.004719076212495565,
        -0.06722357124090195,
        -0.10716148465871811,
        -0.04302387684583664,
        0.06289971619844437,
        -0.0762396976351738,
        -0.01850367896258831,
        -0.14144690334796906,
        0.22239980101585388,
        0.37610146403312683,
        0.07689832150936127,
        0.08278147876262665,
        -0.27027031779289246,
        0.17188945412635803,
        -0.2597707211971283,
        -0.2726551294326782,
        -0.09202224016189575,
        -0.03260621801018715,
        0.4205816984176636,
        -0.08239568769931793,
        0.076569564640522,
        0.15802721679210663
      ],
      [
        -0.10616321861743927,
        0.06608790904283524,
        -0.10666771978139877,
        -0.6247414946556091,
        0.058150071650743484,
        0.04131123796105385,
        0.18613803386688232,
        -0.36474597454071045,
        -0.12133422493934631,
        -0.09890060871839523,
        0.0419938862323761,
        -0.027607852593064308,
        0.07421619445085526,
        -0.5515561103820801,
        0.4325753450393677,
        0.10460656136274338,
        0.006712963804602623,
        -0.058140773326158524,
        0.03146040067076683,
        0.042386047542095184,
        0.0289519801735878,
        0.0024353149347007275,
        0.0352756641805172,
        -0.02716028317809105,
        -0.04487503319978714,
        0.17909416556358337,
        -0.017824092879891396,
        0.0911700502038002,
        -0.1299908608198166,
        0.03389682620763779,
        -0.013442166149616241,
        -0.5372017025947571,
        0.12784376740455627,
        -0.046532437205314636,
        -0.3429432511329651,
        0.04577675461769104,
        0.06703240424394608,
        0.061013877391815186,
        0.08324506133794785,
        -0.051301755011081696,
        -0.009943020530045033,
        -0.017976295202970505,
        -0.11550655961036682,
        -0.08743788301944733,
        -0.1502324640750885,
        -0.1300850659608841,
        -0.10053367912769318,
        0.03615838661789894,
        -0.06714925915002823,
        0.21366915106773376,
        0.08843308687210083,
        -0.24497506022453308,
        0.041368190199136734,
        -0.11877426505088806,
        -0.08175816386938095,
        0.0018593440763652325,
        0.524055004119873,
        0.029694391414523125,
        0.06343957036733627,
        -0.13167329132556915,
        -0.42796429991722107,
        -0.10513389110565186,
        0.10834168642759323,
        -0.06730629503726959
      ],
      [
        -0.06092822179198265,
        -0.05926470085978508,
        -0.055064938962459564,
        -3.6086370528209955e-05,
        0.01493259146809578,
        0.08785029500722885,
        -0.1687745749950409,
        0.056586042046546936,
        0.10703160613775253,
        0.0923529714345932,
        0.03860113024711609,
        0.007164948154240847,
        -0.1888241469860077,
        -0.019528433680534363,
        -0.01250464003533125,
        -0.15728816390037537,
        -0.0006705243140459061,
        0.0012263880344107747,
        -0.1126030758023262,
        -0.05118091404438019,
        0.0005533985095098615,
        0.013387303799390793,
        -0.05746220052242279,
        0.07957897335290909,
        -0.012529129162430763,
        0.03751976415514946,
        0.02644447796046734,
        0.05298306420445442,
        0.012152220122516155,
        -0.0964745581150055,
        -0.07711797952651978,
        0.12665583193302155,
        0.028159653767943382,
        -0.08906036615371704,
        0.038009658455848694,
        -0.01135559193789959,
        -0.12318616360425949,
        0.11961923539638519,
        0.06970099359750748,
        0.09531326591968536,
        -0.0778994932770729,
        0.03164317086338997,
        -2.9240425647003576e-05,
        -0.14387689530849457,
        -0.006371194962412119,
        0.048661887645721436,
        0.05610759183764458,
        -0.04884404316544533,
        0.08761373162269592,
        0.09928213059902191,
        0.15478967130184174,
        0.006556117441505194,
        0.04628850892186165,
        0.13802704215049744,
        -0.03296506404876709,
        0.17159223556518555,
        0.02167610637843609,
        -0.029170189052820206,
        -0.0978885069489479,
        -0.12371164560317993,
        0.025113241747021675,
        -0.09420878440141678,
        -0.015875983983278275,
        0.11781154572963715
      ],
      [
        0.13140004873275757,
        0.08873287588357925,
        -0.06754712015390396,
        -0.6366729736328125,
        0.010002481751143932,
        0.004796079359948635,
        0.04531196877360344,
        -0.3793196678161621,
        0.034375082701444626,
        -0.008958245627582073,
        0.059384770691394806,
        -0.14885541796684265,
        -0.019200176000595093,
        -0.4637240171432495,
        0.3566958010196686,
        -0.10631459951400757,
        0.07102999091148376,
        -0.07626793533563614,
        -0.016062121838331223,
        -0.02367430180311203,
        0.03171931207180023,
        0.03515663743019104,
        0.07906452566385269,
        -0.031248701736330986,
        0.03725254535675049,
        -0.030804624781012535,
        -0.0316888801753521,
        -0.13116355240345,
        0.08073197305202484,
        -0.08740564435720444,
        -0.04259166121482849,
        -0.5104010701179504,
        0.19903385639190674,
        -0.05444511026144028,
        -0.3894800841808319,
        0.04102466255426407,
        0.0063849156722426414,
        0.10135576128959656,
        0.0233810693025589,
        0.08669178187847137,
        -0.014969981275498867,
        0.17837072908878326,
        -0.09962411969900131,
        -0.031024282798171043,
        0.08818831294775009,
        -0.08754171431064606,
        -0.05638440325856209,
        0.09379027783870697,
        -0.0688617154955864,
        0.09946618229150772,
        -0.05824848264455795,
        -0.08323073387145996,
        0.012970881536602974,
        -0.02466609515249729,
        0.032758161425590515,
        0.11754215508699417,
        0.5172387361526489,
        0.011137336492538452,
        0.14645643532276154,
        -0.07816248387098312,
        -0.6243610978126526,
        0.09348732978105545,
        0.04210338741540909,
        -0.07264114916324615
      ],
      [
        0.07187268137931824,
        0.0772518590092659,
        -0.021093346178531647,
        -0.7049410343170166,
        0.005268496461212635,
        -0.006497818510979414,
        0.03209589421749115,
        -0.6008495688438416,
        -0.034240107983350754,
        0.09749865531921387,
        0.01809707283973694,
        -0.09977011382579803,
        -0.02941867522895336,
        -0.46517959237098694,
        0.2633475363254547,
        -0.07020101696252823,
        0.12752625346183777,
        -0.040970101952552795,
        -0.08317877352237701,
        0.08039569854736328,
        -0.11573700606822968,
        0.016912763938307762,
        0.11092926561832428,
        0.036542635411024094,
        0.04758182913064957,
        0.0007012657588347793,
        -0.06083646044135094,
        -6.687860877718776e-05,
        -0.04730004444718361,
        -0.078524149954319,
        0.02735775150358677,
        -0.5546428561210632,
        0.35102608799934387,
        0.0740889236330986,
        -0.3921006917953491,
        0.07104460895061493,
        0.06922141462564468,
        0.04649529233574867,
        -0.0064635188318789005,
        -0.023517873138189316,
        -0.09576777368783951,
        0.10457800328731537,
        -0.06230182945728302,
        -0.03404119238257408,
        -0.02294839173555374,
        -0.10217702388763428,
        -0.1016140803694725,
        0.11037345230579376,
        -0.008090276271104813,
        0.23005923628807068,
        0.02496361918747425,
        -0.1896115094423294,
        -0.04377307742834091,
        -0.09456170350313187,
        0.03431370109319687,
        0.07694780826568604,
        0.4351664185523987,
        -0.03012932650744915,
        0.0566430501639843,
        0.06555347889661789,
        -0.5899544358253479,
        -0.004317105747759342,
        -0.04798217490315437,
        -0.009783623740077019
      ],
      [
        -0.09942961484193802,
        0.03551092743873596,
        -0.060242459177970886,
        -0.26901981234550476,
        0.09925296902656555,
        -0.04025775566697121,
        -0.23314449191093445,
        -0.07012289017438889,
        0.017234936356544495,
        -0.07150483131408691,
        -0.09853529930114746,
        -0.09123419225215912,
        -0.05344192311167717,
        -0.14346100389957428,
        -0.18784213066101074,
        -0.15941648185253143,
        -0.03782735764980316,
        0.04649362713098526,
        -0.17130117118358612,
        -0.07582489401102066,
        -0.03250995650887489,
        0.046546656638383865,
        0.010242260992527008,
        -0.05684426426887512,
        -0.0032538261730223894,
        0.09199925512075424,
        0.05033573508262634,
        0.04514402151107788,
        -0.06732315570116043,
        -0.057741209864616394,
        0.024557247757911682,
        -0.15434610843658447,
        -0.006693700328469276,
        -0.08771772682666779,
        -0.07539539784193039,
        0.03562692925333977,
        -0.00412248307839036,
        0.07135545462369919,
        0.13272418081760406,
        0.02957070618867874,
        -0.09147854894399643,
        0.05143331363797188,
        -0.13188154995441437,
        -0.16269759833812714,
        -0.05849733203649521,
        -0.09614969789981842,
        0.045787226408720016,
        -0.10969226807355881,
        0.05523707717657089,
        -0.02393416501581669,
        0.0772688239812851,
        0.1747172474861145,
        0.06997169554233551,
        0.05468177795410156,
        -0.1157117411494255,
        0.048116184771060944,
        0.022789856418967247,
        -0.07660175859928131,
        0.005719633772969246,
        -0.12292651832103729,
        -0.09304434061050415,
        -0.16854974627494812,
        0.16971759498119354,
        0.10101190954446793
      ],
      [
        0.07454570382833481,
        0.024930894374847412,
        -0.07534328103065491,
        -0.24816346168518066,
        0.21366383135318756,
        -0.01688663475215435,
        -0.10721207410097122,
        -0.14340639114379883,
        0.1214795708656311,
        -0.040853921324014664,
        -0.005470846313983202,
        0.107147216796875,
        -0.14607958495616913,
        -0.05944324657320976,
        0.012641365639865398,
        -0.17023470997810364,
        -0.0010227147722616792,
        0.004695563577115536,
        -0.11034352332353592,
        -0.10361029952764511,
        0.06843362003564835,
        0.11589226126670837,
        0.06020571291446686,
        0.10346753895282745,
        -0.011332589201629162,
        0.0851232036948204,
        0.025314461439847946,
        0.0012072095414623618,
        -0.0863233357667923,
        -0.03644464910030365,
        0.028743378818035126,
        -0.2159305065870285,
        0.02688964083790779,
        -0.10798274725675583,
        0.09312094748020172,
        0.0010667107999324799,
        -0.03737408295273781,
        0.1438472867012024,
        0.04592518135905266,
        -0.017781037837266922,
        -0.17212241888046265,
        -0.045492738485336304,
        -0.018334059044718742,
        -0.16897237300872803,
        0.09243251383304596,
        -0.03499121218919754,
        0.03306819871068001,
        -0.1779315322637558,
        0.053292930126190186,
        0.05930884927511215,
        0.07187900692224503,
        0.017451195046305656,
        0.04338444024324417,
        0.01899668574333191,
        -0.20635786652565002,
        0.15119603276252747,
        0.170270174741745,
        -0.05359044298529625,
        -0.18978142738342285,
        -0.1045452207326889,
        -0.1001213788986206,
        0.017835000529885292,
        -0.008496117778122425,
        0.08965056389570236
      ],
      [
        0.02855498716235161,
        0.03146279230713844,
        -0.08604153245687485,
        0.15715095400810242,
        0.14646883308887482,
        0.06106019392609596,
        0.03232656046748161,
        0.009997131302952766,
        -0.0033082866575568914,
        -0.03066837415099144,
        -0.022186636924743652,
        -0.009174655191600323,
        -0.16291669011116028,
        -0.04520716890692711,
        -0.05121054872870445,
        -0.2093542218208313,
        -0.04202387481927872,
        0.05323103070259094,
        -0.07288902997970581,
        -0.087432362139225,
        0.00799093022942543,
        0.11885201185941696,
        0.0033981057349592447,
        -6.809598562540486e-05,
        0.06882286071777344,
        0.057356126606464386,
        -0.04010327160358429,
        -0.006187682505697012,
        -0.03701946139335632,
        -0.17526209354400635,
        -0.06639590859413147,
        0.04798659309744835,
        0.06762497872114182,
        -0.007818465121090412,
        -0.03765873983502388,
        0.05456611514091492,
        0.10698743164539337,
        0.21058668196201324,
        0.17834283411502838,
        0.058259062469005585,
        -0.013694323599338531,
        -0.024821775034070015,
        0.04755302146077156,
        -0.015459533780813217,
        -0.012781674042344093,
        -0.1082858070731163,
        -0.004156166221946478,
        -0.10847335308790207,
        -0.00709789851680398,
        0.0039742630906403065,
        -0.04120498523116112,
        0.11859771609306335,
        0.06830437481403351,
        0.14468024671077728,
        0.02948998659849167,
        0.10453250259160995,
        -0.06463390588760376,
        -0.11241878569126129,
        -0.0748370960354805,
        -0.1722697615623474,
        0.1307777464389801,
        -0.1473485380411148,
        0.038496583700180054,
        0.10578445345163345
      ],
      [
        0.14783556759357452,
        0.05099346488714218,
        0.03355351462960243,
        0.14369483292102814,
        0.15722188353538513,
        0.016707023605704308,
        -0.02498605288565159,
        0.09344010800123215,
        0.08743229508399963,
        -0.07612398266792297,
        0.020432593300938606,
        -0.003698712447658181,
        0.045382946729660034,
        0.010477506555616856,
        -0.08155045658349991,
        0.005488420836627483,
        0.04881686344742775,
        -0.05028961971402168,
        -0.14991168677806854,
        -0.027281269431114197,
        0.023347554728388786,
        0.18351967632770538,
        0.11744336783885956,
        -0.04764490947127342,
        -0.08070399612188339,
        0.02094285376369953,
        0.03904859721660614,
        0.03460200875997543,
        -0.03667784109711647,
        -0.06366107612848282,
        -0.048053279519081116,
        0.06530365347862244,
        -0.10748981684446335,
        -0.2219594120979309,
        -0.08069775253534317,
        -0.002578053856268525,
        -0.07868412137031555,
        0.1065421849489212,
        0.0605580173432827,
        -0.006068733520805836,
        0.016661323606967926,
        -0.025220103561878204,
        -0.02206697128713131,
        -0.17939171195030212,
        0.020427782088518143,
        -0.12123463302850723,
        0.03706962987780571,
        -0.1515527069568634,
        -0.09730127453804016,
        -0.017822951078414917,
        0.12623009085655212,
        0.06400029361248016,
        0.06161101534962654,
        0.07225020974874496,
        -0.1158628761768341,
        0.11367356032133102,
        -0.1680569052696228,
        0.03893589228391647,
        0.034455373883247375,
        -0.13592970371246338,
        0.1822965294122696,
        -0.16035409271717072,
        0.10947904735803604,
        -0.004283061251044273
      ],
      [
        -0.03192373365163803,
        0.0056261406280100346,
        -0.013072695583105087,
        0.4226905107498169,
        0.09385830163955688,
        0.12690623104572296,
        -0.31535905599594116,
        0.3044399917125702,
        0.2727155387401581,
        -0.08467473089694977,
        -0.056950509548187256,
        -0.04625040665268898,
        -0.1177019402384758,
        0.25518736243247986,
        -0.17705167829990387,
        -0.3866936266422272,
        0.021054087206721306,
        0.16045056283473969,
        -0.1056252047419548,
        -0.053696274757385254,
        0.11931829154491425,
        0.059486985206604004,
        0.012267380952835083,
        0.0021109546069055796,
        0.07157205045223236,
        -0.058851100504398346,
        0.17617478966712952,
        0.10733019560575485,
        -0.040255121886730194,
        -0.14435803890228271,
        -0.10868244618177414,
        0.4204989969730377,
        0.01373705081641674,
        -0.18184396624565125,
        0.22576406598091125,
        0.07764218002557755,
        -0.00239202450029552,
        0.007801244966685772,
        0.18542435765266418,
        0.0552297867834568,
        -0.15825596451759338,
        -0.017147023230791092,
        0.04039401933550835,
        -0.028358690440654755,
        -0.02030404843389988,
        -0.08699341118335724,
        0.07880713045597076,
        -0.23364593088626862,
        -0.02423633448779583,
        -0.11417345702648163,
        0.11993364244699478,
        0.1359652727842331,
        0.07980132102966309,
        0.2580818235874176,
        -0.2666780948638916,
        0.15545426309108734,
        -0.3056611716747284,
        -0.040038496255874634,
        -0.23494461178779602,
        -0.13346987962722778,
        0.3106606900691986,
        -0.20626115798950195,
        0.023918775841593742,
        0.053505804389715195
      ],
      [
        0.03568151220679283,
        0.023473117500543594,
        0.13341815769672394,
        0.6091246604919434,
        -0.01767515391111374,
        -0.1131206676363945,
        -0.14021427929401398,
        0.5910741090774536,
        -0.005383114796131849,
        -0.16706128418445587,
        0.03760388121008873,
        -0.04801947996020317,
        0.07375593483448029,
        0.5922451019287109,
        -0.25938713550567627,
        -0.07516856491565704,
        -0.04573770612478256,
        0.09717097878456116,
        -0.049823470413684845,
        -0.10441543161869049,
        0.005906154867261648,
        -0.11239364743232727,
        0.043264396488666534,
        -0.028583811596035957,
        0.08595587313175201,
        0.062139615416526794,
        -0.03841215744614601,
        0.0415765643119812,
        -0.010767882689833641,
        0.06879739463329315,
        0.036747999489307404,
        0.5792005062103271,
        -0.23737938702106476,
        -0.004724734928458929,
        0.3234078288078308,
        -0.08908839523792267,
        -0.1234525665640831,
        -0.1350242793560028,
        -0.06535515189170837,
        0.046620890498161316,
