{
  "b1": [
    -0.05904489349203447,
    0.0869753544773162,
    -0.0006679882574512068,
    -0.05545150017410612,
    -0.055102395251465514,
    -0.10501807134274212,
    -0.021112215381112385,
    0.025890723410906927,
    -0.00037658325597311607,
    0.1444824962714474,
    0.054634384694560945,
    0.10421180800588725,
    -0.09671765008895267,
    -0.0002817316947474878,
    0.005260892989401806,
    -0.07485053343502222,
    0.10834164421848841,
    0.12141732979988194,
    0.002533034631225099,
    0.03900614120388011,
    0.04975696726091158,
    -0.037865490046491763,
    -0.00022954689616494554,
    0.014858264108070606,
    0.06683779283351007,
    -0.03180511736128529,
    0.0003636807941325316,
    0.036255823431805015,
    -0.02520539257499596,
    -3.4500260316224795e-06,
    0.0011492902623017386,
    -0.1478145407604907
  ],
  "b2": 1.0263554470162011e-17,
  "feature_names": [
    "step_frac",
    "remaining_frac",
    "is_two_player",
    "is_four_player_plus",
    "is_ahead",
    "is_behind",
    "is_dominating",
    "is_finishing",
    "my_ship_share",
    "my_prod_share",
    "lead_ratio",
    "base_score_norm",
    "base_value_norm",
    "eta_norm",
    "send_norm",
    "source_count_norm",
    "needed_norm",
    "target_prod_norm",
    "target_ships_norm",
    "target_is_neutral",
    "target_is_enemy",
    "target_is_friendly",
    "mission_attack",
    "mission_expand",
    "mission_defend",
    "mission_reinforce",
    "mission_swarm",
    "mission_snipe",
    "mission_comet",
    "mission_other",
    "enemy_priority",
    "committed_load",
    "is_defer"
  ],
  "hidden_size": 32,
  "input_size": 33,
  "kind": "mlp",
  "temperature": 1.0,
  "w1": [
    [
      -0.04065646702143816,
      -0.0939599760995842,
      -0.03976428561196284,
      -0.03606133659503823,
      0.006713604382326487,
      -0.01552918715949947,
      -0.044222047059425375,
      0.0007435733189420258,
      -0.07321149100112441,
      -0.030232750738823488,
      -0.09046591770912174,
      0.4642135994194335,
      0.09946693640744485,
      -0.0501020391739345,
      -0.10789939132873783,
      -0.05701138206325741,
      -0.07356760470924735,
      0.15860343117996017,
      0.044173687054506604,
      -0.008328852696202168,
      0.04329614428215579,
      -0.10206035899184232,
      0.08884836466185973,
      -0.008464357717816982,
      -0.035957201384496096,
      -0.01601517953141731,
      -0.07648341632825868,
      0.03161263591200314,
      -0.042498975817901845,
      -0.07038078392355326,
      -0.05406140079513781,
      -0.012760245727426879,
      -0.2881822420772432
    ],
    [
      0.003756455783404409,
      0.04293547147393965,
      0.0447407862688705,
      0.015543987482075562,
      -0.011232161393969868,
      -0.0120503854192774,
      0.0007224893774764045,
      -0.004681562362922465,
      0.0170010372819775,
      0.06197385340410088,
      0.08403818881591797,
      -0.6614652004491102,
      -0.1132068296874161,
      0.10963729736841417,
      0.12604186329661426,
      0.06332609237619377,
      0.09251056808480657,
      -0.09523420379846452,
      -0.08776925066164458,
      -0.0139145904473826,
      0.05030324309106321,
      0.03331153043473374,
      -0.050175376887013845,
      -0.06608376340545545,
      0.017664289975089252,
      -0.0075872549453382294,
      0.08064663485191922,
      0.037547781183088824,
      -0.004347632230896368,
      0.12116104708597124,
      0.11089371077467418,
      0.007989520428249219,
      0.3723655000559751
    ],
    [
      0.033618922949739394,
      0.04380012125334258,
      -0.0034577225583810557,
      0.016711396016854327,
      -0.043639767389412276,
      0.020170809539135696,
      0.014918488789019564,
      0.04930959394666341,
      0.031847836193875545,
      -0.02184499685135828,
      -0.011998947756430999,
      0.15347655032666543,
      -0.0077592710999372,
      -0.019866430268163433,
      -0.047902633653498686,
      -0.04203934079843107,
      -0.06428177056955577,
      0.05873948500612744,
      -0.025119693348801896,
      -0.024441941451757085,
      0.006201701921054365,
      0.01857090236889557,
      -0.01069410334784742,
      -0.001706842918751473,
      0.0035724248660573693,
      0.04243364968977389,
      0.017830912229767428,
      0.03639844696985152,
      -0.02473573535637422,
      -0.029809307690440996,
      -0.013851953327690849,
      0.0384192827198217,
      -0.026948939438039117
    ],
    [
      -0.058584343845986764,
      -0.08782972732506908,
      -0.06886046348623803,
      -0.02762213203981882,
      -0.000295388166031353,
      0.0022128189407524495,
      -0.021719748769343687,
      -0.04959063966149361,
      -0.03175845803570143,
      -0.03432118060779368,
      -0.03578742229231152,
      0.5496248989067583,
      0.12820649631278183,
      -0.07694419702582098,
      -0.032689560775157674,
      -0.009837282308746548,
      -0.11360341673161942,
      0.15954146144600873,
      0.07018019258770962,
      0.03498973273220062,
      0.013464746540841432,
      -0.047429458224916995,
      0.02772441833268248,
      -0.03085709550016983,
      0.020667987580765105,
      -0.015629130650297012,
      -0.09679942550164888,
      -0.029123681455383556,
      -0.04502046203283495,
      -0.08866201548435694,
      -0.11136479806853553,
      -0.04997667180986434,
      -0.31183752061086134
    ],
    [
      -0.06432726197967592,
      -0.06874140304800837,
      -0.08794666353722731,
      0.03492023652297558,
      0.012503149612117815,
      -0.041357848665679625,
      -0.024234120081441986,
      -0.015261045394629847,
      -0.0377280945624183,
      -0.05957535107309744,
      -0.008330740407682278,
      0.6006181023193659,
      0.12019692982991935,
      -0.0873043755076995,
      -0.09635872915764675,
      -0.06850339652861223,
      -0.0951113431728892,
      0.10671235605254097,
      0.07125836607723746,
      -0.03336707439804069,
      -0.05271860084527502,
      -0.005464729563511647,
      0.05781458632545663,
      -0.022644693027259168,
      0.0075894433899573776,
      -0.01837986524342596,
      -0.05604785684433336,
      0.047850124271897276,
      0.02412651449545133,
      -0.06428991350918484,
      -0.08829862411823072,
      -0.013330020823882117,
      -0.33769875410049066
    ],
    [
      -0.03410164657131431,
      -0.10175883159345424,
      -0.06270058010745855,
      -0.00743008622225581,
      -0.014599271877693656,
      0.02077260520662245,
      0.0718919696200772,
      0.03526287987466605,
      -0.013181540280229265,
      -0.010678941293657066,
      -0.049955186796871776,
      0.6923074481599159,
      0.12838196959843054,
      -0.14124493190910667,
      -0.1573827808899777,
      -0.0952149300393244,
      -0.15719030141958829,
      0.13606502066954734,
      0.07293852664532834,
      0.07078467110198047,
      -0.05629672615568999,
      -0.03542962075060231,
      0.08368023631496001,
      0.08710881920387638,
      -0.019198469364045224,
      0.015821607230481746,
      -0.1129311465764614,
      -0.03032938365806828,
      -0.046038256276274045,
      -0.10511861334257305,
      -0.0850817910644271,
      0.034043552727928986,
      -0.4404354118727821
    ],
    [
      0.008779260118021177,
      0.00885215910385365,
      -0.057273317465306194,
      0.01419848991068799,
      0.04171384955602021,
      0.024405017567661606,
      0.026719148483053415,
      -0.0021967255405999754,
      -0.04090105881457475,
      0.02078508377877525,
      -0.032936053419463665,
      0.2782902240635664,
      0.10816736254052159,
      -0.04921888583004736,
      -0.035559104253009385,
      0.032841932890143824,
      -0.014422140595292114,
      0.02631512567449264,
      -0.024145608256562714,
      -0.03628594853239884,
      0.045743676120164084,
      0.005680534845814926,
      -0.003644198089823809,
      0.03661326715273844,
      0.05016741033941939,
      0.02652845701840803,
      -0.04078372724467397,
      0.004866004398677915,
      -0.04226485266980247,
      -0.08713923930984081,
      0.023144460064078172,
      0.01496746696738306,
      -0.1334123236270944
    ],
    [
      0.052613460056023346,
      0.01927166708665547,
      0.05722836236645346,
      0.032581687319529866,
      -0.030727104602796523,
      -0.019786559903581614,
      -0.02371390128735416,
      -0.025946060744166544,
      0.019500107512922117,
      -0.013789525393131665,
      0.01118929674407562,
      -0.37574995376310744,
      -0.04361711056084442,
      0.03682280775566141,
      0.024209240566158006,
      0.023593834955255705,
      0.08496529494898065,
      -0.09029299505183318,
      0.01738482043918662,
      -7.057344061858836e-05,
      0.0005568215002452952,
      0.03110252426561354,
      -0.08558371964491078,
      -0.013587607613808521,
      -0.035143860562284295,
      -0.0656269202109214,
      0.0645221908009237,
      -0.032765328778655116,
      0.004713924545856722,
      0.07096939637502757,
      0.03657443521598372,
      -0.017401784895113594,
      0.18409822683398777
    ],
    [
      0.0054563885453961835,
      0.028050664280574462,
      -0.039641626462560434,
      0.005933266073492747,
      -0.02517112303308668,
      -0.02234943340587201,
      0.027211426530503176,
      0.0007713991792320575,
      0.006002602805213853,
      0.02583817731513046,
      0.040895681647603085,
      0.04010766789488149,
      0.025545841718122495,
      -0.004855508085235552,
      0.0038115012800204982,
      0.018311121164387618,
      -0.004960769533714004,
      0.016361952352705496,
      0.0024131346736173207,
      0.04275554014834712,
      0.021355320401646477,
      0.03723800534397135,
      0.04909882736923633,
      -0.024411289062947462,
      0.007942261348993502,
      0.0462980935033871,
      0.030556682041786694,
      -0.036286556410314856,
      -0.03886185869236838,
      -0.010169944865571464,
      -0.043757439521038236,
      -0.025936124154673015,
      -0.06160653436994819
    ],
    [
      0.09807287274169736,
      0.172876097988763,
      0.16784451008126308,
      -0.062391780138704174,
      0.023022835995594314,
      0.010997534457843032,
      -0.02475053494812106,
      0.03828328336570755,
      0.11688199012250133,
      0.03321580752018211,
      0.16053081745142742,
      -1.073356215344589,
      -0.17196860062327785,
      0.21755916990569502,
      0.18960363276644113,
      0.034488805737429414,
      0.15574951423229177,
      -0.23149346669279483,
      -0.11783308787500545,
      -0.023811855575251353,
      0.034678788200602814,
      0.10725767060737722,
      -0.12505314262427608,
      -0.01183024119420802,
      0.014501792802704593,
      -0.134208403617597,
      0.11003955478141837,
      0.012392707389186398,
      0.025075172232741947,
      0.10997018635932959,
      0.21554400070522603,
      0.028836305609758084,
      0.6734858966845214
    ],
    [
      -0.019693773024352698,
      0.031190811928912997,
      -0.003434771859824207,
      0.031087223214022533,
      -0.023003429664381205,
      -0.030080941844907446,
      -0.00845456020312079,
      0.041141381618360895,
      0.05525422260247078,
      -0.0028295175599330935,
      0.007466200183578247,
      -0.3669191166763963,
      -0.0758903685647024,
      0.09344448891633615,
      0.014439062270161418,
      -0.018481177828781867,
      0.09094107980822037,
      -0.09860009233798045,
      -0.06696645410049676,
      0.03890780783138189,
      0.018471685492107585,
      0.08469667206188267,
      -0.08416576683886332,
      0.02165662185906459,
      -0.04098522996016792,
      0.018134875269469865,
      0.04296119740940858,
      -0.016084822271536382,
      0.01434549055131948,
      0.11297475540804604,
      0.03871850542859844,
      -0.037077520010467116,
      0.25203224498456894
    ],
    [
      0.015114664189133953,
      0.06515695451381567,
      0.051164514340721265,
      -0.04241589375361948,
      -0.031364032986215824,
      -0.007761618089907594,
      -0.022221138281220132,
      0.025949825499856128,
      0.024069262646687458,
      0.040095806380807945,
      0.04851274222448198,
      -0.6096542256462557,
      -0.14708228250951963,
      0.08455928553897164,
      0.039361385668370316,
      0.0672055835667483,
      0.1121774011646725,
      -0.16375763406826505,
      -0.03229589499043244,
      0.04436761221071732,
      -0.0019603685209775715,
      0.09778899683126349,
      -0.04117763711836495,
      -0.0130381585557457,
      0.03447240660164196,
      -0.0435592280562181,
      0.07085619834489432,
      0.018774173569069144,
      0.06168569817546893,
      0.0836435572263387,
      0.15282560053512403,
      0.02067254016462279,
      0.3780301564045021
    ],
    [
      -0.06576586086079418,
      -0.11196243207342946,
      -0.12516049458151615,
      -0.02317507486097699,
      -0.030055377254298056,
      0.015386855320045228,
      -0.008099727907897807,
      -0.03367534797236243,
      -0.08319430849978941,
      -0.004559713199071967,
      -0.03241250543591997,
      0.809007972395734,
      0.12555431532724035,
      -0.1470426677545832,
      -0.11736416538882932,
      -0.051235300225870695,
      -0.16009262065419982,
      0.1741499261999923,
      0.056970103434915945,
      0.0519034397014705,
      0.004288573352768158,
      -0.054761372600401335,
      0.023329393998438933,
      0.07052195592237387,
      -0.019795399500612668,
      0.04150841833120415,
      -0.14044718367740014,
      -0.011837339338741782,
      -0.020766129811567464,
      -0.11559654061027679,
      -0.146187188621564,
      0.0004735639514312662,
      -0.5082005528293394
    ],
    [
      -0.02366398735385093,
      -0.041306391906649635,
      -0.010259535903746878,
      -0.0458440550643742,
      -0.04776190051512126,
      -0.01961253219312567,
      -0.026729134899602075,
      0.008558328418163341,
      0.0027953244270799067,
      0.02494002603708035,
      0.015528439635760486,
      0.04212375590153692,
      0.04427498381372863,
      -0.013270562322123312,
      -0.016447653394601473,
      0.047972301763694956,
      -0.035391349630187856,
      0.027944180999242937,
      0.016065346387971673,
      -0.046170734634323134,
      0.034070762988338235,
      0.0389202365316365,
      0.014969096805577554,
      0.023222797837754616,
      0.032116282639668266,
      -0.03520178418953739,
      0.0006841013898574385,
      0.00043710512554607784,
      0.033106632550162475,
      0.028429466997249662,
      0.03207024811527594,
      0.008406151680623876,
      0.030599726242892374
    ],
    [
      0.020851207483549773,
      0.024593506519329723,
      -0.022866057473123275,
      -0.04674371254939537,
      -0.03695442271440085,
      -0.012370980612649386,
      -0.04079469888310154,
      0.033582119979997105,
      0.007990434145329262,
      0.014816693717018504,
      0.016144865325344593,
      -0.1791761356246342,
      -0.0571762179951042,
      -0.023071824729207806,
      0.04836235697540381,
      0.03108490682449489,
      0.02810524104305678,
      -0.04448252072809545,
      0.0007625027640514125,
      -0.04430787507166648,
      0.01080977675705379,
      -0.005737787073276296,
      -0.0750161470415905,
      -0.028483354688109808,
      0.022062475633440774,
      -0.0381741307841534,
      0.043446857086728116,
      0.04757350941027705,
      0.003521144098700914,
      0.016993912163746804,
      0.003970831518380946,
      0.01836965627023515,
      0.1301626452239206
    ],
    [
      -0.02005944301759875,
      -0.060574235896823425,
      -0.1040010376022994,
      -0.031219079285277465,
      -0.017931997568088883,
      0.013270923052426732,
      -0.014828127093278683,
      0.006776169786930831,
      -0.08117795305985845,
      -0.07285718579087713,
      -0.07963921148477993,
      0.5898290960116649,
      0.1332241227849425,
      -0.07890603379756857,
      -0.09225875971488146,
      -0.033593196990275485,
      -0.09668383401354609,
      0.12744567800876871,
      0.0030572047415202935,
      0.03866411892600366,
      -0.04556646523414069,
      -0.01084431784770492,
      0.09356850290485869,
      -0.03636425132641893,
      -0.005707237178127542,
      0.06333462357328025,
      -0.018247007453012193,
      -0.005054903034890479,
      -0.03572175276608012,
      -0.11779040876496252,
      -0.04189057886580758,
      -0.02892912024660941,
      -0.32702164422892543
    ],
    [
      0.013112123455376084,
      0.11074821547397035,
      0.1308805657130856,
      -0.03692308258060568,
      0.03163813677838966,
      0.009645248715831065,
      0.03976753574538741,
      0.02033370387940744,
      0.021029091390426483,
      0.08104412720974487,
      0.08378417103983399,
      -0.7502786150129475,
      -0.1709369399156432,
      0.11531445718537395,
      0.0968564329755652,
      0.0282473069616076,
      0.08256805454794487,
      -0.1710517275583564,
      -0.07421739682712243,
      0.04282064848772336,
      -0.020455200651165916,
      0.09524684205561179,
      -0.0222267539919572,
      -0.04491649645452376,
      0.0472766632591214,
      -0.020206603280775694,
      0.12265956087001259,
      -0.02101670410244747,
      0.0029403762721158812,
      0.09934114878654414,
      0.17346631328561837,
      0.008917665538490327,
      0.4042354773160146
    ],
    [
      0.04981744515862073,
      0.0989328550621298,
      0.06713506211451879,
      -0.05217481564372251,
      0.025628935996532046,
      -0.013715990104243679,
      0.04636952091839565,
      -0.025067528358818147,
      0.03323281580249115,
      0.04872543090455333,
      0.06449847294752044,
      -0.7773668163242413,
      -0.08389325638694457,
      0.1764305806516198,
      0.13711376128656166,
      0.06621025386477633,
      0.16847603806358552,
      -0.12643921830938154,
      -0.05263689534137636,
      0.025575792129368956,
      -0.003037468834749836,
      0.09901911498998427,
      -0.05384642232461238,
      0.01118053443725066,
      0.021702891904203915,
      -0.06841756128141584,
      0.04449194707805309,
      0.04267770465471461,
      -0.019564067540418482,
      0.11413998510092736,
      0.12474770171465968,
      -0.020222813445521317,
      0.48078518850318197
    ],
    [
      0.04794284759079201,
      -0.021450059907367234,
      0.017192289157037133,
      -0.01911556789144346,
      0.006072574428311313,
      -0.010306572110086077,
      -0.03252762266222556,
      -0.03383430385949419,
      -0.028106428417586614,
      0.041447158621978064,
      0.0019729803357877622,
      -0.12106411255758873,
      0.013402605132052069,
      0.061059018083325776,
      -0.004379649212702732,
      -0.03335908740618392,
      -0.02463938900193781,
      -0.06560728655185238,
      -0.023209071995094067,
      -0.03766323910366559,
      -0.031063910066226993,
      -0.019881967333379633,
      -0.00616641049311908,
      0.04000855032712304,
      0.02180029085525989,
      -0.012050581939864023,
      -0.0005180071735164662,
      0.0024168142750895963,
      -0.010369496121939156,
      -0.005345215387793931,
      -0.04043608723530414,
      -0.022248365302174722,
      0.088832638602933
    ],
    [
      -0.015389305706862902,
      0.039345715964991916,
      0.04464473064253836,
      0.035033711886227975,
      -0.02797247872915007,
      -0.019396344968544213,
      -0.026360700754134943,
      -0.010024286325431087,
      0.011517241524783147,
      0.06034566169715559,
      0.0642094021773615,
      -0.4494641124838488,
      -0.1633154135943607,
      0.02673795200757141,
      0.07766072661520881,
      0.06268429271275092,
      0.07526305980599358,
      -0.10551076187582693,
      -0.08787044914260875,
      -0.015222286487891305,
      0.03463261454485274,
      0.08398957071839275,
      -0.025065869734543986,
      0.03262627488749656,
      -0.025226642002139952,
      -0.06278401900426875,
      0.01801528414546402,
      0.0022365607111808016,
      0.028430947414689628,
      0.11932607393691083,
      0.06726562397153812,
      0.014734811966500061,
      0.29905306149646443
    ],
    [
      0.01870413769060922,
      0.05490705874276232,
      -0.0012459152346739008,
      0.02568701542155718,
      -0.028093901933684107,
      0.04498069221227902,
      0.00954531060915325,
      -0.019621773837182756,
      -0.01570658266497375,
      -0.006001583338709999,
      0.05081021496673593,
      -0.4085019295389331,
      -0.1304601291563004,
      0.02773110263118696,
      0.0644196324449085,
      0.032778245783628,
      0.06974028686845994,
      -0.12285475668904108,
      -0.018489737302302592,
      -0.0538443018079488,
      -0.017562810955702324,
      0.04843143684679556,
      0.00048292936310248883,
      8.98079100611678e-05,
      0.038342568119839764,
      -0.02195780009112981,
      0.020838311566762805,
      -0.025294161566137643,
      0.05553871321171884,
      0.09268542215141332,
      0.037909214251338766,
      -0.047821261589143266,
      0.25449873668139295
    ],
    [
      0.003524244960736394,
      -0.04586390283359253,
      -0.05527229664298189,
      0.016942488650412212,
      0.044854844248799396,
      -0.03245506477358803,
      -0.04570389196646963,
      -0.016194842965653367,
      -0.024461529947660536,
      0.003419996363026435,
      -0.059502576666681614,
      0.38098615816293824,
      0.10295980166807527,
      -0.05593698479558243,
      -0.0659599432270918,
      0.027934771722332816,
      -0.0703309269520484,
      0.11517645565477684,
      -0.005011228162922285,
      -0.029714901249503357,
      0.02241669924530638,
      -0.052882647706732115,
      0.07975917569330492,
      0.005510981376738497,
      -0.028846176652480158,
      -0.010768173664108061,
      -0.046017081625659546,
      0.01652942527563651,
      0.03708243937119094,
      -0.08753641402706808,
      -0.054728531973573816,
      -0.028705092501916954,
      -0.14890938877407744
    ],
    [
      -0.03591087846064883,
      -0.04504549273764237,
      -0.04421116805788768,
      -0.010658247612252765,
      0.03980478709461004,
      0.038365042521627674,
      0.02326114441491915,
      0.049752980529786044,
      0.04305248167979565,
      -0.01717229583632044,
      -0.03164589315805506,
      0.020710955881739095,
      0.0189973174004006,
      -0.043696141511123096,
      0.029034299476184144,
      -0.011219099684872117,
      -0.0002791246518554327,
      -0.01941148065001433,
      -0.03415208275981888,
      -0.05205879025237618,
      -0.030446096158431163,
      -0.004310259237865097,
      0.033308732266995836,
      -0.04029447755982031,
      0.049857123336326914,
      -0.029334312029944812,
      -0.010518266603177005,
      0.032157361737414604,
      0.032520241346999275,
      0.00042974245502663475,
      -0.04667833013840224,
      -0.002653594914290436,
      0.006809268557762204
    ],
    [
      0.04832062446546906,
      -0.015839117147474744,
      -0.0021143323936622014,
      0.04011141636802153,
      -0.04839886695425752,
      -0.006022956912277066,
      0.028205245861992835,
      0.026666800234297374,
      -0.04012329996270171,
      -0.04092717853326848,
      -0.033685919686312335,
      -0.2178306255543793,
      -0.09146579662559454,
      0.06347244167192187,
      0.07233714269427823,
      -0.005344068985420896,
      0.022271777008895426,
      -0.014179974300834253,
      -0.008545500746850924,
      -0.028636494004016574,
      0.012060193267495418,
      0.010963749961064133,
      -0.05997438957099044,
      -0.06006322961096341,
      0.026042225291080155,
      0.02916110288508983,
      0.04105431184372081,
      0.04432501425246306,
      -0.04198767966228461,
      0.014987615673910548,
      0.014798374446102748,
      0.04567776506077044,
      0.19231274534306467
    ],
    [
      0.014366255338593585,
      0.04194247491659834,
      0.045443070726160106,
      0.0018690374395387355,
      0.04199791271366615,
      -0.0216131609298001,
      0.02938702154385657,
      0.023848801332201644,
      0.06099766775949327,
      0.05271544954681171,
      0.06219255837938161,
      -0.4835607363476014,
      -0.10982011085829434,
      0.0674536831131618,
      0.09180233134134631,
      -0.011894146058498607,
      0.04996376674421192,
      -0.07865726623176478,
      -0.0581159356269199,
      -0.04497984414858133,
      -0.034347718898117524,
      0.0612844947437818,
      -0.05941878776036548,
      0.03608950728445043,
      0.04026259607614872,
      0.02687660417463136,
      0.029553354814593195,
      -0.04159174024437291,
      -0.029874819069863875,
      0.07705951172450269,
      0.09712691939708502,
      -0.005303689708417759,
      0.24985838926959075
    ],
    [
      -0.018587540366444624,
      -0.019774352773121073,
      -0.007026581009208379,
      0.021864952573539972,
      0.035720665379472195,
      0.011474325799584984,
      -0.03621255208554814,
      0.03408711798036353,
      -0.03396457706120094,
      -0.005269565964953045,
      -0.03723122149721097,
      0.3507181303472611,
      0.04659049943203612,
      -0.07750104352844951,
      -0.059739466328775,
      -0.05147411301151714,
      -0.011235711074158739,
      0.08504371544968357,
      0.004469705641334384,
      -0.012310909712517895,
      0.053233289259494124,
      -0.033143213359733865,
      0.012905688155463772,
      0.036087064560196044,
      0.01728695144171332,
      0.06324694134487913,
      -0.07462425713203906,
      -0.0025237240770272784,
      0.024749625931040287,
      -0.016847378668489683,
      0.00514701399892278,
      -0.045963813456235694,
      -0.20337929604514102
    ],
    [
      -0.037938626453410534,
      -0.030679001137949333,
      0.04751771660469782,
      0.008351266611365066,
      0.04306176920419213,
      -0.01265903103040817,
      0.03663491498955138,
      -0.005088614223120969,
      -0.023871501449329303,
      0.027888906969874897,
      0.044807867552875705,
      0.013068320726730464,
      0.025107802550313783,
      0.0050668627329297,
      -0.038078480437260566,
      -0.014506875560017472,
      -0.04725891441302248,
      -0.01812421568433343,
      -0.019575805819702204,
      0.01135135298319272,
      0.02195107522364839,
      -0.03748794939225083,
      -0.036331975329661634,
      -0.014772001517396298,
      0.015951695190049426,
      -0.02810423930500122,
      -0.024533647595159004,
      -0.02965922278801607,
      0.028434057578793158,
      -0.004518643795617546,
      -0.042776710496545016,
      -0.03986122325372408,
      -0.04210310651533614
    ],
    [
      0.023929476042463906,
      0.0501740180044304,
      -0.01138242279305649,
      -0.03217819360908364,
      0.01717148283640403,
      -0.005976749638696689,
      -0.02664095273929988,
      -0.019240423725660618,
      0.05999587734450391,
      -0.005647257682481986,
      0.032364302919138103,
      -0.47855737517373753,
      -0.11943001978895323,
      0.10218406817425715,
      0.10655924231010887,
      0.007972809153685173,
      0.0486589420420277,
      -0.08618326683905432,
      -0.06596795665505893,
      -0.051685499366475075,
      0.03315644661340496,
      0.03791107446493408,
      -0.024975900195328242,
      -0.0217895644583509,
      0.03652076019289217,
      -0.026468634501597095,
      0.015584861912062837,
      -0.04851656254254625,
      0.01529295942789699,
      0.08460029850357985,
      0.08332466264446009,
      -0.041096888800811394,
      0.268867060649597
    ],
    [
      -0.020757177099752562,
      -0.02475908627804714,
      -0.0522227167896229,
      -0.025040866531740848,
      0.0013003422390957305,
      0.03667540603993966,
      -0.0399548916472721,
      -0.0009490350234837797,
      0.020006505778264072,
      0.03720150275729545,
      -0.0495184231950451,
      0.2582626265625001,
      0.1159377288489998,
      0.0017588231220654097,
      -0.03220401006898197,
      -0.05900839664461699,
      -0.0014959212280997857,
      0.057853475508696954,
      0.06230234253858854,
      0.012981024330943365,
      0.03978585105028391,
      -0.06745478086265658,
      0.06801517200922978,
      -0.020535031936065606,
      -0.009033403488489496,
      0.04747155685825524,
      0.0012688428402005477,
      -0.03170344563914294,
      -0.03449704407801468,
      -0.05731480951961313,
      -0.026640610184888808,
      -0.011642362654799477,
      -0.20502270465658512
    ],
    [
      -0.02528482981599846,
      0.022484819046478487,
      0.039736912409250535,
      -0.04590547303936474,
      0.006224360214385128,
      0.025750370124252915,
      -0.04620389220397937,
      0.03382042596057266,
      -0.038227919877696,
      0.00995273286196303,
      0.004996835259749707,
      -0.009794948424101382,
      -0.025988895473965858,
      -0.00507719502638855,
      0.011718522131262328,
      -0.006822655222883877,
      0.020207844841101334,
      -0.010408795573270626,
      -0.008049416061329816,
      -0.04810864714379055,
      0.009309636560827726,
      0.001972436457347756,
      -0.0314274738017253,
      0.025454709356757234,
      0.02837984853871889,
      -0.005307615035231445,
      -0.02967105621384418,
      -0.0026781153676343375,
      -0.03883675787850289,
      -0.03337700134710682,
      -0.0070877003364971745,
      -0.040828685609786225,
      0.0070905150640593
    ],
    [
      0.0014005812019607042,
      -0.044774030656488065,
      0.014675417915371485,
      -0.041735898778826865,
      0.02355598566352348,
      0.027632843070515906,
      0.0014142435212716425,
      -0.04457350689764405,
      0.0010038252727717152,
      -0.01178771155490948,
      0.04612949017163085,
      -0.2367297951857395,
      -0.02325178080713294,
      0.07236864549532156,
      0.04037804439841629,
      0.036859288686781636,
      -0.004517014250068357,
      0.00030487478570354526,
      -0.017847053989900923,
      0.04608915432125535,
      0.01857048065604827,
      -0.009731141797705626,
      -0.014271811972370513,
      0.039749607910120166,
      -0.043278068116053045,
      -0.020648437835501725,
      0.04559100526142741,
      -0.03412325507116393,
      0.043387689577188186,
      0.006928126397790533,
      0.03178653562975532,
      -0.03564277048843996,
      0.1023966928494129
    ],
    [
      -0.04033654237111883,
      -0.17698220660573002,
      -0.16649153120816637,
      0.03189368408860071,
      -0.010409866520806174,
      -0.035680110780394354,
      -0.033101343558967065,
      -0.033877065303495706,
      -0.027783010870144828,
      -0.04295847734695374,
      -0.08029772722085408,
      0.8839665487344966,
      0.16584213103266554,
      -0.19354935581315513,
      -0.14098981095387572,
      -0.05180427054548698,
      -0.1707968565583816,
      0.23659157595531158,
      0.08159604905165495,
      0.003117074772412938,
      -0.02565839469407365,
      -0.11855447885799315,
      0.09674587981631308,
      0.029332856680694352,
      -0.02231561499629971,
      0.09784054252613722,
      -0.13560901340283268,
      0.04904982475112712,
      -0.013506477728980937,
      -0.1486003279956674,
      -0.1463651823708381,
      -0.0057718372121100875,
      -0.5885982320134119
    ]
  ],
  "w2": [
    0.6486741066491397,
    -0.8523486636872403,
    0.15454815596673757,
    0.7209041171412937,
    0.7557689567204897,
    0.9528334513480093,
    0.34237395631584705,
    -0.4621224353807593,
    0.07177280449162635,
    -1.4857962667503501,
    -0.5242045611108314,
    -0.8311579259126074,
    1.0882656954757381,
    0.040492440519895874,
    -0.24125416099904945,
    0.7666023324157085,
    -0.9857016188961412,
    -1.0332573715360946,
    -0.14543349194676392,
    -0.6194761890228588,
    -0.5525289480120803,
    0.481311607732404,
    0.013906520543832238,
    -0.31271848746706504,
    -0.6179318580240276,
    0.43990859340224314,
    0.035288337537130766,
    -0.6080661668305549,
    0.37785628691318845,
    -0.019020549800249805,
    -0.252451553094129,
    1.26537713847193
  ]
}