{
  "b1": [
    0.18444220349185766,
    -0.11762291751388598,
    0.199229573603771,
    -0.03655251826718134,
    -0.02326042833571405,
    0.0356831535569417,
    -0.26686480698383447,
    0.001400029029072257,
    -0.05886216424534471,
    0.1554092404689665,
    -0.21086646725090902,
    0.00014769056620586663,
    -0.25083675444635406,
    -0.004444419628950134,
    0.1878733484644012,
    0.010599043168090155,
    0.024117342513290226,
    0.08436884751935698,
    -0.00019371575068776635,
    -0.1465104231797007,
    -0.18211159910464503,
    6.012656569732523e-06,
    0.00031030474613184166,
    -0.12237997193932104,
    -0.01215416809622124,
    0.008230368536120868,
    -0.005679106084620429,
    0.1398345596603243,
    0.05540352626106518,
    0.012003977802433525,
    -0.02448692725168082,
    -0.2034563503590437,
    0.19330007926773776,
    -0.12720390731720446,
    -0.1749658334512716,
    -0.08513121686096076,
    -0.22006579311636126,
    -0.043719357726785424,
    0.2109646196024039,
    0.1422202101403287,
    -0.09677334882626648,
    0.1908052558132647,
    -0.02509067433226244,
    0.23294788583384857,
    -0.13786338046353872,
    -0.12628002522451803,
    0.1921656224391498,
    -0.047040601547701205,
    -0.05768916644938269,
    0.2833048913375616,
    -0.029263925284376217,
    -0.34607691709517696,
    -0.21744585806171984,
    0.2542418004386831,
    0.0001304927000847108,
    0.001313893267493148,
    -0.0854365148400545,
    -0.1688861010541362,
    -0.002790487160517484,
    0.14075685830061072,
    0.1310727933617737,
    0.05054682957505841,
    0.2653600066477525,
    0.14363305777338378,
    0.14508083685761727,
    -0.24664174374359332,
    0.17712979714445612,
    -8.59852937560433e-05,
    -0.17132341684755564,
    0.005902426450954655,
    0.000770661371103084,
    0.0004066034643633826,
    -0.19201118301603953,
    -0.002706854689730457,
    0.0001640173339672013,
    0.07600190702743395,
    -0.00010589907918492462,
    0.18134311384278606,
    0.08198597010618051,
    -0.36910713889455904,
    -0.015099831810305777,
    -0.26184631901648336,
    -0.036219957975272034,
    -0.24232736047093623,
    0.05115597228277982,
    -0.06767197471002943,
    0.2729363225716525,
    -0.28341840874933977,
    0.13933862272274777,
    0.04242404439973748,
    -0.11748683564988166,
    0.19967067340845224,
    -4.079295415940357e-06,
    -0.19892559140896443,
    -0.03595648166689617,
    0.26587573108242457,
    0.23783726435376204,
    -0.005083119381960045,
    -0.11476053836746994,
    -0.11223626864033315,
    0.0277861048590049,
    0.26997217058769934,
    0.20838456419813253,
    -0.0004536332005636754,
    0.11746151551476083,
    0.15924177555188385,
    0.0009724927410849904,
    -0.18393392308570958,
    -0.13477927636572107,
    0.023911889418960733,
    0.15161529677626048,
    -0.295395357901753,
    -0.0024204165910461165,
    0.12536034764591014,
    0.028022546064261526,
    0.03650314217821512,
    0.13935642446482643,
    0.19095285737723186,
    0.05645020868024566,
    0.0016480031786533227,
    -0.00025989613627810313,
    0.01697908221625778,
    0.3312029130560115,
    0.3337283153764592,
    -0.09386268929657862,
    -0.25561758361659526,
    -0.0023152770718674583,
    0.006593819524219141
  ],
  "b2": 3.8721920427564894e-16,
  "feature_names": [
    "step_frac",
    "remaining_frac",
    "is_two_player",
    "is_four_player_plus",
    "is_ahead",
    "is_behind",
    "is_dominating",
    "is_finishing",
    "my_ship_share",
    "my_prod_share",
    "lead_ratio",
    "base_score_norm",
    "base_value_norm",
    "eta_norm",
    "send_norm",
    "source_count_norm",
    "needed_norm",
    "target_prod_norm",
    "target_ships_norm",
    "target_is_neutral",
    "target_is_enemy",
    "target_is_friendly",
    "mission_attack",
    "mission_expand",
    "mission_defend",
    "mission_reinforce",
    "mission_swarm",
    "mission_snipe",
    "mission_comet",
    "mission_other",
    "enemy_priority",
    "committed_load",
    "is_defer"
  ],
  "hidden_size": 128,
  "input_size": 33,
  "kind": "mlp",
  "temperature": 1.0,
  "w1": [
    [
      0.019770634419430916,
      0.14952712088430722,
      0.028252981840428536,
      0.035660138869267236,
      0.08275894187172009,
      0.060438160456021475,
      0.03960275812507596,
      0.004663414350372498,
      0.050491200939350195,
      0.06782346424690136,
      0.12402473893841465,
      -1.0852152452986925,
      -0.22546044023997724,
      0.03432351123594059,
      0.0038987301940417007,
      0.03501152849296527,
      0.0968978375814955,
      0.034260331541071665,
      0.040624001661399164,
      0.08859468872767003,
      0.11124890575428983,
      -0.02344956490395383,
      0.09934694404004522,
      0.03602834835631474,
      -0.022007153432769596,
      -0.0943127503716825,
      0.037528255326245305,
      0.03161263591200314,
      -0.02260551068783162,
      0.04855741371198701,
      0.06638897814122935,
      -0.012760245727426879,
      0.1809417766133107
    ],
    [
      -0.0751407090304691,
      -0.16166280051726442,
      -0.10680108812233094,
      -0.002698781375514461,
      -0.035907319224576566,
      -0.03588043492221477,
      -0.022499751216380363,
      -0.0032263227373199484,
      -0.07365233065838801,
      -0.014071459519568657,
      -0.08140064148588227,
      0.7405669531106335,
      0.19490075157977113,
      0.019683185479713074,
      0.03747050076847753,
      -0.017530073207460427,
      -0.044048356795453596,
      0.0890898123632426,
      -0.022124277704036605,
      -0.013838884626018403,
      -0.009078798365471276,
      -0.11198040592129628,
      -0.03188373535835256,
      -0.025485076429095397,
      0.008747003885186991,
      0.0027069137494859044,
      -0.030247349059651322,
      0.037547781183088824,
      -0.025146770031068175,
      -0.012011314303431223,
      -0.02293034506094888,
      0.007989520428249219,
      -0.13278062827601556
    ],
    [
      0.04501257901756846,
      0.24369768311456555,
      0.17778595262597072,
      0.03665241170012803,
      -0.023223104482061073,
      0.011431720854604125,
      0.02014453131785246,
      0.049062924140437184,
      0.118344330442465,
      0.056165673216779316,
      0.17163258059021774,
      -1.0243855760692324,
      -0.2718219515953642,
      -0.045929177706229445,
      -0.08198544040582666,
      0.025141581492144655,
      -0.07883187682872564,
      -0.020351630599937314,
      -0.08435798773429164,
      0.05237358932666457,
      -0.01544308203899045,
      0.16329771741173998,
      -0.033514691949430915,
      0.036763357983372186,
      0.004280755527730832,
      0.11109468467213976,
      0.07672608062651617,
      0.03639844696985152,
      -0.012762305578139494,
      0.014200678051216633,
      0.045316222489877725,
      0.0384192827198217,
      0.22572972618547457
    ],
    [
      -0.0409563690793764,
      -0.06893074541814513,
      -0.06666490754150771,
      -0.024628693662905737,
      -0.012194564017108467,
      0.013495653498293656,
      -0.03560089723108706,
      -0.049513971620337244,
      -0.026722842990015292,
      -0.0284736430805589,
      -0.026849800584975252,
      0.44373879996235904,
      0.13306232919831432,
      0.033772069576774234,
      0.03088997147689784,
      0.0037222006273589354,
      -0.04567154808755673,
      0.060279884244036165,
      0.04859706861764084,
      0.029586799985778935,
      0.032774817376508156,
      -0.0424376144072378,
      -0.01361095348350928,
      -0.031603015588406815,
      0.007962452478232773,
      -0.060766515803001506,
      -0.059302153937961906,
      -0.029123681455383556,
      -0.03658679028076838,
      -0.015769764733519587,
      -0.02719154157147191,
      -0.04997667180986434,
      -0.057213065375069164
    ],
    [
      -0.04249317561245547,
      -0.03689943613225664,
      -0.05972539101499379,
      0.029779142207274078,
      0.0016567796006951676,
      -0.036691763610849436,
      -0.034645876308990846,
      -0.017802192105564593,
      -0.025755289190488653,
      -0.04921681295301,
      0.012080870297110108,
      0.40795793546071835,
      0.10630680075045457,
      0.023497368474373004,
      -0.034756290369033,
      -0.049507208348665996,
      -0.02668233441109501,
      -0.001223081818737355,
      0.05173184835016253,
      -0.03254188589248416,
      -0.042068505426109945,
      0.014901953427519045,
      0.00413830534823006,
      -0.018644975838180665,
      -0.0034020446401026665,
      -0.05676540535943238,
      -0.01025911098329438,
      0.047850124271897276,
      0.03393418901589314,
      0.01100922495930144,
      0.0001365237595812308,
      -0.013330020823882117,
      -0.06122033711460868
    ],
    [
      0.03667304497226899,
      0.038942393306229554,
      0.05611902090648764,
      -0.016085396495191393,
      -0.018676831577898564,
      0.027888345478302448,
      0.05707641119631356,
      0.032107146795399895,
      0.0456750050487162,
      0.0425864978586921,
      0.055470638692576964,
      -0.4881816677394049,
      -0.13496934951320969,
      -0.03131611001953416,
      -0.04592998887857571,
      -0.031633991799846245,
      -0.003502796900064235,
      -0.05088518270309802,
      -0.01129470542155158,
      0.03974367144755242,
      -0.008413882472390057,
      0.08842976012020831,
      0.0449549697270915,
      0.02184400849549947,
      -0.003909005700037769,
      -0.013772230055512969,
      -0.004182475181954387,
      -0.03032938365806828,
      -0.026365805664053155,
      0.02545594046861527,
      0.017286233776693874,
      0.034043552727928986,
      0.05269885088529688
    ],
    [
      -0.09234894012070255,
      -0.23690043249886705,
      -0.1540010076971123,
      -0.06997864207288562,
      -0.030251657198766338,
      -0.06471591240594073,
      -0.0567220789285984,
      0.010064831519292019,
      -0.15857290467295032,
      -0.06763083768441434,
      -0.23224518481720502,
      1.3388076187429265,
      0.2736232923476196,
      -0.0762980765969446,
      -0.04198935167184317,
      -0.03813561366086389,
      -0.044503123445756534,
      -0.027110842085369524,
      -0.09513544617260403,
      -0.12448891140467791,
      -0.02337032806185191,
      -0.0827550897026111,
      -0.13080048740343664,
      0.02162456522403509,
      0.055985455100119284,
      -0.020673446039742534,
      -0.06666308561016461,
      0.004866004398677915,
      -0.048841514877456735,
      -0.11690696079964817,
      -0.038084172824936036,
      0.01496746696738306,
      -0.23216835760123544
    ],
    [
      0.043923777219145976,
      -0.005219027295179281,
      0.037857682902058716,
      0.033027305315476985,
      -0.028199999304685395,
      -0.024016029421610005,
      -0.019981349267396118,
      -0.0261701499035326,
      0.009343916281275066,
      -0.023555326811648965,
      -0.006988136988074617,
      -0.13738936745589012,
      0.006958184018017296,
      -0.025236657741007373,
      -0.00982230749686003,
      0.00924198330795126,
      0.04027494528481446,
      -0.013853556330641566,
      0.034104253788843165,
      -0.0062402497690725416,
      0.002157834447873532,
      0.011180493264604215,
      -0.044244334033286904,
      -0.01709539341623697,
      -0.03077538544363561,
      -0.04169972446539226,
      0.03151958043975173,
      -0.032765328778655116,
      -0.0020353400369687536,
      0.020103306263815422,
      -0.007225934001441598,
      -0.017401784895113594,
      -0.00023405181718351905
    ],
    [
      -0.006888160576984308,
      -0.030434916708797135,
      -0.0774983380045047,
      -0.0037571521944340454,
      -0.04925915624735165,
      -0.0304563891621588,
      0.001892331627192037,
      -0.0019609427705986103,
      -0.025555149259928682,
      0.000792177078607556,
      -0.012943479376277222,
      0.4690045194453258,
      0.14299625282362888,
      0.022485202021281032,
      -0.0006233053133012159,
      -0.002122616156508001,
      -0.026603195851922418,
      0.035001517547690465,
      0.021445984185050327,
      0.03351574060017114,
      0.010067742179780717,
      -0.0007201978753578244,
      0.03366287024051397,
      -0.015979083801612684,
      -0.0036773180953462224,
      0.04193099434437837,
      0.01119132254450888,
      -0.036286556410314856,
      -0.04179076086867176,
      -0.02337083371062468,
      -0.05112407213413214,
      -0.025936124154673015,
      -0.10947513034599697
    ],
    [
      0.03085857035704056,
      0.1838028421862822,
      0.16282639134520155,
      -0.015852471882418506,
      0.056470478784747605,
      0.012133297643007253,
      -0.006929070848495948,
      0.0465965452113023,
      0.12396599839637375,
      0.03732525830321398,
      0.19112816637669205,
      -1.0061286529470357,
      -0.22852789054021014,
      0.024588822052146634,
      -0.021493708749163343,
      0.017157011695048657,
      -0.03965266278008548,
      -0.04969820222510248,
      -0.08738863935901241,
      0.037862062114987396,
      -0.011275542003119069,
      0.1024648273183775,
      -0.03516922381792114,
      0.046338080862120656,
      -0.009359066473631293,
      -0.008258208216932957,
      0.022778212377613377,
      0.012392707389186398,
      0.009879949797989715,
      -0.026788081591609,
      0.08346423011697411,
      0.028836305609758084,
      0.19653297594196412
    ],
    [
      -0.09965036931079979,
      -0.23431004001655714,
      -0.10444355860119658,
      -0.03803790511437669,
      -0.052333925331765584,
      -0.10230854100624576,
      -0.05040537860200895,
      0.04746714962502839,
      -0.058699936045881335,
      -0.10202713733270682,
      -0.2064251694370342,
      1.2256691739781957,
      0.2351768464188508,
      0.013097539383933866,
      -0.0324015701276361,
      -0.11542722082803628,
      -0.01458198422967452,
      0.01749887117400089,
      -0.11276617587238785,
      -0.02686515602503944,
      -0.04404870672048907,
      -0.05251082381457164,
      -0.09609570660891517,
      0.011801438950966293,
      -0.02994913426047174,
      0.01920452313909701,
      -0.067407236487032,
      -0.016084822271536382,
      -0.005377060615871383,
      -0.012755732364968296,
      -0.06607837385677746,
      -0.037077520010467116,
      -0.19419063110656318
    ],
    [
      -0.02653521814611027,
      -0.03890716292586479,
      -0.03534349464610446,
      -0.04349836271546158,
      -0.030124171084414005,
      -0.018202271900532783,
      -0.019923957107881925,
      0.026369577327345566,
      -0.021334713725993857,
      -0.00018542880117714385,
      -0.03209368182848299,
      0.13034141604482916,
      0.0027572956450286528,
      -0.02284319967219617,
      -0.058987675590816434,
      0.02159020208060208,
      -0.011382663688052245,
      -0.015663196684682655,
      0.002916981565691172,
      0.05174779500691546,
      -0.029552847332622038,
      0.013937175407028952,
      0.0012895448458300491,
      0.013419273405040393,
      0.028770235673518562,
      -0.010288292803548761,
      -0.00527627448065676,
      0.018774173569069144,
      0.04708587339045177,
      -0.026181640852300948,
      0.049975618821177535,
      0.02067254016462279,
      -0.02363963036110517
    ],
    [
      -0.0934994324357157,
      -0.2660815364308291,
      -0.2157893508484329,
      -0.09115435196723769,
      -0.06335972957235451,
      -0.04636607945800752,
      -0.04775161150070265,
      -8.021059697199142e-05,
      -0.15471936315903545,
      -0.050620735218376,
      -0.17164079448176767,
      1.3826123252420524,
      0.22727017591707066,
      -0.10890735785615793,
      -0.033634326969928095,
      -0.07872698800906155,
      -0.08726413520204929,
      0.0025679520563832436,
      -0.10173085696120965,
      -0.05163738985530054,
      0.025405334961044707,
      -0.1264564090093081,
      -0.1007114329282053,
      0.029147936911790944,
      0.00859847066366384,
      -0.09371055599387315,
      -0.08509281669251385,
      -0.011837339338741782,
      -0.015360739273711494,
      -0.058235452392392216,
      -0.08326867208108713,
      0.0004735639514312662,
      -0.2857039212636546
    ],
    [
      -0.025554564748496912,
      -0.045469079840852,
      -0.014709566079361764,
      -0.04635287732708035,
      -0.04888257081737373,
      -0.01990085085592495,
      -0.028070394547105686,
      0.0082381901675282,
      0.0005404005318996698,
      0.022959765608834486,
      0.011857253559908973,
      0.15221808960538388,
      0.07958491748463577,
      0.0005445331545187586,
      -0.015804054023605987,
      0.04618382496685282,
      -0.040655655901012534,
      0.02790063617146617,
      0.021843534316460557,
      -0.03795776044946583,
      0.033232969759115716,
      0.027382367641799125,
      0.009564375522732455,
      0.03738993973159238,
      0.027991984293206346,
      -0.04101736916067882,
      -0.0014848384838808527,
      0.00043710512554607784,
      0.03278669388111138,
      0.02793312031244827,
      0.046147413589898524,
      0.008406151680623876,
      0.0325627539191508
    ],
    [
      0.053603529605350274,
      0.20720596199432897,
      0.03593287125891313,
      0.00617068072911695,
      0.012590856890032434,
      0.05529496440643568,
      0.019459793849252616,
      0.03263320581846747,
      0.0907487023990529,
      0.08619582327989996,
      0.16831147092458634,
      -1.0250870312653637,
      -0.22134609721832998,
      -0.07837398094510073,
      0.022706806938512968,
      0.09014800899610433,
      0.03278301833145134,
      -0.033264367613249,
      0.0445419949071092,
      0.02956184521596785,
      0.0840355922325707,
      0.029779132638571695,
      0.01851173723442535,
      0.010698490945323772,
      0.025782618657622873,
      -0.05173548725627276,
      0.08765217583114511,
      0.04757350941027705,
      0.00896711808453691,
      0.027086558446980408,
      0.054990660158497504,
      0.01836965627023515,
      0.2153983194506356
    ],
    [
      0.014298238043526784,
      0.02487534070628852,
      -0.031507205625523,
      -0.03385455939803689,
      -0.021336023199487384,
      0.02261332241226239,
      -0.015544818411766831,
      0.008323975630000976,
      -0.04319063488468724,
      -0.03903710801552341,
      -0.0134024812721836,
      -0.19691897691667126,
      -0.04822534830966828,
      0.008720925183147488,
      -0.01321244082099227,
      0.006565570337827036,
      0.014200806177746574,
      -0.020466622703598857,
      -0.03736943967921992,
      0.03367849304613261,
      -0.03456375823040984,
      0.06858817763154627,
      0.04267716493995201,
      -0.06332883652620477,
      0.0012745432261231646,
      0.03317771799226383,
      0.05422898509490818,
      -0.005054903034890479,
      -0.021528299965895805,
      -0.017979229168498354,
      0.02884641865516563,
      -0.02892912024660941,
      0.04529764904420768
    ],
    [
      -0.032059391791110586,
      0.02652391376877224,
      0.07597243100364702,
      -0.04077351878795354,
      0.0379859173825148,
      -0.009150320278620292,
      0.04585383449769656,
      0.019498859201476565,
      -0.015061160504935557,
      0.04929886647899436,
      0.0211297089437708,
      -0.3523749674338329,
      -0.13969348639965812,
      -0.030083749877484585,
      -0.017163388623907785,
      -0.009802326671698473,
      -0.037727529380438087,
      -0.03840619855390945,
      -0.04547161138902684,
      0.0369900731666746,
      -0.05792805454877915,
      0.05432596956907351,
      0.0263499891225889,
      -0.04724859814104729,
      0.047897346677732246,
      0.03734492404209691,
      0.053894864211044634,
      -0.02101670410244747,
      -0.010852256557211063,
      -0.006742675599867037,
      0.030691932754927053,
      0.008917665538490327,
      0.0025887490101729363
    ],
    [
      0.025349855505360622,
      0.061884372781604004,
      0.01071093704736882,
      -0.015508590432896175,
      0.057501323995336404,
      -0.001797020110672525,
      0.06887201414880836,
      -0.017757274412426253,
      0.020127923496637556,
      0.03605483104488821,
      0.04193697280969828,
      -0.5809962962922199,
      -0.0985144929074343,
      0.024723519991501446,
      0.026820418035498433,
      0.04165751870930726,
      0.06243551605334243,
      0.010103780857503882,
      -0.014770610848949614,
      0.028424817104761965,
      0.0015441494893023587,
      0.05453998941001231,
      0.04348648778384924,
      0.009287488344129659,
      0.02463363097406848,
      -0.0339425367308558,
      -0.02007883934513017,
      0.04267770465471461,
      -0.032435651455387716,
      0.02168824552278874,
      0.0104683280856355,
      -0.020222813445521317,
      0.11153538486081847
    ],
    [
      0.04749009468194222,
      -0.0241768102892798,
      0.01560328534577425,
      -0.020222889526560872,
      0.005431068798129134,
      -0.010788484417798894,
      -0.03345751624512186,
      -0.03384684010618256,
      -0.029283873461016786,
      0.04054660381444258,
      -0.00038187086163011744,
      -0.0430053842892344,
      0.035365152031912955,
      0.043695641494745086,
      -0.01332980763089557,
      -0.036169327899496076,
      -0.03724168563133918,
      -0.0406624029043962,
      -0.018835848964426683,
      -0.04081828330764797,
      -0.0245996916577626,
      -0.025917891919775116,
      0.010576963616819757,
      0.03774672774050807,
      0.0230980943741279,
      -0.0041124882489483395,
      -0.009002198520831405,
      0.0024168142750895963,
      -0.012242653915371318,
      -0.02143206536206813,
      -0.047690285752311164,
      -0.022248365302174722,
      0.03208042836684237
    ],
    [
      -0.0888348578334168,
      -0.1461708484185889,
      -0.08212401066598798,
      -0.006077894858084146,
      -0.06266718474176429,
      -0.05753478062174228,
      -0.0602395165423565,
      -0.009338814122119463,
      -0.07502107075409169,
      -0.011148856408887306,
      -0.08797286322193984,
      0.8486044788185602,
      0.13136983468937044,
      -0.040784433650973756,
      -0.0024201276149884744,
      -0.00580030382962258,
      -0.053181309189197015,
      0.041717446351305594,
      -0.09536903437506176,
      -0.017001123895698647,
      -0.019111314754369065,
      -0.046004226958158596,
      -0.034668303040309635,
      0.07557866714621185,
      -0.03053087751483173,
      -0.05959568785358643,
      -0.06218459163061483,
      0.0022365607111808016,
      0.011113347658719963,
      9.293049443970238e-05,
      -0.0311908466363866,
      0.014734811966500061,
      -0.11079529818863422
    ],
    [
      -0.0303798405825752,
      -0.1769615076227936,
      -0.17189355257290342,
      -0.011162571982277597,
      -0.06271900542134001,
      0.01980067009185692,
      -0.012045459360464313,
      -0.02780585780884395,
      -0.12363476564358934,
      -0.09825884777353693,
      -0.1498065293364337,
      1.1126721441436516,
      0.19833447593063278,
      -0.03410615565410957,
      0.04032971047911437,
      -0.04974156267391905,
      0.00322428209874331,
      0.01898143633724692,
      0.08001666717253404,
      -0.11412088110457354,
      -0.035056874010032074,
      -0.10566648716780341,
      0.012814235462775424,
      -0.013721676159958538,
      0.03916283219786244,
      -0.05008011952708375,
      -0.06658358925189894,
      -0.025294161566137643,
      0.03646897187300112,
      -0.003909268728482301,
      -0.07290481012455446,
      -0.047821261589143266,
      -0.18607008805295108
    ],
    [
      0.01720504144274019,
      -0.007992400130531036,
      -0.024467955114384442,
      0.016811761503699264,
      0.042412854822715715,
      -0.02727394945789303,
      -0.04658688475440185,
      -0.016174751751309176,
      -0.007992222181910787,
      0.01818683747119107,
      -0.030162568970655865,
      -0.025979570619549783,
      0.004373889108177178,
      0.001980852801968608,
      -0.02253846527289681,
      0.04790029437042872,
      -0.00956515396504981,
      0.025509041323713497,
      -0.025740192716021702,
      -0.030249971626191873,
      0.0203067175867966,
      -0.012366092968472828,
      0.03893463933479043,
      -0.004766482853041365,
      -0.029224927831862417,
      -0.029174670162776174,
      -0.005146204062907295,
      0.01652942527563651,
      0.04536067051645992,
      -0.028926771765683708,
      -0.015904040465456237,
      -0.028705092501916954,
      0.06858246557257268
    ],
    [
      -0.03603421082887175,
      -0.04450564109534521,
      -0.04419863538387052,
      -0.010436527633201735,
      0.040301761842599225,
      0.0381816930066819,
      0.0237878100772275,
      0.04992769996733976,
      0.04318546389293947,
      -0.017236960122959045,
      -0.031145518207702685,
      -0.032141383685553956,
      -0.0016988990594905885,
      -0.04344252802069851,
      0.027522199169613643,
      -0.01076598581629672,
      0.0010173010690695745,
      -0.02615827113037174,
      -0.0316059560882056,
      -0.05320217241357343,
      -0.027987437796095742,
      -0.005085683796706249,
      0.03806203734978263,
      -0.04379857325639577,
      0.049495483068871284,
      -0.03361683729291626,
      -0.0097943255620276,
      0.032157361737414604,
      0.03284635950143667,
      0.0033144910459528185,
      -0.05165872036173145,
      -0.002653594914290436,
      0.018506492576526177
    ],
    [
      0.051219476669319225,
      -0.15307735319486443,
      -0.08475487802375012,
      0.04246911718041607,
      -0.06421332053017755,
      0.0031928344081985907,
      0.009337002646825476,
      0.029091298041642524,
      -0.10192124130923726,
      -0.09882734183864296,
      -0.16596243071003067,
      0.9118241166305602,
      0.19193482651173963,
      0.08999491577901775,
      0.08579828678152555,
      -0.06907946145267278,
      0.007718908471431359,
      0.11200755461473545,
      0.19302099352242266,
      -0.10875990161357652,
      0.004855965157493212,
      -0.03894685036676404,
      0.0002289255966787059,
      -0.10900392576546104,
      0.013680015771212141,
      0.06738173657528874,
      -0.06869220391613995,
      0.04432501425246306,
      -0.05449529212382693,
      -0.03711753533557922,
      -0.022239779276284094,
      0.04567776506077044,
      -0.0834462482958436
    ],
    [
      -0.009656645171917935,
      -0.037049486013133,
      -0.005781691043198086,
      -0.00666500016312156,
      0.03758816229783219,
      -0.03680595889989407,
      0.025631436405864363,
      0.022170823992933613,
      0.027122904965967993,
      0.023408554152316352,
      -0.0008206917974100888,
      0.2700224778044879,
      0.0752092163228877,
      -0.0019580731324339846,
      0.02140580100764811,
      -0.048358707334477176,
      -0.05090326613283572,
      0.046106573579416145,
      -0.027573239757936466,
      -0.032753655107112985,
      -0.04463763344439517,
      -0.019643740681139644,
      -0.02100876395276064,
      0.07124135515472636,
      0.03260576490017789,
      0.045601837094001514,
      -0.03420993499919419,
      -0.04159174024437291,
      -0.04246408320056817,
      -0.010210168682016206,
      0.043457218171140274,
      -0.005303689708417759,
      -0.06666356311158707
    ],
    [
      -0.005291054161181424,
      0.020261133124284597,
      0.025737970085591207,
      0.02543019488070028,
      0.03830327479629343,
      0.01720357092111926,
      -0.033899671929559186,
      0.034859418497808256,
      -0.016158547284139603,
      0.00966909888283873,
      -0.0057544850160735714,
      -0.21691851179376828,
      -0.10809222390696742,
      -0.03382056495411074,
      -0.0168317692877388,
      -0.02948802852901265,
      0.058889949342041795,
      -0.00924813054388861,
      -0.022611676937367042,
      -0.019725983470676133,
      0.04284498441664426,
      0.024695651138679883,
      -0.031008253554505354,
      0.011179897437183813,
      0.021768459600386758,
      0.05058315944615127,
      -0.02907577677428664,
      -0.0025237240770272784,
      0.03362799226165665,
      0.04576464311358225,
      0.021150384039489382,
      -0.045963813456235694,
      0.022103392781769253
    ],
    [
      -0.040290553977107825,
      -0.03672178801670218,
      0.04191636483537689,
      0.007804681292728646,
      0.03969318918664926,
      -0.013227250856241381,
      0.03345174993113212,
      -0.006292315131670874,
      -0.027319625959417195,
      0.02527018224849801,
      0.03961107908118873,
      0.18372510727855174,
      0.0837346565875754,
      0.017654563394513424,
      -0.034684393637443967,
      -0.017082141266718448,
      -0.05314572441669365,
      -0.009854348399088407,
      -0.022680429342056888,
      0.02229622988704463,
      0.02053750917456037,
      -0.05306204712576653,
      -0.04649426518195891,
      0.004480978085513771,
      0.011827921618267298,
      -0.0322397487105695,
      -0.027208458591302942,
      -0.02965922278801607,
      0.02780004462793286,
      -0.00808401350062732,
      -0.023518671669637347,
      -0.03986122325372408,
      -0.05472722073004769
    ],
    [
      0.033270100821057344,
      0.15375275423294968,
      0.023659578803924722,
      0.003919484535306597,
      0.06949178130185792,
      0.023441070795242474,
      0.03098837710446181,
      -0.014703337658812281,
      0.11805050393146295,
      0.0367650871321809,
      0.13088771533037527,
      -0.9233705497430194,
      -0.2150800867386501,
      0.026958349630313218,
      0.05063566969965677,
      0.035044717866067894,
      0.009930088624203592,
      -0.0044002030731862965,
      0.007907967961359586,
      0.03077542139207775,
      0.07448833513614772,
      0.017697001412157878,
      0.07214114506076387,
      0.03824438398454687,
      0.04623020629122629,
      -0.03896612393825516,
      0.012929369304474842,
      -0.04851656254254625,
      0.01308538948467429,
      0.038679146922243016,
      0.06359595916939116,
      -0.041096888800811394,
      0.15710235318303373
    ],
    [
      0.0005714142516867489,
      0.05584983255801412,
      -0.015147610340527749,
      -0.00017802288984704564,
      0.02428643709131702,
      0.062224294925399194,
      -0.019055276332889507,
      0.006354083582143797,
      0.058008404407672076,
      0.06771330081083406,
      0.017220043814313662,
      -0.5541324259837411,
      -0.09844602039605019,
      0.03742607959617964,
      0.012335157139930572,
      -0.023609769186986946,
      0.0819284143312635,
      -0.035747778538171085,
      0.07976396774604085,
      0.004117127709934519,
      0.06457031628194213,
      -0.0027664306372446826,
      0.061267520788627246,
      -0.05727393596088663,
      0.003032179058484227,
      0.023218804596579122,
      0.05749837288596724,
      -0.03170344563914294,
      -0.024206695188790497,
      0.012447955341582865,
      -0.0029603524463192596,
      -0.011642362654799477,
      0.0383406543379127
    ],
    [
      -0.02110383558081162,
      0.03449224687494397,
      0.049452448444879074,
      -0.04386685400637772,
      0.012253786077097614,
      0.025896137615626296,
      -0.03970542175328332,
      0.034908227493693204,
      -0.031756477745034706,
      0.015236478369931849,
      0.015912899983683768,
      -0.2215210029450274,
      -0.09337333330845302,
      -0.016576899188639468,
      0.011256856478535122,
      -0.0014742424285038862,
      0.029278630508717308,
      -0.02508255139783524,
      -0.014148662818945435,
      -0.055546252566283545,
      0.00822835933427766,
      0.022498746934856196,
      -0.02794676458325228,
      0.0086691358256217,
      0.03353358009280567,
      -3.371119255887061e-05,
      -0.021987120449662275,
      -0.0026781153676343375,
      -0.037587745038876026,
      -0.02742529320654795,
      -0.02248978403164173,
      -0.040828685609786225,
      0.029608492833800817
    ],
    [
      -0.011159089314413123,
      -0.07041024817047124,
      -0.015019239877259793,
      -0.04059339896955155,
      0.010137405663985098,
      0.028462771763249593,
      -0.013498053914706576,
      -0.044328741767842204,
      -0.012306329297347448,
      -0.02058000179780143,
      0.02541315766273872,
      0.22282899426457367,
      0.11077284757147889,
      0.0551682173872233,
      0.020125120921284993,
      0.02133403041875048,
      -0.0470123096793631,
      0.06350741126375856,
      0.0008603666165993335,
      0.050078721018005035,
      0.03674765748153271,
      -0.05753410283392236,
      0.022155113282727505,
      0.05895639743944333,
      -0.048915696771617105,
      -0.017630183424067032,
      0.011525507127213367,
      -0.03412325507116393,
      0.0375446311096619,
      -0.03181387505474331,
      0.03701291915390098,
      -0.03564277048843996,
      -0.04020365949189666
    ],
    [
      -0.002610044844021756,
      -0.2326240162042837,
      -0.16394925894873366,
      -0.040163196005268846,
      -0.054123738937610404,
      -0.0813322036911159,
      -0.0668407015861668,
      -0.03540087900007713,
      -0.05277070900453607,
      -0.06023410465860894,
      -0.1379114186275775,
      1.0319262676266656,
      0.24463439631495987,
      -0.030460538760593472,
      0.013276051166763232,
      -0.05193563442480122,
      -0.032125749519024194,
      0.06971677799363334,
      -0.006457989695778603,
      -0.05585139176270804,
      -0.015711146948276564,
      -0.12517506966721767,
      -0.01741522977663028,
      -0.0005146903713089063,
      -0.008886908938997717,
      0.0009993969979161764,
      -0.07213188669830746,
      0.04904982475112712,
      -0.0023168169957707187,
      -0.05148782891608637,
      -0.046507524022837324,
      -0.0057718372121100875,
      -0.22257908544544558
    ],
    [
      0.07709231300091317,
      0.14812922471146342,
      0.15786185080891765,
      0.019487507561694525,
      0.051141777168293774,
      0.08750017341406843,
      0.04692569603402499,
      0.016379506870049177,
      0.06914042788423679,
      0.023090154047190968,
      0.11644553574957489,
      -0.9492374077517898,
      -0.17068504599461143,
      -0.012398349336921502,
      0.014495176469513045,
      0.09993085932615967,
      -0.0010489713742036766,
      -0.055034905507198105,
      0.05740056707514179,
      -0.01366709965558988,
      0.004601822207934409,
      0.09035211575608439,
      0.01988005225873533,
      -0.0175542331449579,
      -0.025915199889566073,
      0.049818986524427226,
      0.04845614579072757,
      -0.029581562901858593,
      0.020826467760688003,
      0.04371656611626022,
      0.045963291075944324,
      0.04365909159295467,
      0.13354577837112241
    ],
    [
      -0.0402362381546346,
      -0.16762344037347013,
      -0.060401166637316456,
      0.02090390094025701,
      -0.005787756988051981,
      -0.013177271599333596,
      -0.056889603823743286,
      -0.048329476264365775,
      -0.04432810265694029,
      -0.05032641891788854,
      -0.13533764674668436,
      0.8409754389143792,
      0.19892794150408516,
      0.1017929435124118,
      0.033135254648337484,
      -0.07129452913424805,
      0.026412024730024488,
      0.0003389247083895154,
      0.08254122647157268,
      -0.06146721295939339,
      -0.05407956074501561,
      -0.09145346256226351,
      0.008466045362815084,
      -0.07366472401306819,
      -0.005525523105570683,
      0.05219759149267927,
      -0.08595884072993933,
      -0.030048173279868008,
      0.0039252046159324845,
      -0.022607298265900036,
      -0.013847220586704668,
      0.031338080475616197,
      -0.1593231795701623
    ],
    [
      -0.062242454691045744,
      -0.19493921682879084,
      -0.16546961194345916,
      0.00252443836887198,
      -0.009220937685539683,
      -0.01179798425475387,
      -0.08600876552441382,
      0.028746721269030807,
      -0.060997499646411386,
      -0.07337333989082229,
      -0.12753085593105362,
      0.9574862290801419,
      0.17555917210892738,
      -0.027474573049741435,
      -0.021190203621610147,
      -0.10111130938550389,
      -0.03298137955978378,
      0.06649202529763548,
      0.021511040053133555,
      -0.017207260077109612,
      -0.012239887388452319,
      -0.11321815639269975,
      -0.045884215916152146,
      -0.023122277861818308,
      0.03261156547262343,
      -0.03958096146704707,
      -0.05955920300332629,
      0.014200318551488712,
      0.037741841306993394,
      -0.05227581012736949,
      -0.019274835116246555,
      -0.04847722934948685,
      -0.1849786129825582
    ],
    [
      -0.038621030906241215,
      -0.06074335045125894,
      -0.036381002405438866,
      0.024961650590737856,
      -0.042986478920851695,
      0.04784580973539446,
      -0.04587680930018588,
      -0.026375134590365994,
      -0.0037504213821721293,
      -0.02483784900012933,
      -0.06086696044296277,
      0.5667335557279605,
      0.18885998843274665,
      0.03984077410729998,
      0.037082871303253655,
      -0.008882745964808586,
      0.02007395378258335,
      0.027350148089601897,
      0.05607603227833096,
      -0.023850183939359344,
      -0.029381516898303792,
      -0.07289377419944192,
      -0.0028126619266511557,
      -0.055989193479956456,
      0.029644555145758155,
      -0.04169102384530147,
      -0.07210114533453654,
      -0.03933216212543164,
      0.038452966306674365,
      -0.024982300503181357,
      -0.05259853426099119,
      -0.04712673721397679,
      -0.1164247412615436
    ],
    [
      0.010687336299230354,
      -0.2066779804105417,
      -0.06454986297678497,
      -0.01699249948650056,
      -0.062206529639279966,
      -0.02110429219606747,
      -0.030483349381816544,
      0.02236298147764717,
      -0.06591771255483506,
      -0.05334936530711673,
      -0.24480057979446945,
      1.2905018752036317,
      0.28755049390159126,
      0.05580997513372485,
      0.06577229412099869,
      -0.11163904505649458,
      0.012313714896855562,
      -0.009876927349911531,
      0.14556249294149973,
      -0.1251241721396498,
      -0.055510665549934946,
      0.03769424862425123,
      -0.03198139293780043,
      -0.13529129149561783,
      -0.039665432524961,
      0.027267310691174836,
      -0.07097991789418527,
      -0.029500656355575184,
      -0.029661025965332665,
      -0.02806317732545866,
      -0.11220835259925875,
      -0.024329773388730404,
      -0.23398644751507272
    ],
    [
      0.0065434709230999845,
      -0.05691692585255889,
      -0.04383863365139332,
      0.03703791609548334,
      -0.016263503184462416,
      0.020390671471435962,
      -0.006551948218193402,
      -0.047123550504753316,
      -0.031796536716715805,
      -0.02478997887465855,
      -0.010379418387700198,
      0.3951063776030508,
      0.13775035205320108,
      0.01902077550736556,
      -0.02577590031041709,
      0.01863491376748224,
      -0.05591658740363191,
      0.06463869955348368,
      0.010985406178227885,
      -0.039656098830157915,
      -0.0441108129677859,
      -0.013400921407126258,
      0.03498134086091438,
      -0.023495851664418085,
      -0.011853185020983457,
      -0.002450609985646572,
      0.006441154213880428,
      -0.03154807987276004,
      -0.0038317110093001637,
      -0.03320312457196407,
      0.02908931975550318,
      -0.02394249172657178,
      -0.025479010154835096
    ],
    [
      0.010366928974244259,
      0.18243605364298762,
      0.10600086874583899,
      0.034230955332088336,
      0.0203770781157402,
      0.07250178945393643,
      0.02820071952233687,
      0.031341736914772565,
      0.12656006499501143,
      0.1180063100347344,
      0.19876322516276723,
      -1.1915902632373787,
      -0.23991610627039694,
      -0.012570774962430293,
      0.011925759746344175,
      0.03427835432357428,
      0.06218729858216648,
      -0.07108673657982226,
      -0.07033742197110644,
      0.09893708780559922,
      0.09855491673885035,
      0.030032743496500668,
      0.036591452708381336,
      0.11792620263089698,
      -0.027729844743791397,
      -0.03741086926316078,
      0.0835594165606108,
      0.02544756806584804,
      0.03611386609254706,
      0.0407745206499338,
      0.04104300212327201,
      -0.017333979515930877,
      0.1736382091170487
    ],
    [
      0.02450942749482003,
      0.15843022790619077,
      0.11232958592107016,
      -0.02973866984590151,
      0.022965955788363464,
      0.027902259440480952,
      0.03778866245971675,
      -0.03291387050417581,
      0.07072300425305268,
      0.10626361886807455,
      0.1158208861587854,
      -0.94534450897936,
      -0.2371004921154185,
      -0.05148257282048585,
      -0.005545434335900679,
      0.017202386559451673,
      -0.054074218921813445,
      -0.08289604675473661,
      -0.15482383266798033,
      0.09172439764533875,
      -0.015645727790707907,
      0.01725935874604171,
      -0.024384009059765118,
      0.10725848591444039,
      0.027425043120815232,
      -0.05021620005920828,
      0.10277048062483411,
      -0.03983620092613099,
      -0.003645500849869517,
      0.0655530985478412,
      0.06688821660357745,
      0.02332925967678755,
      0.12895425277625278
    ],
    [
      -0.056319857725288254,
      -0.08297526254708104,
      -0.1125937875367482,
      -0.045135664948601384,
      -0.039248342463673425,
      -0.058206777384661026,
      -0.03937257103219829,
      0.02609900372741799,
      -0.02729519771427349,
      -0.03599295044199109,
      -0.06967273579217827,
      0.6498751037138241,
      0.1280934988994394,
      0.028881466517935602,
      -0.01923070298126325,
      -0.009397023113567824,
      0.00619537511196726,
      0.023392258721072756,
      -0.019451129284182963,
      0.0032248600238000595,
      -0.01853009031804348,
      -0.09158617077539698,
      0.007835082131238074,
      0.04365782768505269,
      0.017241895941589012,
      0.005156230542115793,
      0.0036469311156392802,
      0.017959652231264823,
      0.008632469426919821,
      -0.03051286347283758,
      -0.035396929304912575,
      0.01282769419301314,
      -0.14378867682090105
    ],
    [
      0.03478834365862573,
      0.2190430608818569,
      0.14054963884620839,
      0.05509657018815551,
      0.009175871646252635,
      0.03815272295909878,
      0.029247212595886037,
      0.008659757536371101,
      0.07769403583320969,
      0.08443795188006178,
      0.2039900401702982,
      -1.0804748905529256,
      -0.19604776708790614,
      0.0024518483396184783,
      -0.041260583243303714,
      0.06052557878853121,
      0.04445138264299821,
      -0.0747689987638573,
      0.047016098998055464,
      0.037155271283233184,
      0.043110546485636225,
      0.14886164080687303,
      0.04528755451668673,
      -0.015663884518131242,
      0.0016231517718784856,
      0.06606305382141842,
      0.0673933263314834,
      0.0012191161633330894,
      0.023328302940906726,
      0.04491830021105918,
      0.04299724080480883,
      -0.008965134812809583,
      0.19811641082382037
    ],
    [
      -0.024490079199108603,
      -0.006654646877079324,
      -0.020921214478250422,
      0.023001891846781076,
      -0.04686729082791673,
      0.04668241504147948,
      -0.02531400543584245,
      -0.04548122923580768,
      -0.035353489342196114,
      -0.020628008268682368,
      -0.07423670531623301,
      0.41709882751864885,
      0.12401570587347117,
      0.046596753859894126,
      -0.007972416395757746,
      -0.03647080844829701,
      -0.040784523399836396,
      0.05573026147799928,
      0.08540462985213208,
      -0.008274072511347864,
      -0.014396641485728537,
      0.0023277388112214383,
      0.003136600948109758,
      -0.025563090734405894,
      -0.0457308791936945,
      0.031777834970332264,
      0.007382624766364771,
      0.013429844523349423,
      -0.006227391892524679,
      -0.004799655492607425,
      7.356886486803159e-05,
      0.04638642083575089,
      -0.0735450392492446
    ],
    [
      0.026361703834414465,
      0.2648218017708375,
      0.2004412778190324,
      0.028191904880769912,
      0.0013861382902553663,
      0.012763353530702511,
      -0.02850195335096886,
      0.031131938063156867,
      0.08383653113710747,
      0.12118607027470081,
      0.18626352569614657,
      -1.240041776867886,
      -0.27041045945947895,
      -0.04962194295565626,
      -0.12794318711198605,
      0.028345696252001985,
      -0.05452055071801645,
      -0.07248971982788313,
      -0.10219483505738208,
      0.09220493380183212,
      -0.01969865806677699,
      0.13142797072963397,
      0.0030070372448629513,
      0.08521240899787935,
      -0.021057191287041272,
      0.1321450586275106,
      0.10310598775396519,
      -0.04429371276104456,
      0.04380726702359805,
      0.05431478826735889,
      0.09283988905427766,
      -0.03595982899468555,
      0.23911748237099245
    ],
    [
      -0.001085390081692407,
      -0.18636479626957772,
      -0.11524958623793516,
      0.02020471847057827,
      -0.015807568944887915,
      -0.04923953451610702,
      -0.07092352357051546,
      -0.037023096322672755,
      -0.08892593847188832,
      -0.025302216207965255,
      -0.13721670821803433,
      0.837481026636548,
      0.2448490988351237,
      0.05256315343410829,
      -0.015550826157156384,
      -0.012558135401191172,
      0.0003882385651491749,
      0.07564846385420351,
      0.05651925119460629,
      -0.03053434347824515,
      0.016781104806001642,
      -0.022031204437996728,
      -0.022278637089258303,
      -0.01947434628079871,
      -0.00529230821783517,
      0.02871389090938328,
      -0.06706126136769111,
      0.0382682473338996,
      -0.002138112957392047,
      -0.058231113595811505,
      -0.0597773379769122,
      -0.03606617340949044,
      -0.15106198316075725
    ],
    [
      -0.07146767574884955,
      -0.12957060923331398,
      -0.11922258940380574,
      -0.022318530212973725,
      -0.04009957404180922,
      -0.0164615677812221,
      -0.0065253843753814945,
      -0.05604425422543051,
      -0.03229847775105612,
      -0.05957487321590517,
      -0.10828345027875669,
      0.7625753646463935,
      0.20765154881931092,
      0.009551815394150813,
      0.003905819861393963,
      0.0040033647187004695,
      -0.06004661880837803,
      0.042595638984875187,
      0.06809862537781608,
      -0.08295256091658187,
      -0.022499930954904067,
      -0.038748240666026196,
      0.009439124053063075,
      -0.025075480091149897,
      0.036853288522375814,
      -0.003954907802256975,
      -0.03683769445868175,
      0.039756175983316724,
      -0.052937057843893326,
      -0.004662926107047442,
      -0.02935052775155989,
      -0.016139344800662026,
      -0.08082826650369745
    ],
    [
      0.02866029214079393,
      0.18961897508308984,
      0.11874576246882557,
      0.06382919804950024,
      0.0056771929530006066,
      0.022191297344024103,
      0.026409868570099675,
      0.008148266263197292,
      0.11878163338559858,
      0.05860081251231927,
      0.19962677266879944,
      -1.0321128795953571,
      -0.211824681007124,
      -0.043662733374084654,
      -0.03654404081252819,
      0.11192789212186198,
      0.012922681765696657,
      -0.0082451377869309,
      -0.0384083660706595,
      0.044123700873557686,
      0.025843183284126492,
      0.09247520713474403,
      0.05819558750049469,
      0.053532343857620845,
      -0.03823864191640292,
      0.04152491244161827,
      0.09464934352077291,
      0.004540111552211679,
      -0.035899938076692124,
      0.010149155214014074,
      0.00938197187960949,
      -0.03100592060241013,
      0.21200299395420072
    ],
    [
      0.0047492018369903214,
      -0.031239081602326184,
      -0.0019301348418905959,
      0.0325545753496604,
      -0.010717378266047886,
      0.007301192347246005,
      -0.011134873862590648,
      0.015068059852821218,
      -0.015912918423268484,
      -0.0038260762605903343,
      -0.07338293305247244,
      0.38517325791491636,
      0.09581408396947849,
      0.051829711906432305,
      -0.030282481426220042,
      -0.05007672053124679,
      -0.05445257356290362,
      0.05473571279559819,
      0.06197088076698896,
      -0.0023655256810181245,
      -0.024763887439791833,
      0.014808555915707724,
      0.018790528751811274,
      0.003841891309125034,
      -0.03212848818334402,
      -0.009740602306956817,
      -0.03057395768703983,
      -0.018152291312521662,
      -0.009883627930080926,
      0.0029445780983539493,
      0.04031635888950236,
      -0.044538216667052315,
      -0.04060263628238688
    ],
    [
      -0.06420754597811668,
      -0.09580447356158599,
      0.010254108455660925,
      -0.015933746996871622,
      0.018791778492828797,
      -0.029161465692498983,
      -0.06743866217033277,
      -0.01860425369245437,
      -0.018702608050648845,
      0.025337204978167167,
      0.0021277281284185073,
      0.5979953057286576,
      0.15960353354798656,
      -0.026632204536309288,
      0.0006458610565544447,
      -0.050049900366328844,
      -0.07824348011285659,
      -0.0168700937032335,
      -0.12196540230627179,
      0.030520418916197622,
      -0.06016109598470867,
      -0.0008704503408409315,
      -0.07168448603611362,
      0.07399838290384936,
      -0.05153765579407855,
      -0.04054028428913051,
      -0.0005068460081422019,
      -0.025772961638289196,
      0.018558986996691097,
      -0.061501985276167494,
      -0.03186032640930452,
      0.027402308394940057,
      -0.08155010291054202
    ],
    [
      0.1150974720846095,
      0.30627706887236844,
      0.08603601649098501,
      0.06487135979296474,
      0.07309920394664449,
      0.08022350830059641,
      0.11903897807381168,
      -0.06530043845481498,
      0.18305046045207515,
      0.11490895080737654,
      0.1874684180793923,
      -1.5912797712403364,
      -0.24830838372486913,
      0.13765655799017568,
      0.028475239034517343,
      0.06900535382312661,
      0.13896505914804924,
      -0.01537430445786492,
      0.13557144227443663,
      0.1399549514637769,
      0.05453052960387345,
      0.03018671748135142,
      0.15512454246683388,
      0.03422707686271624,
      -0.013108162483119646,
      -0.04610608631080165,
      0.08319356133106082,
      -0.013673440401336135,
      0.028944120687234835,
      0.08177275943042664,
      0.04968292206226028,
      -0.011426251546969024,
      0.3016450591571966
    ],
    [
      0.03419821360111789,
      -0.0008015043180717712,
      -0.013067247937474925,
      -0.027048467887152244,
      -0.05393926518615652,
      0.046867441972224304,
      0.009492470172304838,
      0.028896000649381012,
      -0.030628935823757673,
      -0.00017961018908913746,
      0.022025871139730743,
      0.3001601455390662,
      0.08494441866300424,
      -0.009743257863738223,
      -0.00013862918657571,
      0.02796890738664578,
      -0.019387996836360562,
      0.03311365388273696,
      0.012423390694039022,
      0.04040366784100161,
      0.020103963697135113,
      -0.041080888050220025,
      -0.06259301629897478,
      -0.012894878182123346,
      -0.012488273817555632,
      0.005334100503631933,
      0.01946367890871287,
      0.03874350770048073,
      -0.04774131027992734,
      0.028194406140589802,
      0.03577562983990959,
      0.03672051578226365,
      -0.017318430033765254
    ],
    [
      -0.11552904266878311,
      -0.3109586629720993,
      -0.20026120590619667,
      -0.046643867680784344,
      0.016492046664984508,
      -0.09031431030392399,
      -0.06590253991304584,
      0.044540274983657556,
      -0.12252428894517421,
      -0.14468214681590225,
      -0.2658238908745988,
      1.6489276890799807,
      0.21378417062884217,
      -0.08412596898842241,
      -0.03733482443535789,
      -0.10595610324021763,
      -0.1263888352447558,
      -0.039501593280313864,
      -0.06344415225655772,
      -0.10755464405486237,
      -0.06413599489121839,
      -0.1904779367251528,
      -0.10066457603209181,
      -0.013971845331046805,
      0.01619209493253394,
      -0.08826252075302042,
      -0.008091889748782609,
      0.038509399319684515,
      -0.01348985536240295,
      -0.059131131002780696,
      -0.07930531166547913,
      -0.03108485772260007,
      -0.33993682784500456
    ],
    [
      -0.10853913869425498,
      -0.19733944239523227,
      -0.15617061007737051,
      -0.051586373583667924,
      -0.048218753250151056,
      -0.04237804197228402,
      -0.06563427185061414,
      -0.030120721517796104,
      -0.049083159551239985,
      -0.08553745738120425,
      -0.2220754137574775,
      1.2224077291837798,
      0.26641415323728085,
      -0.07395313040937138,
      0.020627489013583442,
      -0.08304147859898682,
      -0.019193272940844365,
      -0.022614364986230602,
      -0.09295832403539928,
      5.78451812413127e-06,
      -0.013323193774805632,
      -0.11984818217516591,
      -0.06730586016963999,
      -0.02756716743081648,
      0.037081012769868936,
      -0.06141200034269242,
      0.0033422725604774148,
      0.026724896276831746,
      0.020779170486769756,
      0.0039087306063448485,
      -0.08299892451992888,
      -0.046212947861222056,
      -0.2395925930838218
    ],
    [
      0.060292872842103905,
      0.21260743752316633,
      0.08916572926486387,
      0.054190228602104894,
      0.06110202369110481,
      0.07448627706533349,
      0.0839477323278966,
      0.015616951361672937,
      0.0712286334239126,
      0.09769496384929297,
      0.19377851606293214,
      -1.3217589524643514,
      -0.1802955710185139,
      0.03409008668316642,
      0.010133566138501873,
      0.10013343713863242,
      0.09311741485262126,
      0.012175992562124883,
      0.05037961696626386,
      0.12125431707325268,
      0.05189070666606304,
      0.08848081128511893,
      0.14218726962724126,
      0.024983475902213136,
      -0.050143918066828115,
      -0.05582318868380612,
      0.06272054686864091,
      0.040275452697899145,
      0.052677536466884604,
      0.08781333560215798,
      0.028679847711323227,
      0.028637323910992052,
      0.25148428488909935
    ],
    [
      0.014629166318119382,
      0.048673095420512485,
      -0.043991898554427984,
      -0.035783204703422576,
      0.02569759837264167,
      0.04366233925049598,
      0.017940270094383266,
      -0.0204019777786933,
      0.009214363909116296,
      0.025882677122584342,
      -0.03929670301976144,
      -0.03284978877730395,
      -0.029033436158555064,
      -0.04384286653248078,
      -0.007716466746943405,
      -0.03334065079540899,
      -0.030479620238475873,
      -0.03328363391058257,
      0.014640896093990885,
      -0.05027656763974583,
      0.024477031017291814,
      -0.03157551779912524,
      -0.041378996675258954,
      0.03984768496986139,
      -0.02875842076711345,
      0.04787308988023073,
      0.03573667562756475,
      0.038870755396104066,
      -0.036074675992427564,
      -0.00991681313183575,
      -0.0441525487573006,
      0.042877862889378615,
      0.019186687412721577
    ],
    [
      0.012263992934844058,
      -0.0034527222333211745,
      -0.016372625358596037,
      0.033110700853509596,
      -0.0014922400750963906,
      0.012992030081345479,
      -0.034797444680869524,
      -0.027348273027721887,
      -0.043883020769419044,
      0.021524480131721365,
      0.006727001568411506,
      -0.11544336294309311,
      0.010889936698465972,
      -0.02725925731941495,
      -0.004445756561285108,
      -0.033274874910477543,
      -0.015089968940236677,
      0.030352840159290507,
      -0.014517105551612293,
      -0.03713174286869852,
      -0.0042575658843191505,
      -0.009609633414988472,
      0.038110784197213095,
      -0.04650437604416717,
      0.05021369936936518,
      -0.041714310721546376,
      0.042354612410712,
      0.016828001234850565,
      -0.028527096007254574,
      0.0010268391945222638,
      -0.0316276841399948,
      -0.024220685843489433,
      -0.02107833897422378
    ],
    [
      -0.042615319365091796,
      -0.03633442062078424,
      -0.011519004575294482,
      0.02777465991859996,
      -0.06966255185663524,
      -0.03852637940834714,
      0.008252320884231891,
      -0.04614214500267692,
      -0.022374936200945692,
      -0.055660377336869925,
      -0.025787122262462367,
      0.5148136509456679,
      0.17596415352086753,
      -0.005530365088708626,
      -0.04868015701885063,
      -0.0792435068968097,
      -0.002457727929690587,
      0.03456518620986852,
      -0.025083905935502915,
      -0.007399455952009779,
      -0.0035490430477879043,
      -0.06793844831491586,
      -0.03819982228961441,
      -0.01454190625183972,
      -0.04316575419201471,
      0.03837177182722941,
      -0.006143980716506716,
      -0.030328848510494857,
      -0.04715568449115157,
      -0.07077154129022158,
      -0.019665231485529823,
      -0.0004519665529730488,
      -0.12526674444088076
    ],
    [
      -0.06557503104516817,
      -0.15764276912267927,
      -0.07778482497777814,
      -0.0016012194764577028,
      -0.013275312954456067,
      -0.06677913242616852,
      -0.0676762668749705,
      0.025103691361083005,
      -0.08058276237144342,
      -0.03766205888706766,
      -0.18441035702953107,
      0.9547749807280232,
      0.17963889593793816,
      0.05981096674190237,
      0.05043320629916967,
      -0.058946568278554455,
      -0.06428437986960138,
      0.07668758356179871,
      -0.02605583546440211,
      -0.012433837142525047,
      -0.07536648131347713,
      -0.09865324397182473,
      -0.016089887284851136,
      -0.029095765219010177,
      -0.03230139027217884,
      -0.02995705758741228,
      -0.04613146919875465,
      -0.04953605133581395,
      -0.006184348650043126,
      -0.029739926163117363,
      -0.049136902224396185,
      -0.037922804536880385,
      -0.12736774653088387
    ],
    [
      0.03008183066943855,
      0.033756701980207325,
      -0.01921275263539985,
      0.019286969682895,
      -0.012491120037780449,
      0.023887111300592876,
      -0.0444345973080295,
      0.03664065433024691,
      0.044074632930941805,
      -0.0016796626905317912,
      -0.0008096153517684376,
      0.12256047791635875,
      0.04393960072003745,
      -0.036765024748395575,
      0.050459388494409514,
      -0.029109590175432038,
      -0.03349821136574607,
      -0.02936086796675351,
      -0.01835063439646715,
      0.03822230312924821,
      -0.04641273103512766,
      -0.050230197099679456,
      0.015237172112431235,
      -0.01918732682077038,
      -0.0492055725078438,
      0.0034206416229420424,
      0.005336191223005975,
      0.0022911267268414526,
      0.01938462997322763,
      -0.03846319644466997,
      0.04948335525375103,
      0.021709814055987722,
      -0.05011549463150477
    ],
    [
      0.0028281680636158555,
      0.1401160492011617,
      0.08108022463492434,
      0.01599660032883262,
      0.012135364549942747,
      0.0291578470315824,
      0.01497476447071025,
      0.01648966492163183,
      0.10989730839130057,
      0.024717374890753336,
      0.1272890027122511,
      -0.8442782442920189,
      -0.23012814972640852,
      0.005875441924150371,
      0.04416068927030268,
      0.03569314107085637,
      0.023824457482968183,
      -0.005084777515127392,
      0.04179882889378804,
      0.036694483991044954,
      0.07191327052017839,
      0.09353235815777393,
      0.026590613817432853,
      -0.015342036354791994,
      -0.005418525865142788,
      -0.007934378514541,
      0.08672719847333994,
      0.030437844981124163,
      0.04900732877637833,
      0.06298915929374518,
      0.06870044529091299,
      -0.04464468261235971,
      0.15177833066129934
    ],
    [
      0.10454976542628229,
      0.1745060962660081,
      0.06477701742302222,
      0.015233369133923069,
      0.05043894879963209,
      0.021790289577258728,
      0.042799372223713404,
      -0.043266344260946735,
      0.06291125579539143,
      0.05509113551749201,
      0.05957766214128425,
      -0.9032844532692851,
      -0.1507740706284801,
      0.018512538922176455,
      0.04637773157228,
      0.05638137706688045,
      0.07087136116642856,
      0.003988344505344346,
      0.10838750015669661,
      -0.021184377968027267,
      0.05130714676700165,
      0.04512202500409576,
      0.07161028942257787,
      -0.03396315056206565,
      0.009921151822377045,
      0.0470732756131282,
      0.04568282443017437,
      -0.0249418861257288,
      0.009475377133013944,
      0.03064944725562453,
      0.06280585170871919,
      -0.021247715418753158,
      0.1213522813027405
    ],
    [
      0.02703131201654675,
      0.012584955462824345,
      0.03092599544045504,
      0.06318987402863349,
      0.021721812220755102,
      -0.013890993129350418,
      0.01644674722237706,
      0.007273671185156992,
      -0.01180505753367157,
      -0.01901279508402246,
      0.008248480575860138,
      -0.4235130654226226,
      -0.11980130621807411,
      -0.03267676394601562,
      -0.014887147739187007,
      -0.02312529647260124,
      0.03678794861843343,
      0.018584196610190607,
      0.021676536648359338,
      0.004788986187715187,
      0.03360565164562079,
      0.004325035821486006,
      0.0415419480884769,
      -0.022579177302511976,
      0.01461394588854546,
      0.012184787918963443,
      0.015490816245590367,
      -0.018949545896826438,
      -0.0227118995632193,
      -0.011506258089037246,
      0.005133356147240401,
      -0.011682833008761863,
      0.06738501951657362
    ],
    [
      -0.05303648120585585,
      0.25062529676076434,
      0.250387494754079,
      0.004365220329962091,
      0.005841226110495789,
      -0.029626552649137203,
      -0.04682280133200328,
      0.050869299739211296,
      0.08500615634916651,
      0.13087855653227184,
      0.2115772084588843,
      -1.3393011439687088,
      -0.2178394719813693,
      -0.07616510659845331,
      -0.17475357081289014,
      0.0770976869550467,
      -0.13865976034447758,
      -0.05886323367853816,
      -0.20235994317311962,
      0.11773723040872246,
      -0.00017581431529075547,
      0.190109490498114,
      -0.07561213664160392,
      0.09327674601603543,
      -0.017385424956322913,
      0.12827994201377305,
      0.08711076054802713,
      0.03499925753231903,
      0.043839154663545876,
      0.003310407152348086,
      0.1152962498490645,
      0.024327894242135717,
      0.2530698760644786
    ],
    [
      0.034572471256264836,
      0.17212728368567573,
      0.12194131733933773,
      0.06574160897499214,
      0.007572235085282523,
      0.056538283447100254,
      -0.003111477801880504,
      0.03051142974544112,
      0.08207654691749144,
      0.06205757977243274,
      0.17399154358491292,
      -0.8614233818635962,
      -0.20455068552594352,
      0.0058183005866080245,
      0.026771355731256104,
      0.05840181341299147,
      0.01238930343061824,
      -0.03909318002113983,
      -0.0012590896375407968,
      0.05566987869123263,
      0.010700706699358749,
      0.06792888213731682,
      0.043946630253889875,
      -0.01543636569915369,
      -0.00790703418847581,
      0.047701512789820454,
      0.07424827650692914,
      -4.501910457457292e-05,
      0.0018413325562630766,
      0.0019120117382123974,
      0.010798283888521705,
      -0.035500938120748206,
      0.1497962237363608
    ],
    [
      0.05866477451264967,
      0.10387381003448465,
      0.12963500844077017,
      0.019294356716078397,
      0.06089436930415605,
      0.06759791007218721,
      0.0738798816437055,
      -0.026561173744768726,
      0.06101134499372635,
      0.1009385906669895,
      0.07331537417297511,
      -0.8629767953681325,
      -0.17276645927459752,
      -0.005961069560053304,
      0.042312035963571665,
      0.07496715933463267,
      0.03813785725462425,
      0.01974392820611698,
      0.010910881314123483,
      0.032732212163346715,
      0.06766232168187075,
      0.05388741213966991,
      0.03432326712874784,
      0.00860389516754282,
      -0.008705581626498675,
      0.0547971811793317,
      0.05576049276068986,
      0.002524825356358096,
      -0.03307786705889682,
      0.02350928383875444,
      0.036778404758046924,
      0.00613386774689878,
      0.1315128261658449
    ],
    [
      0.021936179718149568,
      -0.2001946421943659,
      -0.19070810313981457,
      -0.022345713327782946,
      -0.0020337887585642977,
      0.05733650720124934,
      -0.016830528533496397,
      0.005058083794745699,
      -0.07270047327147679,
      -0.12751982685603125,
      -0.24090800156059702,
      1.178883990927372,
      0.24197589461323102,
      0.025751792411664056,
      0.08066811371583586,
      -0.04250185142629055,
      0.12597422489855756,
      0.08453247559502192,
      0.1391574911920872,
      -0.0859545991433316,
      -0.00695549455350847,
      -0.15718861280619495,
      -0.02481408871996789,
      -0.09330944751042591,
      0.0014538129502232,
      -0.10518943488163077,
      -0.10202355003563614,
      0.01300981906425326,
      -0.0002529310983979016,
      -0.00918111725529005,
      -0.038638809430611806,
      0.013651238175380798,
      -0.22523137693224113
    ],
    [
      0.010785369598470748,
      0.2058933640577477,
      0.09539905644636316,
      0.04303515865956782,
      -0.006543519688430227,
      0.001133868954107358,
      0.07497667015512523,
      0.010731936387531818,
      0.10353680260989695,
      0.04593737398457155,
      0.15889900166051257,
      -1.0105841017481263,
      -0.24058600749519196,
      -0.017749050970379262,
      -0.027564926150019525,
      0.10898759868837345,
      0.01793079387187664,
      -0.04932384408120834,
      -0.04335848157597826,
      0.05551302991274432,
      0.05104822970943925,
      0.022859822066254552,
      -0.004675000369186053,
      0.021819273765277897,
      0.009614362373611176,
      0.031512729304920516,
      0.061879386337200755,
      0.030660007000191482,
      -0.03467128429359869,
      -0.027961059352079914,
      0.07115009718833308,
      -0.017717805397564814,
      0.19570034316371512
    ],
    [
      -0.01458616478482724,
      -0.03314452281207123,
      -0.023395116025959447,
      -0.040034492351822354,
      0.040376233346157704,
      0.008277917692799988,
      -0.015117587772601877,
      -0.005046199154928152,
      -0.011466131589185337,
      -0.044530439454514195,
      0.03897142554982784,
      0.05674377382470568,
      0.061967630399572794,
      -0.0008938108410764288,
      0.013335703950667634,
      -0.025572396011541338,
      -0.0471009462096121,
      0.043677913138340727,
      0.03732504492554287,
      -0.015120961241310332,
      0.041242179876156276,
      0.02674880150206178,
      -0.01948197814474971,
      0.016275297463470596,
      0.04496086322598064,
      -0.003990979713554005,
      0.04333320951349692,
      -0.025707214566110293,
      -0.01118559171193869,
      0.02198143249519958,
      -0.02021117569227801,
      -0.019084211886973734,
      0.03887272104041568
    ],
    [
      -0.060724607071286005,
      -0.14204777237515648,
      -0.13306381596857483,
      -0.06537673893614651,
      -0.06587222825156487,
      -0.0819776158748178,
      -0.011430407196638391,
      -0.017150707882552615,
      -0.08496455118220575,
      -0.10765420368955933,
      -0.1404688333546053,
      1.0485679614459056,
      0.21722312514762745,
      -0.04764982636839915,
      -0.05084415430763257,
      -0.02360379412924527,
      -0.06638783236177155,
      -0.0018907967306949576,
      -0.07581331318711325,
      -0.06881319636113126,
      -0.07629167494011681,
      -0.12065080634333927,
      -0.05758218640106604,
      -0.00956970815621112,
      -0.03409016248235852,
      0.014657685489002106,
      -0.08445653392989774,
      -0.023033233326028125,
      0.02390916863290111,
      -0.08190231063989707,
      -0.04111356078433532,
      0.03363151982049546,
      -0.15992736672635727
    ],
    [
      -0.032113257955484156,
      -0.008805706429616962,
      0.030251427990240585,
      -0.013281907265937701,
      0.046960561953586985,
      -0.03141862147982879,
      0.047152520051511715,
      0.0012359537436091442,
      -0.023370221186130042,
      -0.0010668407523780768,
      -0.030786832964069297,
      -0.1489444329588447,
      -0.07958086417685577,
      0.024542488639097863,
      0.006042458641126529,
      -0.010263108820465355,
      -0.02085888671227484,
      -0.006205455345052289,
      -0.04589150058804251,
      0.032217457432462036,
      -0.0427942045590832,
      0.017299908316883484,
      0.003446974260213956,
      -0.03446546989858915,
      0.030087395604530713,
      -0.0069204131772886285,
      0.020345591284880324,
      0.0067680978365762595,
      -0.01764216260345762,
      -0.006168569925504448,
      -0.056689453386129414,
      -0.03229528011669378,
      0.055109566051886126
    ],
    [
      -0.01764655718882646,
      0.017045541907987512,
      -0.03836009552546998,
      0.00628735442763545,
      -0.013469847951844643,
      3.0173692003111393e-05,
      -0.01992390260805398,
      -0.04304858966664632,
      -0.018382556442622922,
      -0.026916921724693007,
      -0.03667379620501437,
      -0.027747485802863733,
      -0.0384788419738576,
      -0.009637488767437315,
      0.046313407223454464,
      0.028217388916818954,
      0.045043028683034204,
      0.030412208347224065,
      -0.03751543246445233,
      -0.025687914639633238,
      -0.04883892310246634,
      0.023869472662304565,
      0.014877973592813891,
      -0.020097636371304496,
      -0.006381627481815356,
      0.013629651828482747,
      0.021659959109483953,
      -0.025157900154635683,
      0.03507220809372987,
      -0.009514842486961238,
      0.008755788908050339,
      -0.031834310076030735,
      -0.02182377824357238
    ],
    [
      0.043117186040365865,
      0.023811942451469077,
      0.02358039881637913,
      -0.04640774214788795,
      -0.04624874852427599,
      -0.034790632051801655,
      -0.03057590656321781,
      -0.019767588328831086,
      -0.011902229301335356,
      -0.0459443194084172,
      -0.019076803638838707,
      0.14687304284590574,
      0.014245879905377852,
      0.04159595625750429,
      0.00017874717783821696,
      0.019964732481292692,
      -0.037612807398751426,
      0.0034976419528187355,
      0.026232379856070662,
      -0.007478051528829601,
      -0.04541194249966587,
      0.021725142797433396,
      0.031347950576094685,
      -0.008055079388788959,
      -0.0494948571459873,
      0.03602920014697871,
      0.004430725578848833,
      -0.04526532070776194,
      -0.026364065723406393,
      -0.045192530326484605,
      0.0459385242831535,
      -0.028986083882212212,
      0.01925632792233879
    ],
    [
      -0.0027890399730886415,
      -0.2333974986767859,
      -0.08644575064188395,
      -0.03846346309605605,
      -0.007727929585047097,
      0.004520419257139949,
      -0.056151844790471,
      -0.03890613573229541,
      -0.040457810541228635,
      -0.08451875153377642,
      -0.1264807517508521,
      1.0289013077709517,
      0.23479817316413482,
      0.06996956480335748,
      0.06294562475383646,
      -0.07301397639116637,
      -0.028438611421282376,
      0.055061062664760206,
      0.053952778803730755,
      -0.0630983860122334,
      -0.03160780182900862,
      -0.09053943726405142,
      -0.033554182435285206,
      -0.07453758243287417,
      0.01498913248666946,
      0.033725447555700144,
      -0.09555850956422936,
      0.00464034837759747,
      0.037740221892369225,
      -0.006594147628207916,
      -0.06697714123762379,
      -0.025030993697340267,
      -0.20355053026404116
    ],
    [
      -0.014190971089054802,
      -0.011543055454103742,
      -0.03511413570416757,
      -0.017709359711340546,
      -0.03679007732074231,
      0.022991516264188983,
      0.016206361693258262,
      -0.026196245666161383,
      -0.027351705606757253,
      0.000522610601484535,
      -0.008327650026643183,
      0.21580129498435874,
      0.04243235937949145,
      -0.003062702450265696,
      0.04446731490788099,
      -0.03761376107194693,
      0.004233347198172117,
      -0.006996875954891526,
      0.043327415373979966,
      0.0114187943034596,
      0.03007035078831863,
      -0.046397153832576206,
      0.014029144608921976,
      0.024391594924311654,
      -0.00572834097946711,
      0.016245078911523887,
      0.02970497661744905,
      -0.038552174948058605,
      -0.022068061144123633,
      -0.011926704355946779,
      -0.007075358704796551,
      -0.04396681569828689,
      -0.021947197443694715
    ],
    [
      -0.03027309184418023,
      0.020326401776145274,
      -0.0053760426092006805,
      -0.03863970851762282,
      -0.017410468966155914,
      -0.0032543855678347764,
      -0.013518954186936955,
      -0.03315169827259491,
      -0.04266771427402024,
      -0.04880048146431059,
      0.04945572161226017,
      0.12593130016758883,
      -0.006955353924365468,
      0.029091491587048973,
      0.0458077389186996,
      0.005528589987803243,
      -0.0459683793414026,
      0.005374781290093676,
      -0.001147063643518595,
      -0.023530974380041328,
      0.006671267229649849,
      -0.05885801785523333,
      0.04168183829068096,
      0.02641616403679018,
      0.01053889253843186,
      0.040049170569727614,
      0.012402218903579034,
      -0.024858794619833736,
      -0.02600988948841606,
      -0.038484253438212386,
      -0.033879420611881754,
      0.027443854805285585,
      0.023717910398898045
    ],
    [
      -0.009838656405985559,
      0.04457538039305545,
      0.07030269570867581,
      0.039866836459753724,
      0.06563764567223598,
      -0.030325226120458352,
      0.05514554043176492,
      0.03755676727914574,
      0.0641181020324627,
      0.01587620534565438,
      0.03981185790288943,
      -0.5306153341019167,
      -0.16517521330247265,
      -0.03918293727827823,
      -0.0019872683377018057,
      0.01630436346295783,
      0.05211530779304981,
      -0.06081261565783964,
      -0.09838380633781248,
      0.04059675346983327,
      0.02324627438871939,
      0.06364036880022708,
      0.022160383463200883,
      0.05533682402944755,
      0.05705166319116565,
      -0.018484083890472472,
      0.03655009663669901,
      -0.03425175324407705,
      -0.015288378810215067,
      0.03170555938737063,
      -0.028950820247519715,
      0.018798399886115837,
      0.06855971118364647
    ],
    [
      -0.005586026022441183,
      0.04687537704656318,
      -0.04097183156794279,
      -0.045973227241414026,
      -0.005978470408110174,
      -0.030967267996412178,
      0.02239129943495074,
      -0.04970463410800912,
      0.03404632280481832,
      0.03551718338103798,
      0.02857600002756822,
      -0.03873784061066188,
      -0.032651486207672956,
      0.01200392635357577,
      -0.0035989254593389287,
      -0.0076723751864620215,
      -0.018599914255892566,
      -0.007978632015455074,
      0.014392025635323458,
      0.03173142008111603,
      0.03917432046743273,
      -0.03155803311171796,
      -0.01974474485492762,
      -0.008163324845782168,
      0.005557108862474405,
      -0.011183154420530457,
      -0.029746002301700297,
      -0.04149581675028679,
      -0.01742745295942597,
      -0.006402594146976225,
      0.04201762679784047,
      0.04087065728435168,
      0.03166832158890028
    ],
    [
      0.09796367875671307,
      0.227524907062437,
      0.11673887969466357,
      0.0628178745156478,
      -0.004740909686564851,
      0.06216966646562666,
      0.054602580449425855,
      -0.021497529071828916,
      0.09301367077072087,
      0.11249332930935374,
      0.14849774877684818,
      -1.0266770159169338,
      -0.23860283204082813,
      -0.02448602195622403,
      0.03830539076754721,
      0.014313598619052289,
      0.007159489886640542,
      -0.005500208892159397,
      0.04917418696097547,
      0.023569857077240134,
      0.0500294176678751,
      0.06951369954476935,
      0.0558555302553166,
      0.011383766497809766,
      0.0021770935116703738,
      0.023409269645768532,
      0.044746886446371065,
      -0.03857464102860944,
      -0.022554627145717945,
      0.0722028640980138,
      0.04133508139751698,
      -0.03877282051648259,
      0.21323521537259063
    ],
    [
      -0.008326082353035346,
      0.041482442276787025,
      0.03880654325183394,
      -0.0002582249521914213,
      0.03361007897115821,
      0.022892910437287608,
      0.007574815183490507,
      0.009726674518878143,
      0.00020734756168221656,
      0.035612884312579404,
      0.08239298023562547,
      -0.5953285941133524,
      -0.15161007448270927,
      -0.07079247758682573,
      -0.00171877804260169,
      0.06615114684050734,
      0.033947728315332874,
      -0.007823532668942451,
      0.026717883301308528,
      -0.02785613401329101,
      0.0811575710243933,
      0.06137156688403437,
      -0.011550686494997504,
      0.022955945590011535,
      0.0010451315857052301,
      -0.037057949030145185,
      0.07858789820399126,
      0.006303340550592918,
      0.0318656765235862,
      -0.017126292802136824,
      0.04707942465030271,
      -0.04424454614195489,
      0.049893689835600344
    ],
    [
      0.03232672450248824,
      -0.41759002805363565,
      -0.17737734608634229,
      -0.10791424230898969,
      0.017279100950823023,
      0.027043160636381177,
      0.07573216619121356,
      0.04585841857923129,
      -0.12366344704526135,
      -0.10315547064642319,
      -0.33386834506760826,
      1.7404303066710178,
      0.3249350581847629,
      -0.01764719917233735,
      0.22842374162449242,
      -0.1297708235950391,
      0.21835458681478798,
      0.06528855315335484,
      0.23920967060584516,
      -0.26318013978851607,
      -0.0031284209300645655,
      -0.1294999649874151,
      -0.005564840265196491,
      -0.11518264779007198,
      -0.03905236199791933,
      -0.07979120807101088,
      -0.10980183437937728,
      0.004883300756932863,
      0.014495355552880593,
      -0.0509353127166739,
      -0.08000940207416962,
      0.0175217838901652,
      -0.3381210611446272
    ],
    [
      -0.03341589818580309,
      -0.020423032467313106,
      0.01535365004572728,
      0.00906606991292871,
      -0.040425453494073234,
      -0.044610104579076444,
      -0.041549774773405254,
      0.030022406510626976,
      -0.03901478056051512,
      -0.0011278934323363102,
      -0.03496523534476403,
      0.28348352668860327,
      0.06925828660032442,
      -0.015684413122477658,
      0.02929497313404688,
      -0.0025652566461450196,
      -0.0010025451995056168,
      0.0468736368395587,
      0.04707177804274022,
      -0.04496143843172352,
      -0.00952496631518727,
      -0.05990321797207802,
      0.001268626304188778,
      0.052810245985359536,
      0.023068906316960413,
      -0.0520486629602352,
      -0.04036660677166155,
      0.03182980168214924,
      0.016205040748853816,
      -0.019526490196870472,
      0.018280131599375297,
      -0.03417164631715489,
      0.002012600668436027
    ],
    [
      -0.0892208362900784,
      -0.2245442765039502,
      -0.1524066498697025,
      -0.1117102803142724,
      -0.05329314520942489,
      -0.0886188580684714,
      0.006927191979526015,
      0.025187907602367252,
      -0.16080139919407077,
      -0.11849576202009474,
      -0.23896870356997504,
      1.3153040890247556,
      0.24825196256235246,
      -0.05342112086927486,
      -0.003501673065598827,
      -0.1306621526833385,
      -0.010512869881221975,
      0.0007565215897510143,
      -0.11408255450210235,
      -0.061853673337056075,
      0.0015927172056042396,
      -0.20246667186098102,
      -0.11668493632060221,
      0.03621566261006608,
      -0.007727301105460784,
      -0.11042141858002413,
      -0.05054414272674923,
      -0.02379323813555112,
      -0.0055115294577316315,
      -0.061180780091330524,
      -0.01935933943703036,
      0.04921825356677867,
      -0.28334547873940613
    ],
    [
      0.0005844452816168293,
      -0.009128681258643908,
      0.017223204462749945,
      0.016529987586354326,
      -0.002302097785241691,
      0.007883377580256751,
      -0.029326491710674907,
      -0.024665646020669455,
      0.013183362064435138,
      0.025673211727509852,
      0.012397768750187764,
      0.37409719515898576,
      0.08259128329792895,
      0.04084191696127004,
      0.010475631603332515,
      -0.012982651584645137,
      -0.016409195488582273,
      0.004271873320685247,
      -0.015879204847247565,
      -0.010903630058711278,
      -0.05036852234746258,
      -0.044585026137750096,
      -0.02777360985603179,
      0.06307994404980466,
      -0.010029259822087315,
      -0.013111522146934913,
      -0.042108308159019545,
      -0.02651853263628994,
      -0.017775953831352338,
      -0.04963619960031062,
      -0.04204931660056668,
      0.037097640835788884,
      -0.05465103507484392
    ],
    [
      -0.022813095407962686,
      -0.23545466942646603,
      -0.2070771538700994,
      -0.09252108193024383,
      -0.06367954520379661,
      -0.02569633545478834,
      -0.007622443764623406,
      0.024411999684696237,
      -0.09516547164084527,
      -0.04048382669479538,
      -0.23924552616050535,
      1.3018419552090819,
      0.2511060401140509,
      -0.06203915264903527,
      0.04942112801573637,
      -0.06409137024239141,
      0.10541812943780274,
      0.014381873146193281,
      0.019577568732827382,
      -0.09183934685011305,
      0.03814486445037741,
      -0.20220046470047412,
      -0.04087287111154418,
      0.01460617298693842,
      -0.012835044238263085,
      -0.1337434191383172,
      -0.08200729448040822,
      -0.03354348791655195,
      -0.03451075694291624,
      -0.011709052724546795,
      -0.09085368031236776,
      -0.010042642468274588,
      -0.2349187191714737
    ],
    [
      0.02217450499413233,
      0.08756315427733463,
      0.04059771565382973,
      -0.0171774804608899,
      0.04065647364210782,
      0.05712554474651586,
      0.02893796564053025,
      -0.037612896360448206,
      0.05629295417946253,
      0.05728810667805041,
      0.029707934238069642,
      -0.49467360236226177,
      -0.156605049133073,
      -0.016079083485747988,
      0.03011897932850533,
      0.03409048345191605,
      0.05769028388801528,
      -0.05098782462625444,
      -0.0234786564819082,
      0.03783575547028575,
      0.02784926253103839,
      0.015828491046789326,
      0.027427187927776615,
      -0.02308668534543475,
      -0.035677504937898986,
      -0.010057846770313229,
      -0.019799850465957503,
      0.012631123969548852,
      -0.013177839582997956,
      0.011808728095929526,
      0.002514783264188525,
      -0.024298262640655766,
      0.03995702030103066
    ],
    [
      -0.054708736681658855,
      -0.02514307620498876,
      -0.022646613851674033,
      0.030689326771909994,
      -0.06621993521631214,
      -0.0036023773115088724,
      -0.0014766952622558198,
      -0.018357237432617978,
      -0.07165456972725352,
      -0.06009079107572691,
      -0.09620628529342276,
      0.5774872192900391,
      0.10718306634606728,
      0.05437882083354278,
      -0.01936792141318251,
      -0.022201357404944246,
      -0.02543658565484415,
      0.03377900080664573,
      0.02173513403668159,
      -0.013078915889335383,
      -0.019798677716299968,
      -0.01744522628659391,
      -0.02304485594135191,
      0.01777704442975242,
      0.01274749455059397,
      0.033302710747433906,
      -0.05113905945687939,
      0.027260595224419995,
      0.043508545611682194,
      -0.02598804466998636,
      -0.022428079584448164,
      0.002332232542063417,
      -0.04257550465620081
    ],
    [
      0.01404887094188884,
      0.2238403533403263,
      0.1424658694451575,
      0.07696783797469071,
      0.06271354993389446,
      0.051881304217642484,
      0.08415964833790185,
      -0.037270346760061815,
      0.14946269400270912,
      0.06369035178302734,
      0.1836227428970182,
      -1.3971143413192548,
      -0.2717928502081292,
      0.057625543457338814,
      -0.02207030034277988,
      0.0540029646895513,
      0.06481578898371247,
      -0.016437020228867043,
      0.015250543095419082,
      0.12053178786170674,
      0.07461060074558863,
      0.11145720645367882,
      0.05074337632564048,
      0.03915010744979172,
      0.012845124258768702,
      -0.016152760458505826,
      0.10540686810983615,
      -0.00010625927661708224,
      0.026734490733414926,
      0.02165894863961625,
      0.11492823142867147,
      -0.003990104636481018,
      0.22896741221789516
    ],
    [
      -0.03997063090570158,
      -0.3226379821427833,
      -0.17820300899180835,
      -0.1055054728095707,
      -0.03419876356590972,
      -0.059971706324766054,
      0.0016849409360941527,
      -0.029333794780142086,
      -0.12476806303439077,
      -0.10584240211872477,
      -0.20954723227744002,
      1.4163646063954043,
      0.2482369437313715,
      -0.0678276590572817,
      0.026060785950505816,
      -0.1100438000143819,
      0.009731967743195352,
      -0.014075849659490585,
      -0.05491148736532508,
      -0.04502655839322682,
      -0.026690234976277396,
      -0.1916678650069204,
      -0.039792364821260556,
      -0.027079911101777585,
      0.016018409663556797,
      -0.13515710634823627,
      -0.012100738926608623,
      0.03692645487874865,
      -0.036140492390809895,
      -0.017260867570373536,
      -0.047055224680733795,
      -0.021743405544435292,
      -0.2602727651651661
    ],
    [
      -0.01240969202781501,
      0.17843558035395563,
      0.10080414613677792,
      -0.020284385898300113,
      0.025120184579973955,
      -0.028147478285861123,
      0.027248764840250732,
      0.03429442470705514,
      0.04415697647228429,
      0.10863091183129427,
      0.1263100866432153,
      -0.9434068585736675,
      -0.20141808483014284,
      -0.11857670762259857,
      -0.02936262084349129,
      0.10734605405888233,
      -0.054624652808952734,
      -0.11626093037297475,
      -0.24481094055928027,
      0.1518557780198886,
      -0.03303039852690557,
      0.06005016069925615,
      -0.04411378364065808,
      0.09194352948219346,
      -0.030503523627177162,
      -0.06779375695329354,
      0.10150032393425543,
      -0.04097686081066612,
      -0.0073946881331454824,
      0.05509264814238408,
      0.04737996837319181,
      0.03819513196920378,
      0.20947017194751957
    ],
    [
      -0.032481436405104445,
      0.01588518673212502,
      0.06543537575474996,
      0.022746864932103133,
      -0.026843349468797333,
      0.005628632571085747,
      -0.006398803573976295,
      -0.006462884415726568,
      -0.018336039365144764,
      -0.03341100344649243,
      0.08458678900106772,
      -0.3963900590781333,
      -0.06767821263773426,
      -0.04636423137719692,
      0.0058556611696296895,
      -0.019749074964419206,
      0.01577057599682062,
      -0.05568405313988244,
      0.02428481722109772,
      -0.04004548214890799,
      0.03231826042299575,
      0.03883885601847723,
      -0.02855348624047388,
      -0.03682713080132637,
      0.00843429454185551,
      0.04875839158625693,
      0.006209831293495065,
      -0.028486263116317436,
      0.04968134872190482,
      0.05281982568139533,
      0.021863257999644593,
      -0.022702714276624725,
      0.02625305523216938
    ],
    [
      -0.05476433999876098,
      -0.16059475357982547,
      -0.13174750152465897,
      -0.019668691723109435,
      -0.034698433752746824,
      -0.0033506983274118633,
      -0.03837465658159604,
      -0.04819038185312804,
      -0.03139111659886989,
      -0.02632948564225424,
      -0.09561273844033086,
      0.743331103274102,
      0.19735379361700073,
      0.06742174494133275,
      0.05205087717235307,
      -0.019373237582064176,
      -0.0199024220513556,
      0.018502154577467542,
      -0.00046422068809163776,
      0.0248336489639895,
      -0.022911097292132053,
      -0.09486650741702629,
      -0.01669643993996752,
      -0.03420489258887967,
      0.038831754785163534,
      -0.0802196237728828,
      -0.02992979379428412,
      0.04262835010039993,
      -0.03063352522730077,
      -0.011631015502429594,
      -0.03893898643294042,
      -0.02592380059841595,
      -0.14320838676513425
    ],
    [
      0.011109588769275732,
      0.23397640582319723,
      0.16337394279439352,
      0.08070705320870726,
      -0.0008939834457828902,
      0.045028506784775615,
      0.020776416724611082,
      0.014695194598362037,
      0.0983143329697153,
      0.05671900643957336,
      0.22361869810650417,
      -1.1692644560878231,
      -0.2012185368017553,
      0.02478593906300491,
      -0.05944097646829399,
      0.07458086539735563,
      0.024309551791250012,
      -0.06033158828344062,
      0.0030281059091027355,
      0.0769209905804198,
      0.022841577375799834,
      0.13333954476906654,
      0.03917907536871993,
      0.005204098998282675,
      0.00954857609443034,
      0.08329919011495933,
      0.03362619985791211,
      0.012890060094980183,
      0.014039536279698157,
      -0.005399233783476671,
      0.05517341351982533,
      -0.023506951136680068,
      0.20504785163189743
    ],
    [
      -0.0020567394126775403,
      0.022152055211478658,
      0.00032154101463796456,
      -0.00046616457496212503,
      -0.028249398300759693,
      -0.03452324940820993,
      0.041921840169101235,
      0.003652759290727246,
      0.0018224363891561185,
      0.002054481003555081,
      0.03077147040710887,
      0.10354690925816276,
      0.012458103500910658,
      0.037739484204821684,
      -0.01224538116089661,
      0.012483888974651256,
      0.018677799173926795,
      0.05191931148470765,
      0.04607615883098574,
      -0.038277597747330215,
      -0.004967967225386,
      0.018905699384852193,
      0.03749825203603626,
      -0.025223897185851288,
      -0.03827624964558435,
      -0.023951208448836858,
      -0.04497777923198234,
      -0.014335338277366516,
      0.02935244409570412,
      -0.0070756785421074685,
      0.009522292491613607,
      -0.04119997302069245,
      -0.04134672622361443
    ],
    [
      -0.03058552860552834,
      -0.17942402294865062,
      -0.1010914579918231,
      -0.06153068481236612,
      -0.012097955501169554,
      -0.03462613252597703,
      -0.08406303909794115,
      0.0229585979352865,
      -0.10639650303003945,
      -0.07159086469984083,
      -0.1874823311307311,
      1.1177671720127238,
      0.21299616887960873,
      -0.037900385284980666,
      -0.04008542901494654,
      -0.09689385622404677,
      -0.0233365419488409,
      -0.00975747282465691,
      -0.08624369793337057,
      -0.045750540776343135,
      -0.07201922883834468,
      -0.09947683769077106,
      -0.08631809054910072,
      0.014668818072291066,
      -0.044144853205788225,
      0.012996457823213682,
      -0.022470920084020154,
      -0.02983170589186217,
      -0.018116655314905684,
      -0.017760911100657577,
      -0.037117583990567915,
      -0.012838106661647598,
      -0.24798766056359778
    ],
    [
      -0.01558400569160581,
      -0.049239039212682696,
      -0.007854021980792754,
      -0.026992239756702653,
      -0.026231226777698236,
      0.01054389303987189,
      0.012947948746690521,
      -0.01859982398312787,
      -0.03212252081472639,
      -0.009022189784636179,
      0.00967101727487701,
      0.3265515919366919,
      0.15021153725465172,
      0.039295136253132405,
      -0.016554106474644652,
      0.0025289453570759256,
      -0.0397494686949155,
      -0.01952819908323488,
      0.03671876049632758,
      -0.015696821979530883,
      -0.006205579229739775,
      -0.023872291846423012,
      0.02911045437442976,
      0.037681323193128016,
      -0.055362355854438404,
      0.016466323324818427,
      -0.020996850719555253,
      -0.0037821846448294564,
      0.03105676172612231,
      -0.024539158106175664,
      0.00041910929685901483,
      0.03903521006188933,
      -0.06484322187770755
    ],
    [
      0.04246376170303732,
      0.26705499165879176,
      0.1656587980139998,
      0.09488900612022236,
      0.035209438482950856,
      0.06085931952157028,
      -0.03838897695281836,
      0.009604443442564229,
      0.10631951702309737,
      0.11091127126747628,
      0.2442790786920057,
      -1.2963283988240968,
      -0.2512724705632194,
      -0.04071005022059453,
      -0.042631074376931505,
      0.046700881523279246,
      -0.09106365385148656,
      0.005469467796625382,
      0.045684754528506705,
      0.05093166979918309,
      0.02907418678026595,
      0.18057455938589562,
      0.03255616622156636,
      -0.005316810245643453,
      0.009695891778359781,
      0.08046862737140142,
      0.07640419411595195,
      0.04980945915501542,
      0.04342373436898999,
      0.0705673869582745,
      0.04614058401904415,
      -0.016566409773938064,
      0.221961382509809
    ],
    [
      -0.03051197578397683,
      0.28670533082772603,
      0.05928867326723422,
      0.03790247285955419,
      0.03182270218113141,
      0.026525297988198155,
      0.08824031679858041,
      -0.0003088520521581183,
      0.11061255961944476,
      0.08583390844781241,
      0.16941522879560186,
      -1.3348710446238745,
      -0.21668632512460187,
      0.026659345620910848,
      -0.0009020679274119526,
      0.057582045609343185,
      -0.02386543331086115,
      -0.07858597095171826,
      -0.008295657752718563,
      0.1126566650604566,
      0.06403749143057161,
      0.0438449811194784,
      0.07887724402799244,
      0.058851947858469415,
      0.02995865660983055,
      -0.05863393420247882,
      0.11895246862433881,
      0.005612735944906799,
      -0.03260735696818405,
      0.01604075707748979,
      0.0697494760701884,
      -0.009107138252693237,
      0.2435604147394289
    ],
    [
      -0.019151689455021288,
      -0.027727411781476478,
      0.02586646339774653,
      -0.021576043452442132,
      0.018177311031331123,
      0.02844079578545663,
      0.006573751602377874,
      -0.005814085059068373,
      0.04077327010366784,
      -0.0073387926188332306,
      0.03370171333649209,
      0.1649718216024413,
      0.0635943923333396,
      0.019413290413985363,
      -0.047278036499111095,
      0.03251759376345963,
      -0.05606140708955765,
      0.028896394028831925,
      -0.030811855991859868,
      0.05355586754574884,
      0.009250501631011838,
      0.010526091999015084,
      -0.0004986644863213884,
      0.03713836392582217,
      0.01307569892823371,
      -0.02095811864417199,
      -0.037148610672761574,
      0.03383029487651223,
      -0.03713758999543227,
      0.03210379961725424,
      -0.011276541380892907,
      -0.039913768719387656,
      -0.07991141920768001
    ],
    [
      0.01297259700855787,
      -0.06967345341077158,
      -0.13167350516889387,
      0.014283380841405484,
      -0.04746642330066287,
      0.055641812686688406,
      -0.0009100539755347629,
      -0.04226700929565891,
      -0.10391226007496969,
      -0.030409466904713217,
      -0.15309957912212244,
      0.7394377834940149,
      0.1476516338554675,
      0.00775571337412152,
      0.03593611842764139,
      -0.05618664110095345,
      0.020988732517264196,
      0.011880212346906473,
      0.10312155328252066,
      -0.06034650947319411,
      0.04070465056093565,
      -0.11335913297498124,
      0.030979275785743512,
      0.03029582920879973,
      -0.019819263287338674,
      -0.08205298650141153,
      -0.04337312389475872,
      0.014078323014870543,
      -0.03348102039863372,
      -0.012011993538068925,
      -0.06925754178800518,
      -0.0035547121249722593,
      -0.08460175828148085
    ],
    [
      -0.009786345743039337,
      -0.09434558552478117,
      -0.11328640125268624,
      0.026650692369707532,
      -0.06987588395891123,
      0.038858019789865195,
      0.01274760403679931,
      0.04806182369141771,
      -0.051158355650040066,
      -0.07003936151694447,
      -0.12028990481231978,
      0.7101082733309924,
      0.16730236438076623,
      0.10789632144902284,
      -0.003044444047903637,
      -0.04274209715053471,
      0.06085442870463715,
      0.06639855498612329,
      0.09820025582078626,
      -0.09903120876774744,
      -0.032991402924912705,
      -0.0802820566753493,
      0.04980287148885415,
      -0.0002312021887649592,
      -0.03549365605668399,
      0.026739840873579328,
      -0.09340989951647655,
      0.009879334345956604,
      0.04088519734539415,
      -0.027097980647275675,
      0.015280040150950832,
      0.015653188005107777,
      -0.13726741274733956
    ],
    [
      -0.009023868389057261,
      0.02274847188777822,
      0.0015803297121813479,
      0.026769019837173606,
      -0.02178571043832169,
      0.024550985660489563,
      -0.007465039711631971,
      -0.04079469448282229,
      0.020367405155599063,
      -0.02872596332075916,
      0.030676921610310874,
      -0.27857623057073294,
      -0.0808464593074312,
      -0.011176398006141078,
      -0.03132464894139768,
      0.012418757995484694,
      -0.012128656984192838,
      -0.007613038864224143,
      -0.03658312875388917,
      0.01005918796998723,
      -0.014754924143931368,
      0.013039251929553566,
      0.019158508050639598,
      -0.04506323402023639,
      -0.025843549399869322,
      0.04050813783517921,
      -0.0026338942507361717,
      0.03422960687038528,
      0.03979065216893915,
      0.014227882459274494,
      -0.04445716846094756,
      -0.04059868148972434,
      0.0951274738247085
    ],
    [
      0.0712907278472915,
      0.26958505426761753,
      0.09167567208248163,
      0.02521352230246741,
      0.03679652528796533,
      0.08086108216234227,
      0.08222803598996191,
      -0.018847611897007812,
      0.11441432345276938,
      0.06694628514560254,
      0.20133316344932967,
      -1.3805392728390846,
      -0.26078767320265583,
      0.038409741823730206,
      0.05737859367066569,
      0.09081012480341212,
      0.10629594896597205,
      -0.05871285972397442,
      0.11637063163353066,
      0.12151313158979107,
      0.11781325435083632,
      0.06563191755495773,
      0.11735025768047427,
      0.02527200069052636,
      0.008869542046697541,
      -0.05233606347314454,
      0.055651762006878866,
      -0.04690799532532483,
      0.0022622742825303783,
      0.0626501926487859,
      0.05631613917350557,
      0.03905049198921933,
      0.2067172526691274
    ],
    [
      0.059251112063912925,
      0.1817763528324612,
      0.0677063360900548,
      0.07340904666393393,
      0.06190031056368885,
      0.04287727970631515,
      0.03618168252916539,
      0.0015172649168170905,
      0.14683786071553986,
      0.03235069283277878,
      0.18367599450561148,
      -1.1595483933000552,
      -0.2064731708998305,
      0.013231873757996613,
      0.022659521981722823,
      0.0678558985584611,
      0.08577247530905878,
      -0.07157833314922342,
      0.04880483331984489,
      0.057677505197993875,
      0.0846459784156477,
      0.006773388430632007,
      0.07103759840592469,
      0.04283504544859648,
      0.016129572202105015,
      -0.06131551687349994,
