{
  "b1": [
    -1.2155003869644881e-05,
    -1.5192899882750431e-05,
    -5.057180981757402e-07,
    8.384650167819791e-06,
    3.452075097834923e-06,
    2.4977534185550078e-05,
    2.4947563031666608e-05,
    -2.2477489041748163e-05,
    1.6427332428439943e-07,
    7.691717574365147e-05,
    4.184027658183843e-05,
    -8.472829688027005e-08,
    -8.393186046338265e-05,
    -1.6744259504735464e-05,
    1.717583736353114e-05,
    -1.1837415585711656e-05,
    9.775525418455723e-05,
    9.65735220417848e-06,
    2.315791253884035e-05,
    -1.7656765063162702e-05,
    -4.708466760739942e-06,
    -1.915703036999031e-05,
    3.506981676419484e-05,
    -3.960531476558852e-06,
    2.564970953712746e-06,
    -2.2807348345142245e-05,
    -8.356140142757964e-05,
    -1.023204769778637e-05,
    -3.9523660094742356e-05,
    3.9216173974231355e-05,
    3.872051261190487e-05,
    -3.1975772716012493e-06,
    -5.0220883540958824e-05,
    -6.262883434126639e-05,
    -8.423722092823117e-05,
    1.4589938856030102e-05,
    -3.663076272844072e-05,
    2.0580305812645033e-06,
    8.185520719382402e-07,
    -2.325735875841801e-05,
    3.224086932797306e-06,
    -4.2625886989751544e-05,
    1.5798934318404383e-06,
    -1.6875235460038847e-05,
    -1.4880091084723141e-05,
    1.69768570903967e-05,
    -2.444731049582918e-08,
    2.141252630764715e-05,
    2.8535065248602854e-05,
    1.397837037126151e-05,
    -1.506410069448756e-05,
    9.68247387757718e-07,
    3.055468442040379e-05,
    8.784304174802317e-06,
    5.948229992862271e-06,
    -1.36937875191855e-05,
    -2.2634350104529017e-06,
    1.7802643400873954e-05,
    -2.3150569632670775e-06,
    2.376955013644796e-06,
    -5.367763831773165e-05,
    -3.0199020604020865e-06,
    2.3476078064034366e-05,
    -1.2723914577007053e-05
  ],
  "b2": 1.620882247865829e-17,
  "feature_names": [
    "step_frac",
    "remaining_frac",
    "is_two_player",
    "is_four_player_plus",
    "is_ahead",
    "is_behind",
    "is_dominating",
    "is_finishing",
    "my_ship_share",
    "my_prod_share",
    "lead_ratio",
    "base_score_norm",
    "base_value_norm",
    "eta_norm",
    "send_norm",
    "source_count_norm",
    "needed_norm",
    "target_prod_norm",
    "target_ships_norm",
    "target_is_neutral",
    "target_is_enemy",
    "target_is_friendly",
    "mission_attack",
    "mission_expand",
    "mission_defend",
    "mission_reinforce",
    "mission_swarm",
    "mission_snipe",
    "mission_comet",
    "mission_other",
    "enemy_priority",
    "committed_load"
  ],
  "hidden_size": 64,
  "input_size": 32,
  "kind": "mlp",
  "temperature": 1.0,
  "w1": [
    [
      -0.017617982886526048,
      -0.034927237611419484,
      0.01508572033956548,
      -0.04274561373682785,
      0.0035920286247089223,
      -0.013481783399646721,
      -0.04419406562687882,
      0.0007435733189420258,
      -0.04624009223421716,
      -0.006634301235296471,
      -0.04297949352481809,
      -0.03814416431033114,
      -0.006441709978022054,
      0.041359922359266145,
      -0.04214547838097115,
      -0.02903706529449806,
      0.009022898131469864,
      0.04540868637543188,
      0.008814250991846868,
      -0.0122907369842119,
      0.0477822455829184,
      -0.04355183751643042,
      0.03941195612678657,
      -0.021495092313484652,
      -0.038139967981388675,
      -0.03509468467753253,
      -0.02324270308172517,
      0.03207489119346201,
      -0.033430125510243915,
      0.009609550602710163,
      0.013604522671735599,
      -0.012717684612498397
    ],
    [
      0.004765154827178325,
      -0.043736295402550494,
      -0.04404947896934471,
      -0.02939992328822112,
      0.018041275306941874,
      -0.0072510541684214745,
      -0.018584256452692904,
      0.008556186350763873,
      -0.00468585083318847,
      -0.020025323417664675,
      0.02943175898237609,
      0.018217116837887546,
      -0.026509238267093064,
      0.00131500303846017,
      0.00479599502454549,
      0.03843685022459893,
      0.024725302987222336,
      -0.021383871124477954,
      0.0472047791159831,
      -0.03678759230294257,
      -0.009200092621445513,
      0.02530544498504915,
      -0.03803604581483997,
      -0.0008899730310324731,
      -0.044224385009832834,
      0.014826718528838915,
      0.029094170796777206,
      0.006996699858847942,
      0.03873989413326315,
      -0.01900298437317205,
      0.019545861124053193,
      0.00944550902708089
    ],
    [
      0.007991328629081178,
      -0.004379972587956873,
      0.03399991454290039,
      0.04446862244180427,
      -0.0025902537648963995,
      0.016416928243981107,
      -0.04393302299371048,
      0.02014920213044239,
      0.014712657731186232,
      0.049309020701916374,
      0.03219192522080275,
      -0.02086998035878725,
      -0.01110164754592559,
      0.018010249385604898,
      -0.04776786653004166,
      -0.0042250961825304875,
      -0.03319646807523625,
      -0.03814814889728559,
      -0.043571748955094226,
      0.026623281970073843,
      -0.036421515393832864,
      -0.02568346787552713,
      -0.009412573659465165,
      0.037314409773877115,
      -0.04208221649769808,
      -0.005190147614557226,
      0.004081318017813128,
      0.03834773543793622,
      0.03155575454514858,
      0.03620805653172738,
      -0.022039764681139145,
      -0.008468586639248932
    ],
    [
      -0.01411792423806318,
      0.03842766736998949,
      0.04578238735613551,
      -0.03490806132866537,
      -0.03237845852401025,
      -0.026799723629668003,
      -0.026666613769123524,
      -0.0015037269658643383,
      0.008915750861595956,
      -0.02372246819320361,
      -0.04958483836816225,
      -0.008170510922276084,
      -0.013001196773120035,
      0.008236259963389381,
      0.04478330524959638,
      0.019150790495099372,
      0.0012801012485212234,
      0.011793269418328303,
      0.017886261610244626,
      -0.044762199010279315,
      0.039498736667570866,
      0.028621386391657583,
      0.03638491852925928,
      0.02982458091123075,
      -0.011224445164307732,
      -0.009282585801230142,
      -0.03914042043434263,
      0.013509063088831841,
      -0.04397397496236364,
      -0.0429721373768771,
      -0.02924826632204212,
      -0.03376808100635301
    ],
    [
      -0.015977174947667497,
      -0.04473898753587547,
      -0.04996472609785402,
      -0.0348780740135598,
      -0.03985134162013584,
      -0.01366050683806784,
      -0.047442658867167455,
      0.03743323773738196,
      0.011413406875271582,
      -0.03513705366899791,
      -0.024763007048839384,
      -0.017738792555363758,
      -0.014284757400947222,
      -0.041137032036916384,
      0.036671900907620236,
      0.049991693985897104,
      -0.001738008363485543,
      -0.0021920251328359465,
      -0.041608788913401154,
      -0.038551428442837515,
      -0.01729998730934046,
      -0.02318709750188922,
      0.029593763914413866,
      -0.033378277292184955,
      -0.04647099465687159,
      0.04411193842848643,
      0.0048671545643742455,
      -0.03554536738364935,
      0.005069190815385189,
      -0.04729894293351201,
      0.0026354447044733375,
      0.047847567438180194
    ],
    [
      0.03633420485516303,
      0.019644656124965805,
      -0.023904766797743216,
      -0.01333270556068327,
      -0.033295784513313484,
      0.02720639449275569,
      0.00325726971379571,
      0.02790548913381772,
      -0.01702030101906296,
      -0.027689632934074088,
      0.03118066396293805,
      0.05229050465007163,
      0.03640478928035747,
      0.03796942088353143,
      0.02688139372262782,
      0.022417912987065237,
      -0.03179711098394765,
      0.002758364820519832,
      -0.014094308378139978,
      -0.04961658319591503,
      -0.04560228401767367,
      -0.021122578730979783,
      -0.01783373540824414,
      0.01798431344303583,
      0.04282098911699148,
      -0.0028096277257132454,
      0.03834655577380038,
      0.04926443016695187,
      0.044253345589058295,
      -0.011987809897870585,
      -0.027927788338213952,
      -0.027311641302463253
    ],
    [
      -0.03031467156996062,
      -0.02953771610934598,
      0.012423633144007106,
      0.040021404328876735,
      0.03404373076863619,
      -0.002016541903073973,
      0.015297790176057778,
      0.029964374484966017,
      -0.04151429499209145,
      0.016064925885184104,
      0.040987506682378584,
      0.02748721324514872,
      0.024575572614964843,
      -0.00533461949003355,
      -0.030905378064298234,
      0.02929234897994935,
      -0.015823299495090808,
      0.02987388994113942,
      0.04671086446620333,
      -0.009079349771661777,
      -0.010718057453423082,
      0.044224586728320754,
      0.020915038586056485,
      -0.032406502681844265,
      -0.03637284047106682,
      -0.03569735450094164,
      0.04145399574895584,
      0.0304337842039642,
      -0.03463889972518544,
      0.03204075223510939,
      0.04803185983768329,
      0.015727508741810926
    ],
    [
      -0.014974475856543651,
      0.004843526909636165,
      -0.03692113815910798,
      -0.04857278729764193,
      0.04708858432524072,
      0.014946717857356866,
      0.0026577868276489807,
      0.04336248050574268,
      -0.00662813993180662,
      0.037166432434659585,
      0.03260182816755508,
      -0.027718070477967056,
      -0.024216896251253804,
      -0.01610061717608592,
      -0.02797371274351789,
      0.007748832155769375,
      -0.025793135433560394,
      -0.007807597522167442,
      -0.03629226959258758,
      0.039564060113437376,
      -0.013824274855294999,
      -0.003566056073129244,
      0.01145249847832191,
      0.03987407772933727,
      -0.009317558098890417,
      0.04283670142188141,
      -0.002469376588026822,
      0.003407404709210202,
      0.0014686127654650856,
      -0.04710681203790331,
      -0.00603214156621693,
      -0.03169794553744054
    ],
    [
      -0.04960757521351323,
      0.02991720932254643,
      -0.032769814189478,
      -0.002655418950276809,
      0.022518001606702538,
      0.0056464266697347915,
      -0.01740299360742126,
      0.001834871270303684,
      0.005544584751502709,
      0.0284279440339602,
      -0.0393885467324307,
      0.0035866742347955448,
      -0.02610859078679399,
      -0.028879870494014328,
      0.030728742703827194,
      0.001984258425853695,
      0.009189575909195754,
      0.025380729743451975,
      0.04032251600719729,
      -0.003972449166974385,
      0.010437266069268302,
      -0.0003317117516575828,
      -0.0027696785535435637,
      0.019763458724036887,
      -0.002512475241404027,
      0.0013419646072880475,
      0.0015161796960251664,
      0.0437809917876383,
      0.02113414122409629,
      0.03632703346509653,
      0.044299235841202184,
      -0.024044022258901322
    ],
    [
      0.005983205027912801,
      0.044403620577092046,
      0.03403248030108954,
      -0.036278790185205266,
      -0.03783801806368468,
      -0.005777200361457002,
      -0.042743821222766286,
      -0.025936124154673015,
      -0.04264550277475123,
      0.01698101779416612,
      0.028482127692848337,
      0.03592894361007133,
      -0.03579564411174868,
      0.015092771542403512,
      0.02000923789563581,
      -0.03421722739030391,
      0.0419364425704598,
      0.045968815685018975,
      -0.028606597049644862,
      0.04705644098523031,
      -0.012088070042781356,
      -0.0010892759039914741,
      0.04289056997851623,
      0.03365772673905058,
      -0.03152901803161812,
      -0.008390939450849054,
      0.006419789200621507,
      -0.016558842213374975,
      -0.029032765084031065,
      -0.01895006009051577,
      0.02219061679005876,
      -0.04802407298767308
    ],
    [
      0.005435933684289008,
      -0.0059123495431479545,
      -0.048149300276984046,
      -0.01685135998770693,
      0.012394316021717934,
      0.0012345013183961862,
      -0.04356728235766575,
      0.04850832441340994,
      0.028854976172896497,
      0.04718359788560973,
      -0.03949088919885958,
      -0.01909995868243886,
      -0.044545901122377475,
      0.03469788506704383,
      -0.026570634406810754,
      -0.038388225519576845,
      -0.0109991122818328,
      0.04203418576361132,
      0.03277882546461025,
      -0.025963709694009757,
      -0.03253380546525462,
      0.04125420250681525,
      0.013083808805133266,
      0.019621762524233508,
      -0.0431412742910226,
      -0.04275254396095264,
      0.014741859000296668,
      -0.00708038417388595,
      -0.044163219570646596,
      0.04396058275695089,
      0.013732300105355286,
      0.030172116444722712
    ],
    [
      -0.04162783011528918,
      0.035622778908918025,
      -0.0433422303495185,
      0.03627844349656999,
      -0.0046225876975152505,
      -0.01607619515115471,
      0.0053065340121444555,
      0.04266692840712272,
      -0.023215110585369497,
      -0.03707726386783728,
      0.0026889557950631076,
      -0.026512780236198075,
      -0.039144797418076055,
      -0.03548344554461998,
      -0.0443475942472271,
      -0.02968736954872409,
      -0.018382723109705745,
      -0.01965379132569812,
      0.025596530777713233,
      -0.02043082513277067,
      -0.0004675474200621739,
      -0.03230678029555159,
      -0.015867465602759433,
      -0.047879077471931236,
      -0.024454382275099072,
      -0.04881482571408557,
      0.02348045935554637,
      0.005054839213852994,
      -0.030785870754439195,
      -0.002803196526604969,
      0.04342597787538058,
      -0.03937371342635939
    ],
    [
      0.031855642219219424,
      -0.006866173282021793,
      -0.0005406805372675645,
      0.033459105913799574,
      -0.010692462091474501,
      0.0006164057282435525,
      0.018773263997222834,
      0.04824405404147972,
      -0.01576307675058803,
      0.033200342767788875,
      0.020609191881634827,
      0.010513045875670621,
      -0.010416679559681667,
      -0.020772687384248378,
      -0.040512458739516484,
      -0.0360410059097859,
      -0.0393279552195558,
      0.023151805175561802,
      -0.024614401465228385,
      -0.031249330845587616,
      -0.042840674456855785,
      0.03290611092548636,
      0.03285538342230245,
      0.018435271374925864,
      -0.01991418724720587,
      -0.027705218104937503,
      -0.017144917185817735,
      -0.004506051376393188,
      -0.03320163047436264,
      -0.006792950319620375,
      -0.02373563978628747,
      0.04617922096017789
    ],
    [
      0.047256358612076665,
      0.004690593152386116,
      -0.025568898908338515,
      0.046566780560428414,
      -0.01904578804509217,
      -0.014347897263564247,
      -0.0498927972010301,
      -0.011837339338741782,
      -0.0025421194129267104,
      0.0002705259653399807,
      -0.029913767009236317,
      -0.001227691850729752,
      -0.04974754541907497,
      -0.024344927858499902,
      -0.04003371575316701,
      -0.00995829043207143,
      -0.044931655547946835,
      -0.048186854897105724,
      -0.01941294645558107,
      -0.02592976658666827,
      0.0072974358272970535,
      0.0033738264064214455,
      0.02350443124081185,
      0.016361822678598297,
      0.021850098106149213,
      0.03762244779557005,
      -0.010604445213983201,
      -0.017492100286119798,
      0.04865472991434969,
      -0.03461253885470937,
      0.022208156785925564,
      0.014318822796089809
    ],
    [
      -0.04561276660356698,
      0.03354613016075294,
      0.039208544660458824,
      0.012734080090720395,
      0.02338531955099301,
      0.03123333836235015,
      -0.036068944026043354,
      0.0023757284528517332,
      0.0004433889745026964,
      0.033498627970128175,
      0.030478097323810703,
      0.03266755007386794,
      0.008467368120939086,
      0.03886006238961053,
      0.018793470271234267,
      0.01935463491666293,
      -0.02653655089609147,
      -0.04685579525539066,
      -0.036339252053370505,
      -0.01353244666826444,
      -0.03928115979754955,
      0.03297529703339308,
      0.005823955597932242,
      0.013154734809189154,
      0.012708120034912663,
      0.01760789667472318,
      -0.0007416957961963559,
      -0.04972864293041589,
      0.029788536938399928,
      0.024579925940105586,
      0.00040338991111527804,
      0.0035253449562851306
    ],
    [
      0.015921324328572604,
      -0.04340680179337055,
      0.023673399639359202,
      -0.024776663541891484,
      -0.04255502936830402,
      -0.023442617728157932,
      0.022933362642112293,
      -0.02947824729179135,
      0.023977094961955197,
      0.04756910447061125,
      -0.0006151345771424568,
      -0.010144876827840262,
      -0.001507183549614416,
      0.02269340585608928,
      0.02376590521269152,
      0.01095008825924322,
      0.011830727672568573,
      -0.04177937185751372,
      -0.03470358311312064,
      -0.025724566525614924,
      0.024133904231564203,
      -0.018263707424293268,
      0.008652278833865717,
      -0.0491125780448507,
      -0.04536835937832611,
      -0.02137045864591181,
      0.014697235163237921,
      0.019525915682686856,
      0.01681167036741765,
      -0.01980598364220884,
      0.0014283112666500935,
      -0.0035313877912480497
    ],
    [
      -0.003310659359066277,
      -0.038051958475658516,
      0.0394254931005704,
      -0.030074984680987214,
      0.047812593141917485,
      0.04370137800505317,
      -0.04824983239901494,
      -0.004102917703640285,
      0.03202434524298705,
      0.04684217637102228,
      -0.00499730920682247,
      -0.025509563344306003,
      -0.02982065386031962,
      0.040069291822752734,
      -0.0263110840645734,
      0.009193328517962644,
      -0.0334689464935012,
      0.0020968126915185898,
      0.045319909173917323,
      -0.034794581699522834,
      0.02979859480823208,
      0.0012503858599344053,
      0.03329017868341641,
      0.02128750124951881,
      -0.025323754489551265,
      0.03861281424838847,
      0.0022341746581214816,
      -0.047851444037058065,
      -0.048649839190763704,
      -0.0009468620946005736,
      -0.005010905185714388,
      -0.01978730988183294
    ],
    [
      -0.03591850620823281,
      -0.015594328005001292,
      -0.018368899945039888,
      0.034012825649039326,
      -0.04982612495360535,
      0.02506235127520393,
      0.03390974184626673,
      -0.037995865240781745,
      0.04264632268015479,
      0.02130403295979541,
      0.04016544115310111,
      -0.02199654879020063,
      -0.013248798148131556,
      -0.016586772210962122,
      0.053241824317138586,
      0.00995189932283043,
      -0.011010091319356576,
      -0.007571100318949356,
      -0.022908369265999734,
      -0.04361899461208246,
      -0.03904566701844022,
      0.03113971395218509,
      -0.0235582784447473,
      0.04423709349221395,
      -0.023063328294456648,
      -0.025817272574447967,
      0.004452977193277726,
      -0.03130524833239523,
      -0.011788980446640833,
      0.04351193421011772,
      0.03881069234073135,
      0.03118263595626933
    ],
    [
      0.013078887426609393,
      0.04136554665847748,
      0.04406607983687028,
      0.004939897842529055,
      0.021959915348850056,
      -0.04502871892394451,
      0.023238364042953773,
      -0.004913957703922645,
      0.025268440375723508,
      0.01445260392988533,
      -0.02138276633803789,
      -0.041923234054338426,
      0.04396251408918807,
      -0.028666737219538378,
      -0.007111245514017423,
      -0.017099810484621666,
      -0.023949569396200337,
      0.02456556138390643,
      0.04830874927401203,
      -0.026294497245447208,
      0.016870064386061156,
      -0.018852342059558932,
      0.010997738834479964,
      -0.011264689699162913,
      -0.035887112862089635,
      -0.03109542867866282,
      -0.033911906587568236,
      0.04108579172134939,
      -0.001902356704678786,
      -0.02683764028806041,
      0.04054279828214527,
      0.049631019262304885
    ],
    [
      -0.005015339807019212,
      -0.036058050365090896,
      -0.030767247631953723,
      -0.04092607760120965,
      -0.01580402074245629,
      -0.04091199832512883,
      -0.026086494570396884,
      -0.024164243184508064,
      0.006955912381074414,
      0.0387189130306117,
      0.024956754271305438,
      -0.006599039702912496,
      -0.007643912216550166,
      0.008313951193885118,
      -0.015013690726845186,
      -0.017275060498506304,
      -0.04610531605422289,
      -0.02191515843035539,
      0.047554189421891005,
      -0.0383913141055656,
      0.0009250542318054245,
      0.013338248630256344,
      0.03970739228935035,
      -0.028218671379980433,
      -0.024587905554345618,
      -0.023525165106395143,
      -0.01331504943942713,
      -0.005105888636143602,
      0.04423064870687081,
      0.03545116248430079,
      0.03717716179618682,
      -0.047824240509378696
    ],
    [
      -0.046787238987594314,
      0.020946470027104612,
      0.039573847872190114,
      -0.0026734745896866627,
      0.008710496738375881,
      -0.04998531997450529,
      -0.010857693629383885,
      0.042682727372766065,
      0.03256208867781982,
      0.03554672302665745,
      0.04723856660295512,
      -0.027886528873054785,
      -0.04034705074376189,
      -0.04319214077793677,
      0.006332339878277765,
      0.019694248106873966,
      0.04754900326394684,
      0.021664759373991906,
      0.013641559116633898,
      0.028162088076731775,
      -0.004749560384747481,
      0.003945414292879287,
      -0.050371407329268224,
      0.028339149106006628,
      -0.023924846149398816,
      0.03893291663986444,
      0.01905083205834609,
      -0.020061004909684203,
      -0.03563056918489074,
      -0.02600071382683132,
      0.01383472943355821,
      0.019853902553063095
    ],
    [
      -0.03879812711520411,
      -0.0429839661945146,
      0.0024283090148003303,
      0.008289109804799468,
      -0.011191798621139852,
      -0.027658888271697237,
      0.010105984552256664,
      -0.04895383601078666,
      -0.019854738913217086,
      -0.0039365485970004966,
      0.045882711810092985,
      0.013349852742851897,
      0.038012696132777544,
      -0.004324449645870488,
      -0.025554246286679416,
      -0.024910214698231667,
      0.04693149693755184,
      0.02018716118337894,
      -0.019142911498144354,
      -0.04684062849627301,
      -0.0009085656685250417,
      0.017186126218376844,
      -0.009821343457177922,
      -0.023732437644912913,
      0.017213241982305595,
      0.04182804510100504,
      -0.026043144250721503,
      -0.04673798834848879,
      -0.015756160013781318,
      -0.008041391992577725,
      0.018185405318731942,
      -0.03019605762958705
    ],
    [
      0.029718855530008175,
      0.023947991994339623,
      0.0004958724191653787,
      -0.029479831521330185,
      0.046986358794550404,
      -0.018801055783582803,
      0.03200091872861316,
      -0.026919118713502534,
      -0.027844124788985566,
      0.026053953297082114,
      -0.020488854990539256,
      0.044722882112428544,
      -0.0007326741241437001,
      -0.035201660612071306,
      -0.026341685862972444,
      -0.008114977837776864,
      0.017454831745217534,
      0.0445557465243409,
      -0.035866718807007834,
      -0.009355103818632807,
      -0.028586975571128083,
      0.046030024810345745,
      -0.03549237858442449,
      -0.044317768412408046,
      -0.04286138956647361,
      -0.012240640558964207,
      0.039932833565761175,
      0.038111041618615275,
      0.024073097731717955,
      0.048751592537430125,
      0.04335861591869418,
      -0.017086813478231905
    ],
    [
      -0.03145016564217217,
      0.043584194622511375,
      0.024630485694904076,
      -0.04681408990758247,
      0.016443482489268274,
      -0.012128671479387908,
      -0.012610999202976907,
      -0.01683025103626017,
      -0.0330769359137905,
      -0.04971525632992303,
      -0.02202700809838854,
      -0.013228660712825871,
      0.0458895055271759,
      -0.03645346730626261,
      0.04568246144540427,
      -0.029546468648374777,
      -0.015087922540634173,
      0.0324250513727662,
      0.03193904736343515,
      -0.007666467882639727,
      -0.043219460471928026,
      -0.0036009601037379387,
      -0.009889819541929634,
      0.04133656831956453,
      -0.030875167604512876,
      -0.013643850750111375,
      0.03856795651323684,
      -0.04685841410283389,
      -0.009217144723993275,
      0.030515674926046638,
      0.02693290141997705,
      -0.04593474825007142
    ],
    [
      -0.046516509623864444,
      -0.04373944070259037,
      0.04201127171462127,
      -0.02429911599766607,
      0.024729036803115192,
      0.039855306254277995,
      -0.016092691848733378,
      -0.022768533725313168,
      0.04576992868250885,
      0.011696668938293015,
      -0.02378145440026663,
      0.021845651968407365,
      -0.01814633197482399,
      -0.01978345296199686,
      -0.05076922755963943,
      0.025154835850989363,
      0.04062193611842747,
      0.013385271404640185,
      0.04435928688973743,
      -0.0482584899710436,
      -0.026808118851101317,
      -0.0015996239019041307,
      0.04666102659158353,
      0.04510829275677552,
      -0.012095388049285245,
      -0.02389634678550003,
      -0.008356988962348407,
      -0.000536785528455553,
      0.04240854677774289,
      -0.031019749888306268,
      0.030110935001458686,
      0.02384742443078566
    ],
    [
      0.03225835235791787,
      0.027258130644671103,
      0.010709528957256485,
      -0.017218811444893747,
      -0.018045001116634762,
      -0.013833897714984653,
      0.02822495204787188,
      -0.0420985128641987,
      -0.030277557363186516,
      0.02528083691179595,
      -0.02528457692057589,
      -0.04025611938447652,
      -0.045390221702706554,
      0.011098734213018739,
      -0.020824555927319317,
      0.046796502678550234,
      0.035387824095514685,
      0.049343902305290094,
      -0.022747624464435463,
      -0.0432046914225823,
      -0.03850626027897496,
      -0.0004138111963308404,
      0.026142890322187005,
      -0.005677922086147649,
      -0.028356226283585615,
      -0.006995709131486959,
      0.008182015991373071,
      0.017787569031788762,
      0.023558985671588876,
      0.035050747909745356,
      0.0165403228437115,
      -0.037887360564543844
    ],
    [
      0.03403167351946269,
      -0.020705346714767925,
      0.006632478945944098,
      -0.012698101154150555,
      0.02380703738249481,
      -0.030130832049142627,
      -0.02525774824782003,
      -0.02546597031093836,
      -0.034702838260400756,
      0.038393058237491055,
      0.007765438113415906,
      -0.014472018677798324,
      -0.009333366130031759,
      0.056605159930904515,
      -0.002695498816598683,
      -0.027972535575173492,
      0.0280103521727656,
      0.016012396944061282,
      0.050163580021185115,
      -0.041652579514894546,
      -0.0013458955171722004,
      0.0325347022463656,
      0.03763354701995564,
      0.04103863210914843,
      -0.04803588731713635,
      -0.018584062376102373,
      -0.041057442036161025,
      -0.030645478006265582,
      0.045809619650130605,
      0.009149509935846387,
      0.04289997592136707,
      -0.01279718737279658
    ],
    [
      0.036609563845277554,
      -0.005098846270818747,
      -0.02400595274413244,
      0.027777425743761828,
      0.04457047077264489,
      -0.039440722962473064,
      0.00961508508841904,
      0.011994797996952845,
      -0.028237090026644453,
      -0.013131434846248383,
      -0.0358637885690028,
      -0.0297279191166509,
      -0.02438233265124978,
      0.011391200214758423,
      0.014953722955905113,
      -0.029743691880686166,
      -0.04890633691725567,
      -0.017293938767915382,
      0.018126067405872647,
      -0.03170586379552367,
      -0.019126365854700154,
      -0.029103141846701472,
      0.02911789749815243,
      0.004911759352665042,
      -0.04393216601515228,
      -0.03930944899454129,
      -0.010484582595739703,
      0.005079455652013235,
      0.013590544878981608,
      -0.04060832028688297,
      -0.03374803834764102,
      0.019546376583320056
    ],
    [
      -0.009048130545794756,
      -0.021709404208355185,
      -0.0192715363768644,
      0.04531793367922685,
      -0.01876360965577682,
      0.006624278851171686,
      -0.014281711579558534,
      -0.008355461792489017,
      0.03640784465322727,
      0.04964886022079545,
      -0.013651556709235076,
      -0.02880480093866478,
      0.023330672276586376,
      -0.026136901717332687,
      -0.05109269216997604,
      0.03931549659922296,
      -0.009176986320736139,
      0.032302830789508734,
      -0.009064205132314596,
      0.03713946379171783,
      -0.00270059402759338,
      -0.03384951728368678,
      -0.04495909271707005,
      0.004723920643644296,
      0.012978725024806303,
      0.041559066510665,
      -0.043695595105771964,
      0.012389930236082787,
      -0.013629103416783708,
      0.0009302081447316759,
      -0.03535340703241423,
      -0.021692620878049143
    ],
    [
      0.0021299216445700214,
      0.04258919516564432,
      -0.0390924519438964,
      -0.0009418608994367796,
      0.030482792657669712,
      0.046702133453651706,
      -0.030264390283939287,
      -0.03733496454559842,
      0.044321856149152176,
      0.04757433404946282,
      -0.001700372208442174,
      -0.04254055894987316,
      0.04339024794729809,
      -0.0067697482124028435,
      0.038091573884124014,
      0.011509733660994727,
      0.030515627085059477,
      -0.033468910845554194,
      0.029195575476830847,
      -0.029006557176166452,
      -0.008439147560638715,
      0.03477602274785929,
      0.035207256954878995,
      -0.03196805219303606,
      -0.02947875495903936,
      -0.008887048221097451,
      0.00015847826806355923,
      -0.011301096954254207,
      -0.03864378897822144,
      -0.02488575782409564,
      0.022555398682205453,
      0.03973714060590044
    ],
    [
      -0.04586357562382891,
      0.006273047353910374,
      0.025792254230287307,
      -0.046185877669980176,
      0.033820605494872355,
      -0.038198580299515186,
      0.00995267490098351,
      0.005005183703459515,
      0.012720404174703355,
      -0.01936615187807858,
      -0.007964753709832557,
      0.010727555344348057,
      -0.006388446255547845,
      0.022240002807205422,
      -0.008540805401633626,
      -0.007329356556594324,
      -0.050426992830157544,
      0.012351130385710162,
      -0.00024299471697075852,
      -0.02760329164216474,
      0.02704024770177367,
      0.028480865404826854,
      -0.0003756238522292333,
      -0.03207948278395384,
      -0.0048341397836424525,
      -0.03727129608233932,
      -0.040758318026319254,
      -0.006618792585967371,
      -0.04192068337094855,
      -0.005014127264421043,
      0.0009719943572311228,
      -0.04591586653015797
    ],
    [
      0.013634558126684742,
      -0.041779094780563325,
      0.023325556335081484,
      0.027760352827971468,
      0.0011480987862594312,
      -0.04455567673103799,
      0.0003900477053728552,
      -0.012213737031261884,
      0.0450815441124344,
      -0.03638455045782168,
      0.03569525022668268,
      0.04980440052217611,
      0.022902157580007455,
      0.02976756226988667,
      -0.031277451998798174,
      0.04813673964310281,
      -0.001692697158820172,
      0.0458631461168844,
      0.04087033737530825,
      -0.03327715517015909,
      0.028095849262253145,
      0.043585760133785255,
      -0.04348205302229616,
      -0.015250210806707711,
      0.025541192054682547,
      -0.03410244818393977,
      0.03895652031463397,
      -0.022557785797775017,
      0.032114309242565156,
      -0.03501376063019529,
      0.0001241566102873254,
      0.041997192569115584
    ],
    [
      -0.029190030123992943,
      -0.023763454491648135,
      0.0005727993828257037,
      -0.018096696433572132,
      -0.04631725253505825,
      -0.031819345897375714,
      -0.03387737263536398,
      0.043640376089660954,
      0.017947855694257837,
      0.03952265548956111,
      -0.03316333244521879,
      0.031131796835306588,
      -0.037691007231086746,
      0.006484166189874535,
      0.01138772594817167,
      -0.01480451565980807,
      0.03520332665795273,
      0.006031654198027418,
      0.008053910066716527,
      0.0367625230541421,
      -0.03748472981137381,
      0.04868182007669118,
      0.017280681741701914,
      -0.011300026292673562,
      0.028528430333720777,
      -0.022796813910901503,
      0.04642299574189556,
      0.008002086307335995,
      -0.014740164633970177,
      0.026473258602019777,
      -0.005592779160460169,
      -0.03234802449747818
    ],
    [
      0.0243238257893884,
      -0.04523348339061616,
      0.031951871550642746,
      -0.024642575973471463,
      0.013924082915515407,
      0.0483763897306954,
      0.008586525083693253,
      0.016369853091033528,
      -0.01876513967628626,
      -0.04984136630410069,
      -0.046681428891520396,
      -0.03304053406442395,
      0.012193792517835537,
      -0.004386801941113178,
      -0.00038873844972548885,
      0.03885426858332385,
      -0.0383730598829755,
      -0.02680654833204197,
      0.015603657121259813,
      -0.04861380066797862,
      -0.04842640572522335,
      -0.01503566340044639,
      -0.036103637776642404,
      -0.014512127105352582,
      -0.028374222628306005,
      0.008494760406477406,
      0.0066835520164247285,
      -0.029388774985710645,
      0.011777485044642192,
      -0.002292520559155044,
      -0.03643215623727752,
      0.04363633359027933
    ],
    [
      -0.02570062117446689,
      -0.03515292915195766,
      -0.0404876517438556,
      0.013825561154576256,
      0.03712857315180011,
      0.02816827961007661,
      -0.009804884823519485,
      -0.023576016003537627,
      -0.0488832735723642,
      0.014467257618116604,
      0.006176011938657037,
      -0.011707103845693076,
      0.015395332958945103,
      -0.0004894887498029378,
      0.039969218718282296,
      0.022111907841279022,
      -0.028496006047879236,
      0.04115083181227018,
      -0.04537972684355687,
      0.001097122152494765,
      -0.007700204163850844,
      -0.025962662145750003,
      -0.03877074422570214,
      0.02671902676312407,
      -0.05049245214539142,
      0.006617694621362311,
      0.039888719354358594,
      -0.035431263325846486,
      -0.030935594171854246,
      0.01145166179808593,
      0.0007073781494020103,
      0.014125422468319809
    ],
    [
      0.03134771400230687,
      -0.03252146259469894,
      -0.0190435929474621,
      -0.019971591658423424,
      -0.045151335812522515,
      0.03894296850689438,
      0.028296694701158184,
      0.0215398613649654,
      -0.04935923857360583,
      0.034446338809830786,
      0.024529754694163027,
      -0.006054056662422116,
      0.023316562773553026,
      -0.010480573143536159,
      -0.024013948891362956,
      -0.038407875300372867,
      -0.02379060493040812,
      -0.046706480082336986,
      -0.01672923763442239,
      0.027106586963950234,
      0.01799198242497612,
      0.03392568545151973,
      0.016712109216553972,
      -0.0223323293011447,
      0.00718665566776184,
      -0.008023430811800595,
      0.032295625619538415,
      0.001970500408861931,
      -0.022398094709860084,
      0.013254203461135004,
      0.04648685727851125,
      -0.02829449586343518
    ],
    [
      0.03798893805088863,
      -0.04851386011221531,
      -0.023988692966328364,
      -0.026386282504943865,
      0.02438770246577475,
      0.04443851094761442,
      0.024614521115429416,
      -0.017312860345887415,
      0.03800414422096851,
      -0.017159559796527148,
      -0.026101863285912845,
      0.04319294828326416,
      0.013938229307052508,
      0.026947412187223352,
      0.012442331521662986,
      0.046547402227337255,
      -0.006572140594783884,
      0.034619255606818604,
      0.020461526343036326,
      0.03364431161502779,
      -0.005491305823816845,
      0.023746372388219025,
      0.011400796928648212,
      -0.020088723091998464,
      -0.031258997568691806,
      0.014602958555540831,
      -0.04636405348592982,
      0.04143744483167322,
      -0.036784665908797656,
      -0.04570448783165592,
      -0.03949895921938867,
      0.042878416297072286
    ],
    [
      -0.015519026687564226,
      -0.035813783151933766,
      -0.047116144026609574,
      -0.045843688012828336,
      0.019263231440561607,
      0.013342966166729357,
      0.019701217265015752,
      0.02367852631709655,
      -0.04341829404300802,
      0.009046652184161218,
      -0.013649279055301985,
      0.027553477744364865,
      0.030315957762205623,
      0.031515068692160704,
      -0.03952686913093661,
      0.03830965959718416,
      0.04487425030109591,
      0.04368511543866739,
      -0.03986243591844843,
      -0.02715018145668401,
      -0.04175988172220622,
      -0.045875882662660614,
      0.02758191883676043,
      0.03177218530361636,
      0.015613573777748774,
      0.0309243001549486,
      0.018100707939586916,
      -0.0217869064678113,
      -0.03830509727169088,
      -0.04033764611474183,
      0.025496705396326903,
      -0.02952757203894755
    ],
    [
      -0.018080030588518346,
      -0.0076226428872696594,
      -0.04791224069773193,
      -0.024330705880489807,
      -0.02174011427303836,
      0.021588089639198064,
      -0.013196861971405136,
      -0.017917180978329863,
      0.046400057747361396,
      0.0003726843759267494,
      0.0351373176264635,
      0.013577892096449282,
      -0.04623767580680812,
      -0.0031633506603076155,
      -0.010011129128807717,
      0.026228927344029918,
      -0.018476223121038342,
      0.020894970118374677,
      0.004101657969933576,
      -0.029548503891446413,
      0.03562607979665651,
      -0.03910644541583548,
      0.034619337616019555,
      -0.03342214563647107,
      -0.05171023068808337,
      -0.027328255578338994,
      0.022504221224267,
      0.04809178016363222,
      -0.05031049101762275,
      0.0004314049560373162,
      -0.0011767677505553045,
      0.029679111783532275
    ],
    [
      -0.03155520839083422,
      -0.0005650907054271694,
      -0.015302378514432035,
      0.033182150463820316,
      -0.023942286853390636,
      0.04438382318156006,
      -0.021626325073491392,
      -0.02852856595941691,
      0.019938558737740076,
      -0.00017830748879873423,
      -0.039024157073895116,
      0.014349443499479596,
      -0.04170350397573628,
      0.030854694083214094,
      0.01784354625730318,
      0.028326889989406523,
      0.011251129929714571,
      -0.014192544143082386,
      -0.009743726325475068,
      -0.01095060872939088,
      0.03808269815592976,
      -0.04003736632060663,
      0.03901099568303417,
      -0.04765291422628401,
      -0.03008324798664817,
      -0.022263597504713132,
      0.03875727364332149,
      0.00027518153984188424,
      -0.012309722584435967,
      0.03910524058990238,
      -0.026931639035804898,
      -0.0039122138017521554
    ],
    [
      0.0031557963566744853,
      0.025450792152780892,
      0.02530016579677896,
      0.014629859462717526,
      -0.015151462322024531,
      -0.01733245863343764,
      -0.03446733217255738,
      0.0343106072025795,
      0.016211481467042734,
      0.024200046677360473,
      -0.033042189620733235,
      -0.005851588126534772,
      0.027366684003468113,
      0.007670013255009675,
      -0.03780691933357863,
      -0.003833355011414284,
      0.038106445699545,
      -0.026062299739807848,
      -0.030664072392182308,
      -0.0196148562894983,
      0.020007266651116094,
      0.03444443585203684,
      -0.03465472892357111,
      -0.034244871521148745,
      -0.025373750976003886,
      -0.017366791264571857,
      0.0019856695520301284,
      -0.033888768981831685,
      -0.017114674876778684,
      -0.03082133296256021,
      0.04747265138750949,
      0.022873363423633192
    ],
    [
      -0.03985063569619365,
      0.04619594526353657,
      -0.03986636053715742,
      -0.011583999764508987,
      0.048383948172260556,
      0.02947278843419869,
      0.023329270682928914,
      -0.006507699732616135,
      -0.030399845645893035,
      0.01378460019601666,
      -0.03934884096211757,
      -0.02606405189672482,
      -0.009994149669824553,
      -0.04028904434318665,
      -0.013585475126197608,
      0.02784914434215556,
      0.01617361687701378,
      0.0006764441172414959,
      0.013499087155007744,
      -0.0060151590539537685,
      -0.03334676076329752,
      0.010199349370904347,
      -0.0035369886956472395,
      0.023089976651038922,
      0.03868751389814072,
      -0.005511537421772474,
      0.003262216347582128,
      0.02536125586301242,
      -0.009223001307545197,
      -0.026523168587904634,
      0.022363495105333427,
      0.037994396717393415
    ],
    [
      0.02740274323571248,
      0.020009432793282378,
      0.03524710777682638,
      0.017961553128587625,
      0.01415449389843954,
      -0.004609385043580223,
      -0.018698128918673815,
      0.01282769419301314,
      -0.04021262071318428,
      -0.008041986223967382,
      0.028238522910457867,
      0.021644409071373386,
      0.013287554471102867,
      -0.022394395282457628,
      -0.008024910492190717,
      -0.004834254467900225,
      0.011899268382916597,
      -0.009109605779804996,
      0.018008155651595994,
      0.042660341376727196,
      -0.031021512721424456,
      0.015137666617072845,
      0.02919667086150197,
      -0.010989094438004453,
      -0.0015194782897899129,
      0.04771009923664775,
      -0.046969986263062626,
      0.004390224039367118,
      -0.03441519848224085,
      0.02814707610111333,
      0.04410916146604732,
      0.001932651279301977
    ],
    [
      -0.0398973946355959,
      0.007439174427953052,
      0.004092376522166306,
      0.021728326974519863,
      0.0012191376797462015,
      0.013923635172564732,
      0.03289853359705617,
      0.002168827014306052,
      -0.008972607483666717,
      0.044791071639302515,
      -0.02900553852921199,
      0.01790629731439569,
      -0.010848785239781344,
      0.025367911700229655,
      -0.036778673890841496,
      0.0484952021278469,
      -0.013596970427051215,
      -0.04446088119271427,
      -0.022388958195198944,
      -0.009586668424582822,
      -0.048780573138444173,
      -0.008492132263882525,
      -0.0083888622364152,
      0.020202494041759854,
      -0.014447825514719253,
      -0.0239938248574712,
      -0.027081759482728594,
      0.02404286631982202,
      0.04406082892001866,
      0.0024880077252837952,
      -0.028078749713905247,
      0.030146043801842787
    ],
    [
      -0.010800979877584285,
      -0.02881360244426494,
      -0.03707620490936364,
      0.02766493093780121,
      0.03095725330631698,
      0.013415850865119188,
      -0.003082200129922497,
      0.006205391675758909,
      -0.027404580847889715,
      0.04638628132415357,
      -0.014689223995948986,
      0.015999461809287643,
      0.03267870332812151,
      0.03825653532827032,
      -0.006600069991905764,
      -0.021537382470967936,
      0.0019556525260533545,
      -0.0368363117578499,
      0.03410382742227257,
      -0.016160141097786858,
      0.03521137128292617,
      -0.021782081807013274,
      -0.00987274444565217,
      -0.02512867721219035,
      -0.009529327624653063,
      -0.028949455608190507,
      -0.05264135288089992,
      0.022542955224652755,
      -0.023029995735818976,
      -0.024170758727909084,
      -0.020038103794634426,
      -0.0020269771085846973
    ],
    [
      -0.007137085423577507,
      0.013747096089492792,
      0.01593502171350528,
      -0.01375341716868698,
      0.04287278213487186,
      0.035450945460827055,
      -0.04429439523910952,
      0.03278998774632014,
      0.040589328778951515,
      0.028414838051517,
      -0.03594175502144171,
      0.035971568150608486,
      0.014613209473389887,
      -0.04154525443229051,
      -0.05243249149981085,
      0.043613465441957155,
      0.012360067153348647,
      -0.02460785669372218,
      -0.03903581737248074,
      -0.03707479456159545,
      -0.02494156967791994,
      0.027301297719889702,
      -0.009115237529000165,
      -0.03478822075025909,
      0.03806896892144989,
      0.030627825530585528,
      -0.03829148055165741,
      0.039475143629156245,
      0.009544075960608203,
      0.028853334589455586,
      0.016924560849112275,
      0.039418232757734734
    ],
    [
      0.028808311081407276,
      0.03388027733893633,
      -0.03025928467991407,
      0.01927851864687393,
      0.0030794981504837617,
      0.024191090144500584,
      -0.006141307635207687,
      0.0382682473338996,
      0.005506819342210759,
      -0.023550486392943458,
      -0.02658143077867983,
      -0.03584432724466001,
      -0.00042405301502529234,
      -0.04328216670222123,
      -0.003009489294398108,
      -0.03573714964043675,
      -0.0006470560977671142,
      -0.00030019526153295855,
      0.004104419655757083,
      0.03573679088029509,
      -0.047874414036079525,
      0.03316279756717497,
      -0.00136720915415367,
      0.00611069691196917,
      0.016453910749292585,
      0.03337231059820069,
      -0.012915287357218109,
      -0.00805964835980353,
      0.04565657649814781,
      -0.04263333663435805,
      0.013925200371219644,
      0.01360870366785672
    ],
    [
      -0.04713750901489106,
      0.010988946595927907,
      0.01826949877931258,
      0.043151699368579016,
      -0.016954382922082834,
      0.04818971272084051,
      0.0010626650378990714,
      -0.0015324445387931542,
      0.039764041942843706,
      -0.04660429614282717,
      0.021832027569847194,
      0.012160770811645938,
      -0.016152064077241707,
      0.03535515281689166,
      -0.012741346676695358,
      -0.0023886052888367347,
      0.0031919017397500087,
      0.02686017645764404,
      -0.028730102736176433,
      -0.005794742405194968,
      -0.008129363026087246,
      0.005106092249420781,
      0.03174905905687815,
      -0.02016899933352496,
      0.03297313174141088,
      -0.009753851947715194,
      0.001037224505529885,
      -0.02291297014238212,
      0.0007859844149056826,
      0.04710564671279623,
      0.015462284100818945,
      0.029199389348624767
    ],
    [
      -0.01689679578779331,
      -0.018262065329074144,
      -0.02006381479014092,
      0.008651236094473687,
      0.013483249332701855,
      0.028433525858388434,
      -0.04599265717565203,
      0.022267653461019745,
      0.038571455853676724,
      0.004549930545484419,
      -0.04500879063725922,
      -0.020841151650808652,
      -0.04968182800752106,
      -0.03333324567054149,
      0.043254037051752174,
      0.01141196163515771,
      0.016739601553376893,
      0.028611430327359737,
      0.04023396152851402,
      0.011197219438031683,
      0.011818343182753255,
      0.01253832360880183,
      0.01848060955502403,
      0.00930279841800349,
      0.018897955510079684,
      -0.029367633632301497,
      0.018116325826246456,
      -0.0042541003689148815,
      0.026618712787344102,
      -0.04025510141426223,
      -0.03178074526626693,
      -0.04628989945457128
    ],
    [
      0.02745732642133004,
      0.04142226456227642,
      0.015575311395512619,
      -0.013113299283096926,
      0.03226131071515548,
      0.02867966689069544,
      0.00620950669324056,
      -0.02419972877021842,
      -0.01979486428356836,
      -0.007819081053572416,
      -0.018153744358951472,
      -0.00706667460622381,
      0.013827249935717309,
      0.04193426856828569,
      -0.04492898341843664,
      0.006788696988357676,
      -0.04661934623841358,
      -0.03771820433748348,
      0.03085201161694587,
      0.0078018732546844645,
      0.04056731173259188,
      -0.004312935861450575,
      -0.04977599967972069,
      -0.011445634506223958,
      0.009223662849434992,
      0.04366564828014173,
      0.047998481352688784,
      -0.0025145818634253695,
      -0.008328631475366048,
      -0.03864329377584261,
      0.014293084013973091,
      -0.02876764110352693
    ],
    [
      -0.03482309165472991,
      -0.04846205805740949,
      -0.04952779276220555,
      0.018374756885610848,
      -0.03783362915170399,
      0.046633543537057315,
      -0.0411871331621713,
      0.036954914868881895,
      -0.037108813009132685,
      -0.04822607319753927,
      0.021924862500366675,
      -0.02371617489704307,
      0.0239145201306401,
      -0.027656649075403845,
      -0.04739945084074571,
      0.026617272713582867,
      0.019131528608671674,
      0.0360362498395485,
      0.02331632957137676,
      -0.042456837807149754,
      0.013702300069542836,
      0.020954265373462223,
      -0.0007893117300048243,
      0.04288428135939222,
      -0.02575076553659323,
      0.04720827782614066,
      0.019090361134250916,
      -0.048659856900801414,
      -0.049062452997944955,
      0.015597456164024713,
      0.031746596844134944,
      -0.04203466964924976
    ],
    [
      -0.01889430748535443,
      0.02294516053778281,
      -0.03339094908170677,
      0.03609374169716744,
      -0.00136730830735362,
      -0.04403223396100875,
      -0.013243302710968002,
      0.007496323233668856,
      -0.006125211557044743,
      0.01769045360245846,
      -0.03550368838724488,
      0.028175103048095538,
      -0.014437603125671855,
      0.009834608061687103,
      0.015369734722070925,
      -0.007452237736650242,
      -0.009456024539041381,
      0.028355379304414292,
      0.04372823797410826,
      0.02927074828842482,
      0.006376015471975574,
      -0.02126289121548034,
      -0.046187596371113464,
      0.047328918786763395,
      0.021861623299558305,
      0.031222799137890216,
      -0.014442257569047781,
      0.010284927816835843,
      0.04861932303789379,
      0.03249950636305353,
      0.010229686598681419,
      -0.019132812061653244
    ],
    [
      -0.007127307120833949,
      0.038842957503600166,
      -0.012315902894936405,
      0.018482646722943082,
      0.010178366419230315,
      0.039640685590758167,
      0.030747630540171274,
      -0.02166906916457847,
      -0.049821369422199155,
      -0.02368677040561789,
      -0.007733917882444657,
      0.008640804937214128,
      0.03143507949735166,
      0.03802194896307675,
      -0.045614121527452325,
      0.033529115490591545,
      0.03131849361699659,
      0.036799844916495864,
      0.007215235021812818,
      -0.022103814085890364,
      0.03440354481116924,
      0.030937235798029254,
      0.017128777885930955,
      0.04160371956952227,
      -0.01519982838790105,
      -0.041211947936289,
      0.0060608838467972655,
      0.02966289222759506,
      -0.02967441821458517,
      0.024858727810939563,
      0.04312706498434342,
      -0.026590458676882946
    ],
    [
      0.01069448689417418,
      0.017774982369676142,
      -0.0034605487826112695,
      -0.029340499756716553,
      -0.02452648819582593,
      0.025117552107666773,
      0.02916658979543828,
      -0.004028254344640748,
      -0.041226206205515176,
      0.030660859990535142,
      0.027223271167327333,
      -0.02583232705505874,
      0.008333615294691723,
      0.040956855839053445,
      0.03816797152371756,
      0.0020353284628888625,
      -0.002520088088653529,
      0.00909805804733327,
      -0.03051737064406389,
      -0.03113944059570299,
      -0.03089350344341113,
      0.019448875175523763,
      -0.012659680213993708,
      0.006510495261252728,
      -0.010073094128453104,
      0.0015718189935079647,
      -0.035222210342585464,
      -0.04545638788298418,
      0.04927589912660987,
      -0.012762985283186647,
      -0.03922007411242223,
      0.013277150367231124
    ],
    [
      0.028743555628662674,
      -0.034378556985451246,
      0.009728323129736446,
      -0.015508486919738084,
      0.0019463613180144273,
      -0.04793863009463307,
      -0.046641163896229715,
      0.04904046421555472,
      0.036611589754259745,
      -0.0013655918578285866,
      0.006724825387082296,
      -0.024921248258455625,
      0.027380720210167783,
      -0.010985701117475289,
      0.045721212610918945,
      0.027311062573842255,
      0.03278747504297641,
      0.046138608143855314,
      -0.025080482139699878,
      -0.04560434305183013,
      -0.030208970624255368,
      -0.0322212350157148,
      -0.043280494360856576,
      -0.04496239123362495,
      0.006696270750100287,
      0.035876376510330786,
      -0.0026291989874409893,
      0.04458533434874326,
      0.04166271794253484,
      -0.04371340797321317,
      0.009851429212933544,
      -0.010254237373851364
    ],
    [
      -0.03801101740182341,
      0.045915966927611594,
      -0.024293504704472276,
      0.006439891587554793,
      0.014061515588589844,
      0.04564594448196029,
      0.016970553496067145,
      -0.010688171399630398,
      -0.005171211856435625,
      -0.03402687568601736,
      0.04656675866409934,
      0.0473434947267271,
      -0.028561619583509265,
      -0.04956934755879801,
      -0.023032659261429635,
      -0.014241869987950054,
      0.04137681666342571,
      0.04001738390904249,
      0.03285201704413631,
      -0.04435517685526545,
      0.027287425179460704,
      0.02135643477758004,
      0.012278609261970138,
      0.0485745451161664,
      -0.0433304619622615,
      -0.036051971300219275,
      0.026832953692701462,
      0.04371404132790425,
      0.018597571929523767,
      -0.020359854062262924,
      0.008988923026847284,
      0.02579342021975911
    ],
    [
      -0.0394680100960545,
      -0.017610422193525512,
      -0.0243119834043477,
      -0.037584959184743395,
      -0.0018666339762861994,
      -0.03313862915929325,
      -0.026152032380206736,
      -0.035685069177822416,
      0.01775832335990268,
      -0.048749822586039625,
      0.02170525272795428,
      -0.027984946612705446,
      -0.04548703125702751,
      0.047456328872990304,
      -0.03079670219970498,
      0.04245828610346064,
      0.03419260874897715,
      0.03945344320635384,
      -0.035324557181451305,
      -0.00679286452831242,
      -0.039000531589819275,
      0.04309225617477586,
      0.03792902493524707,
      0.012299655294997831,
      -0.006450470103959172,
      -0.014830445745814366,
      0.029468586415828033,
      -0.0019431136627214378,
      0.011838341622379095,
      -0.0348855394564207,
      -0.027771096383809424,
      -0.044349462035341694
    ],
    [
      0.0213732433942467,
      0.005355211490998839,
      -0.03551782702021099,
      0.03706625896227241,
      -0.023356509801640876,
      -0.008804490714288368,
      -0.0344247924557586,
      -0.022889286599315453,
      0.03396772066854952,
      -0.016542778167916987,
      -0.03319895683245299,
      0.002215905374125624,
      -0.017356114534078794,
      0.04624089066902319,
      -0.043276957393788416,
      0.046413007251201614,
      -0.04860887007626498,
      0.040501179700491954,
      0.017348345172540552,
      -0.030455506000739364,
      -0.0021764150990873556,
      -0.01986557102140006,
      -0.019818197316055587,
      -0.0305900565949564,
      -0.015933042449120863,
      0.05113329290299822,
      0.044915368607126936,
      0.04283660941393039,
      -0.04106263626257211,
      -0.018976061796272287,
      0.03944458708488472,
      -0.044233565544369254
    ],
    [
      0.022646255562686037,
      -0.02064987277426325,
      0.047862077197971836,
      -0.048397165956972375,
      0.030702310150673533,
      -0.01591077832923404,
      -0.035985697005121116,
      -0.04980769694628944,
      0.03322351931850747,
      0.0026578884651502484,
      -0.03141971854458234,
      -0.006670995472474144,
      0.04115905441831056,
      -0.028182188174142423,
      0.007459474477719258,
      -0.03622221263924148,
      -0.0317074986285595,
      0.02685790754951379,
      0.020988212160230085,
      -0.030280626983518757,
      -0.04192805310137334,
      -0.04145371099500308,
      0.01119453431261895,
      -0.00038912119726062226,
      -0.022437574029049685,
      -0.02942925797461095,
      0.01108696348967143,
      0.020752889131248644,
      0.031143747584151744,
      0.007941923808149728,
      -0.02975461435093869,
      -0.04343040984062487
    ],
    [
      0.023271963339192,
      -0.009185325252948186,
      0.022166190619603808,
      -0.04446294276999916,
      0.031064847500421253,
      -0.01647689805018133,
      0.03419077591288491,
      0.03645053352835958,
      -0.0006970453499185131,
      -0.04845520950568393,
      0.0410239466264783,
      -0.0025236903743294076,
      0.037039937029190347,
      -0.024962455660840464,
      -0.030535082649196292,
      0.033232854675219706,
      -0.012649781044799949,
      -0.033680554976525334,
      -0.012908788839646733,
      0.01004851151232303,
      -0.049321063070925666,
      0.0012106812528885431,
      -0.0052771486934886595,
      0.001844245614922066,
      -0.037333725165771554,
      0.020497784242673584,
      0.031878110192798806,
      0.03643071175110237,
      -0.017624818325815056,
      0.020679952294831494,
      -0.011738870115095452,
      0.0251316491265697
    ],
    [
      -0.04389556147244029,
      0.037226656974177444,
      0.04539708366307188,
      -0.0005244706032712845,
      0.001330728762988148,
      0.003032670467586724,
      0.003733303609106215,
      -0.047931219455944155,
      0.04672095686489143,
      -0.02764478392271591,
      -0.031803256589504836,
      -0.04199983151444447,
      -0.025450670317704996,
      0.028151093240247532,
      -0.044142099758605044,
      -0.039525648843180834,
      0.02258821806069818,
      -0.03107500834319885,
      -0.04779683141801406,
      0.011588971239503237,
      0.006497085678571803,
      0.0017394712212110955,
      0.016226207128506604,
      -0.038522512823217836,
      0.038174556655908375,
      0.020390288493636274,
      -0.042222025395834924,
      -0.03793090389927311,
      -0.0001826936931677296,
      -0.0005164522223801649,
      -0.022129370932439857,
      -0.03780706121646078
    ],
    [
      -0.009435109501185607,
      -0.036307556705426944,
      0.009181921176348393,
      0.03610810075473223,
      -0.03527798621594906,
      0.007285050945044476,
      0.02465770871506897,
      -0.03356769610330881,
      0.03259907571140424,
      0.04375645839070909,
      -0.011131491972025271,
      -0.009049209721998477,
      0.03376140717113019,
      0.0004832320011516905,
      -0.008346737913691485,
      0.044655719250015415,
      0.029640693489407777,
      -0.016551049246922904,
      -0.02563436094007348,
      -0.015403309354693692,
      -0.006295043861247279,
      0.04688386662222204,
      0.028718200182098877,
      0.04214481718106391,
      0.03236221540735642,
      0.033562750871437355,
      -0.04251596483482381,
      0.001572891437179672,
      0.04600680197954629,
      0.04243975226083927,
      -0.024933805093525212,
      -0.007789698533963857
    ],
    [
      0.013286197304488306,
      -0.013533326858560393,
      0.003100119574569888,
      -0.04307369830474819,
      -0.006696088797993946,
      0.0005166408217608233,
      -0.0479173715099533,
      -0.03605933009033803,
      0.046974740128080346,
      0.02766404435888629,
      0.04369547355351169,
      0.011618635740955908,
      0.030092895695946257,
      0.03228604436371058,
      0.04132012197288438,
      -0.04531393678962244,
      0.016632449617357253,
      -0.023664202005190326,
      0.017405018644540745,
      -0.020856475907046562,
      0.003233945816367131,
      0.04165313022791222,
      0.007647882426717537,
      -0.024281337678511702,
      0.0038539973084257854,
      -0.008387316676303155,
      0.04900703097077156,
      -0.021552382750083546,
      -0.018319160865392602,
      0.013770337859927076,
      -0.03788066613534707,
      0.009430886079566348
    ],
    [
      0.04560069584577408,
      0.0013651632907712308,
      -0.023166611307403804,
      -0.0033566313528401595,
      0.003383135688048385,
      -0.03518038476207708,
      -0.0376076066886342,
      -0.03686307006687637,
      -0.02064249966258538,
      -0.00934996537592365,
      -0.021171014575502398,
      -0.024950477980221448,
      -0.04083355792070108,
      0.006121943929902959,
      0.03364181043347413,
      0.01082959733275416,
      0.0068710630500748,
      0.015054606610025143,
      -0.029564485294211226,
      0.020544204568114056,
      -0.0029770364840881027,
      0.0043474092609775816,
      0.012393282857942932,
      -0.0031506706816756924,
      -0.01921611369188188,
      -0.02556100987775238,
      -0.028129823552694715,
      0.0013458202454979902,
      -0.012127381835644059,
      0.008174107919003774,
      -0.04870610140648605,
      -0.0147411951752706
    ]
  ],
  "w2": [
    0.051097742554985684,
    -0.029213033697770712,
    0.009682647189888144,
    0.007227200469798017,
    -0.02535570383204934,
    0.04324400919907507,
    -0.009360097720794025,
    0.022154144698381954,
    -0.03685263494203835,
    -0.034215087537928,
    0.04428008650010299,
    -0.010562307182839317,
    -0.026115830677092906,
    -0.005153557860896792,
    0.002159910704463847,
    0.020999401402419578,
    -0.013842228747188863,
    -0.03524550854766306,
    0.0440309011272416,
    0.035783373901001295,
    -0.05121884472345518,
    -0.008392777728422588,
    -0.018659082765087574,
    0.0030289244941082254,
    0.014079792989803752,
    0.03041296810000744,
    0.04637207479530844,
    0.008133306698310925,
    0.018259322165802196,
    0.019042254623569125,
    0.03890761992479504,
    -0.0005023294646003852,
    0.01761844131247349,
    0.014063142767579315,
    0.027531106115608037,
    -0.030296145295000222,
    0.04691428198233632,
    -0.034782919198432606,
    0.03218390564072527,
    0.013144106113792428,
    -0.0008690849897874714,
    0.02600770419062926,
    0.014437806739577164,
    -0.001082385183578251,
    0.039660507330765045,
    0.03469514025608948,
    -0.0025963229912234842,
    -0.0004170859425388565,
    -0.021387863816659157,
    0.002211193081277765,
    0.021686430160849417,
    -0.02009888951861059,
    0.0033070195312321386,
    0.007052417291243109,
    -0.024735176231865986,
    -0.019142126032038118,
    0.02764183474635104,
    0.04459189112344255,
    -0.0013062636403759448,
    -0.007536438190032569,
    -0.019286459125239075,
    -0.012753808134497023,
    -0.02969398062320433,
    0.004027265102426296
  ]
}