{
  "b1": [
    -0.056952903998585935,
    0.08438894672365009,
    -0.00068057423817269,
    -0.053485225130610596,
    -0.053171398370712435,
    -0.1021418710853555,
    -0.021140540620872807,
    0.025560400853240395,
    -0.00037721884187601933,
    0.13795780815912434,
    0.05387522054544975,
    0.10147594677000993,
    -0.09217731565035069,
    -0.0002796985332568654,
    0.005282471956765539,
    -0.0725937055469596,
    0.1045854681764348,
    0.11638573452648875,
    0.002620895578840259,
    0.037553469117571514,
    0.04876445668682439,
    -0.037321471657839334,
    -0.00022962996721681504,
    0.014834334499139252,
    0.06516644722573214,
    -0.03159643722586965,
    0.0003673852484810822,
    0.035280808597072486,
    -0.0247405335082713,
    -2.566509027263404e-06,
    0.0011602107598182837,
    -0.1423281499411066
  ],
  "b2": 8.77445051560849e-18,
  "feature_names": [
    "step_frac",
    "remaining_frac",
    "is_two_player",
    "is_four_player_plus",
    "is_ahead",
    "is_behind",
    "is_dominating",
    "is_finishing",
    "my_ship_share",
    "my_prod_share",
    "lead_ratio",
    "base_score_norm",
    "base_value_norm",
    "eta_norm",
    "send_norm",
    "source_count_norm",
    "needed_norm",
    "target_prod_norm",
    "target_ships_norm",
    "target_is_neutral",
    "target_is_enemy",
    "target_is_friendly",
    "mission_attack",
    "mission_expand",
    "mission_defend",
    "mission_reinforce",
    "mission_swarm",
    "mission_snipe",
    "mission_comet",
    "mission_other",
    "enemy_priority",
    "committed_load",
    "is_defer"
  ],
  "hidden_size": 32,
  "input_size": 33,
  "kind": "mlp",
  "temperature": 1.0,
  "w1": [
    [
      -0.039468586343014894,
      -0.09186798660613568,
      -0.039189096402689236,
      -0.035386998352624086,
      0.0065502232266774,
      -0.013452469577694953,
      -0.044241383612862076,
      0.0007435733189420258,
      -0.0724614126044093,
      -0.029556494015821437,
      -0.08929276241631574,
      0.4670445364093571,
      0.1007208079925127,
      -0.05857083979772172,
      -0.10378893240339312,
      -0.05721160533646488,
      -0.07203910740865536,
      0.16230119215289862,
      0.04803984614682581,
      -0.003962163159167708,
      0.03825246729134174,
      -0.09929138204461421,
      0.08665570437160328,
      -0.0043194470001957285,
      -0.0354596636333333,
      -0.014746171339344515,
      -0.0796208674799324,
      0.02978877450009248,
      -0.042277196998488635,
      -0.06726805705653441,
      -0.051496614531896974,
      -0.011581763643677802,
      -0.2929568633138592
    ],
    [
      0.002232712274034019,
      0.04034906372027335,
      0.0440202401822115,
      0.014354989266156911,
      -0.01078749003784788,
      -0.01469761279329648,
      0.0008953835632879286,
      -0.004681562362922465,
      0.01610976103482838,
      0.061235106656009855,
      0.08268806644705773,
      -0.6644910703945113,
      -0.1140924429917208,
      0.1209633467641934,
      0.12053170301760638,
      0.0636405135158531,
      0.09053150603900849,
      -0.09990434098836591,
      -0.09223764334974624,
      -0.019092772310042475,
      0.05693149562398507,
      0.029275052010805554,
      -0.047311393364442574,
      -0.07095246486579775,
      0.0169630797081647,
      -0.00887696149082255,
      0.08477284280650277,
      0.03994051895537233,
      -0.00465711263321393,
      0.11636080875793531,
      0.10774481004548415,
      0.006271904919029243,
      0.378091321993825
    ],
    [
      0.033613666423807885,
      0.04378753527262098,
      -0.003473864174596475,
      0.016680047783674955,
      -0.04364722401165627,
      0.020162764948055703,
      0.014917909312177305,
      0.04930959394666341,
      0.03184275792055155,
      -0.021848403049691448,
      -0.012010243245655208,
      0.15412434609832076,
      -0.007477090922305077,
      -0.022042216448754804,
      -0.047163328464151506,
      -0.04220053312992361,
      -0.06393472714904172,
      0.05943193489637109,
      -0.02426871799171883,
      -0.02341211393681692,
      0.005064251227097599,
      0.01866593956719069,
      -0.011177034024142633,
      -0.0007311054938373851,
      0.0036839058708787046,
      0.042700282533824796,
      0.017126803257279003,
      0.0359534579557894,
      -0.024681645266348144,
      -0.029597806372129082,
      -0.013696805609632526,
      0.03841563031831587,
      -0.02908096777749124
    ],
    [
      -0.05741513668013554,
      -0.08586345228157348,
      -0.06828597156770932,
      -0.02699736150295372,
      -0.0006554374225725841,
      0.0043936808062614826,
      -0.02182886380060625,
      -0.04959063966149361,
      -0.031083571654291188,
      -0.03374171898132005,
      -0.03478909143527178,
      0.552430257818242,
      0.12922494564956327,
      -0.08667776362268892,
      -0.028213231675554732,
      -0.010139773590434213,
      -0.11191432756144178,
      0.16346705170663064,
      0.07396210013058448,
      0.03962806921791122,
      0.007789826400748433,
      -0.04442659952703916,
      0.02519888332317381,
      -0.026460296511351074,
      0.021253196935839797,
      -0.014389382551790252,
      -0.10027009305007933,
      -0.03111879573004416,
      -0.0447789245359431,
      -0.08516771754755371,
      -0.10891559302989093,
      -0.04873050739610946,
      -0.31745051627281007
    ],
    [
      -0.0631185779800253,
      -0.0668104061672551,
      -0.08725447929601982,
      0.035301107200204934,
      0.01183327257013632,
      -0.038965936910600456,
      -0.024428696760537716,
      -0.015261045394629847,
      -0.03709289044965749,
      -0.05903846742263111,
      -0.00747592070863639,
      0.6032243189537264,
      0.12100699297516149,
      -0.09804170209911167,
      -0.09168945449270431,
      -0.06890853433131879,
      -0.09334877517649823,
      0.11080466365093544,
      0.07504999057999087,
      -0.028381810941256982,
      -0.05906158885780395,
      -0.002176008127013344,
      0.05501465457538357,
      -0.01789634402609059,
      0.008199928174674914,
      -0.01713656307572869,
      -0.059855873456676534,
      0.045776934360211144,
      0.02436342895106645,
      -0.060516828763528,
      -0.08596076932798545,
      -0.01196514241518653,
      -0.3437923524855608
    ],
    [
      -0.03236411491503385,
      -0.09888263133606762,
      -0.06181427433237698,
      -0.005925964140253383,
      -0.015231579972265399,
      0.02352232044132004,
      0.07161811552410294,
      0.03526287987466605,
      -0.012184454962334074,
      -0.009868876437457635,
      -0.048454668220284734,
      0.695164756217927,
      0.12881522560901032,
      -0.15427308737107812,
      -0.15107471495957064,
      -0.09566221099498048,
      -0.1549680222867416,
      0.1412602129803414,
      0.07743550788106374,
      0.07621066573423041,
      -0.06405035888441456,
      -0.030225782396741036,
      0.08039271931915111,
      0.09219220175111623,
      -0.018366730271911342,
      0.017291536015414413,
      -0.11780318442599474,
      -0.0329695395044674,
      -0.04569564419126398,
      -0.09917036490276128,
      -0.08177781495421013,
      0.03610381881022207,
      -0.4460915693086633
    ],
    [
      0.008793122096344998,
      0.008823833864093135,
      -0.05732880203225483,
      0.014030116748421754,
      0.04159251998623792,
      0.02456769950416537,
      0.026732955628457972,
      -0.0021967255405999754,
      -0.04093130282365382,
      0.020756743504670987,
      -0.03303158499395505,
      0.27952554172972877,
      0.10860504784093268,
      -0.05393044069267898,
      -0.03395994198967709,
      0.032528110656575016,
      -0.013624495282156687,
      0.027780312287006063,
      -0.0225681764013742,
      -0.03412725311640639,
      0.04325251573979146,
      0.005984674570434565,
      -0.004850780667909166,
      0.038651282156306956,
      0.050414493847198615,
      0.027027660073468695,
      -0.04218260522118308,
      0.003973951345167892,
      -0.042144172257378536,
      -0.08657503292032925,
      0.02338250736452761,
      0.015016206102048985,
      -0.13795639047450628
    ],
    [
      0.05239667016367423,
      0.01894134452898894,
      0.05724684611880976,
      0.03258176688965057,
      -0.030562409538626163,
      -0.020279028113077486,
      -0.023685905146517444,
      -0.025946060744166544,
      0.019397967288510128,
      -0.013879859964295872,
      0.011074756675536365,
      -0.377463815123968,
      -0.04421167629259048,
      0.04325529867997316,
      0.02181862233021733,
      0.023996581978669766,
      0.08390390073761284,
      -0.09248530515696812,
      0.015155299558536103,
      -0.0030549767843658436,
      0.004121047305148035,
      0.03019237924679161,
      -0.08397426021540545,
      -0.016406748184915002,
      -0.03550526902106056,
      -0.06637605494604089,
      0.06667321934577035,
      -0.03149876442556806,
      0.004548661773215949,
      0.06970696802756515,
      0.03593669774147659,
      -0.017706495550083204,
      0.189562944860773
    ],
    [
      0.005456678947939366,
      0.028050028694671544,
      -0.039639683648677135,
      0.005929951148257954,
      -0.025171857548786647,
      -0.02234885477974152,
      0.0272120420270812,
      0.0007713991792320575,
      0.006002199501508615,
      0.025837872303780134,
      0.04089466151497802,
      0.04040612966024494,
      0.02567753388992543,
      -0.005894009643951372,
      0.004155287556027348,
      0.018232831602402494,
      -0.00480403271958561,
      0.016682271308195214,
      0.002797445090469684,
      0.043240669787077454,
      0.020812796519933677,
      0.03729476400105093,
      0.04888716121584544,
      -0.023951418063801175,
      0.00799543873120371,
      0.046428959188373906,
      0.030209815994666107,
      -0.03650416902526459,
      -0.038836600052784304,
      -0.010063608341940526,
      -0.04367784604887684,
      -0.025934295897964834,
      -0.06259873913408578
    ],
    [
      0.09457590719717067,
      0.16635140987643993,
      0.16726678931499692,
      -0.06534958801688062,
      0.023962739117423464,
      0.005799377233648231,
      -0.02424190063655266,
      0.03828328336570755,
      0.1143922909958389,
      0.0310740289635226,
      0.15640644868661852,
      -1.0793782494956454,
      -0.1745945420424231,
      0.23538582861598148,
      0.17879087138160807,
      0.03488146208966517,
      0.15204564767159162,
      -0.24058685062697732,
      -0.12573463020393713,
      -0.03336577226988274,
      0.04607752961623565,
      0.09888815777405295,
      -0.12108251171753631,
      -0.02106535084534573,
      0.013568854592016066,
      -0.13686820342205663,
      0.118235173568172,
      0.016376009502429286,
      0.024756365189248262,
      0.10044260115004984,
      0.2084674434695874,
      0.025523074605690973,
      0.6754243379767655
    ],
    [
      -0.020162037741640465,
      0.03043164777980186,
      -0.0035834494812253628,
      0.030817318068901985,
      -0.022750273591620872,
      -0.03105703201301671,
      -0.008391869408770099,
      0.041141381618360895,
      0.055006341323333825,
      -0.0030350915977188273,
      0.007126257499773597,
      -0.36881580044287804,
      -0.07653286078033172,
      0.1005227921024336,
      0.011554365551483191,
      -0.018154560009601462,
      0.08974546259919626,
      -0.101178600088937,
      -0.06964038924528944,
      0.035483215365967505,
      0.02268132247906667,
      0.08315246339122667,
      -0.08205003486975083,
      0.018427936833158246,
      -0.04139275619670677,
      0.017238909571079663,
      0.045275452377064505,
      -0.014608982014393795,
      0.014149583111811427,
      0.11103784846536728,
      0.037601532682940114,
      -0.03761568833584017,
      0.2576903441764132
    ],
    [
      0.013505153440308929,
      0.062421093277938225,
      0.050504239121656386,
      -0.04317896917362708,
      -0.030744993612161882,
      -0.010894280653703898,
      -0.022075254233864264,
      0.025949825499856128,
      0.023128638140375867,
      0.03927966106523836,
      0.04712184166564861,
      -0.6127212641881796,
      -0.14814435209224183,
      0.09571371533756048,
      0.03386473141868816,
      0.06746525430298425,
      0.11014943334642906,
      -0.16850649155136227,
      -0.03687101335886676,
      0.03890294638597649,
      0.004805092901897797,
      0.09375233999725167,
      -0.038210367608941025,
      -0.01824610723062354,
      0.03383248101669961,
      -0.044937742872269565,
      0.07494151040579428,
      0.021065019919971787,
      0.06142898102560592,
      0.07904737429496951,
      0.14962829444992862,
      0.018920115523714632,
      0.38345925401081277
    ],
    [
      -0.06320407909455367,
      -0.10742209763482748,
      -0.12420327892683408,
      -0.021043308725454544,
      -0.030600624843045543,
      0.01950124762459519,
      -0.008308980460273235,
      -0.03367534797236243,
      -0.08155337482346708,
      -0.0031622572376123295,
      -0.02977962363923043,
      0.8131222123125683,
      0.12689380182710944,
      -0.1608407574684358,
      -0.10971798675756758,
      -0.05142564483796971,
      -0.15751297294466374,
      0.1806098103414701,
      0.06254443689322614,
      0.05826127359220234,
      -0.003896823085304905,
      -0.048393475614458226,
      0.020083678396431475,
      0.07651655479244249,
      -0.01884357587146005,
      0.04326734100876867,
      -0.14602592378436244,
      -0.014656531245092135,
      -0.02040289479090422,
      -0.10848113875380395,
      -0.14105977826252258,
      0.0031325196667271954,
      -0.5127954630344008
    ],
    [
      -0.023662863911041634,
      -0.041304358745159,
      -0.010261363964077485,
      -0.04584501761262067,
      -0.0477629121391546,
      -0.019608752671908595,
      -0.02672927041297435,
      0.008558328418163341,
      0.002795900362573763,
      0.024940797250774555,
      0.015528920460576339,
      0.04229501159477044,
      0.0443513190720596,
      -0.013835485235024871,
      -0.016252046362846585,
      0.04793085572979568,
      -0.035301511253054293,
      0.028129041587183146,
      0.01628961591516983,
      -0.04589617236552723,
      0.033765030253893144,
      0.038953440158776394,
      0.014840317839708544,
      0.023483338689168555,
      0.03214585834610395,
      -0.03512713362047488,
      0.0004983924343368338,
      0.0003172909908558893,
      0.03312065396754444,
      0.028487013670525984,
      0.03211688376394079,
      0.008407089661648045,
      0.03004548746951486
    ],
    [
      0.02084491761003598,
      0.024615085486693437,
      -0.022884938268428787,
      -0.046683130893899416,
      -0.036905971756178935,
      -0.01238102938887295,
      -0.04076365657902052,
      0.033582119979997105,
      0.00800440596511115,
      0.01483064376782435,
      0.0161904633344339,
      -0.18003847641705661,
      -0.05750137207427832,
      -0.019569944112176513,
      0.04720618995324605,
      0.03134575793818505,
      0.027546473977952606,
      -0.0455201862091143,
      -0.00041363099960431437,
      -0.045873079418757526,
      0.012652182274253307,
      -0.00599340927602104,
      -0.07426469092287803,
      -0.029962836012620692,
      0.021881932218453446,
      -0.03859510310116359,
      0.04457975357496418,
      0.048292854840548155,
      0.0034354210761207305,
      0.01657851317297958,
      0.0037838431493334933,
      0.018326211583499896,
      0.1334176903062202
    ],
    [
      -0.01876965377341931,
      -0.058317408008760833,
      -0.10362881281111819,
      -0.03048559792574656,
      -0.018231829283072917,
      0.015704772384414308,
      -0.014915549831416455,
      0.006776169786930831,
      -0.0803890889038578,
      -0.07215979867543466,
      -0.07843126134265647,
      0.5928774072680363,
      0.13431425304932448,
      -0.08881070387599754,
      -0.0874502079760185,
      -0.033838157245627304,
      -0.0948910566323541,
      0.1316486141784561,
      0.0073169164018266,
      0.04361452782943644,
      -0.05136067186216136,
      -0.007743692235054322,
      0.09091071593172532,
      -0.03168780186265153,
      -0.005046116021463366,
      0.06445229638262132,
      -0.021798210943494944,
      -0.007132464418992774,
      -0.03544779332641474,
      -0.11397623189861956,
      -0.03918636939026979,
      -0.027450320396133942,
      -0.33285247426212283
    ],
    [
      0.01098617599487162,
      0.10699203943191674,
      0.13004364513994193,
      -0.038145928314218,
      0.03218576797939055,
      0.00584470156693999,
      0.03990284737591251,
      0.02033370387940744,
      0.019690248928943967,
      0.07986953275812547,
      0.08170622205079295,
      -0.7544130971486467,
      -0.17266433291758848,
      0.1279588155986246,
      0.09018976197531714,
      0.028483774341545517,
      0.08021181011820812,
      -0.17684509348171734,
      -0.07968660660298377,
      0.03648870739499781,
      -0.012823815075029473,
      0.09019122153014722,
      -0.01908582313600048,
      -0.050970215249899455,
      0.04652913888335258,
      -0.02207735986379762,
      0.127696486233244,
      -0.018442863309862285,
      0.0026621539747660305,
      0.09378349778423352,
      0.16915631937891312,
      0.006828695806661567,
      0.40897993731001364
    ],
    [
      0.04705447463384542,
      0.0939012597887366,
      0.06600917223630838,
      -0.0542655276827531,
      0.02608255466735387,
      -0.018114922649147845,
      0.04647644855987259,
      -0.025067528358818147,
      0.03136996493647007,
      0.047107493328063126,
      0.06142247400105138,
      -0.7817138829823437,
      -0.08580971527491306,
      0.18923801583815122,
      0.12959806769861598,
      0.06619531559255988,
      0.16596855474427763,
      -0.13284366114418264,
      -0.05911394328539359,
      0.01861391644365524,
      0.00498254263081398,
      0.09292938393674105,
      -0.050650560161809084,
      0.004576705093356985,
      0.020895495345585137,
      -0.07024728481922872,
      0.049725103556437014,
      0.04556797489554822,
      -0.019922113882238513,
      0.1073880967276589,
      0.11905510750522559,
      -0.022931848309382746,
      0.4852697494798779
    ],
    [
      0.047985078131796484,
      -0.021362198959752055,
      0.017224574002233005,
      -0.019056780056743636,
      0.006094667700507744,
      -0.010278869541105294,
      -0.032530057983473554,
      -0.03383430385949419,
      -0.028070012063041626,
      0.041480753717282944,
      0.002042188641505483,
      -0.12162449021055263,
      0.01318814772519332,
      0.06318209914414011,
      -0.005049401365306867,
      -0.03318413565978753,
      -0.024952094339656745,
      -0.06622947694478856,
      -0.02394466325546575,
      -0.03863428372754436,
      -0.029911908823904453,
      -0.01997506300420821,
      -0.005662816908288556,
      0.039088385600674985,
      0.0216905715604775,
      -0.012311759946530774,
      0.00016085423376677803,
      0.002847021322072132,
      -0.010420376019369884,
      -0.005528074553947153,
      -0.04050089750310067,
      -0.02222849735844647,
      0.09084776327303234
    ],
    [
      -0.016315651817152495,
      0.03789304387868332,
      0.04413350588599265,
      0.03475422565820283,
      -0.027533322207814667,
      -0.021461071804320952,
      -0.02615657302473715,
      -0.010024286325431087,
      0.01107779446491637,
      0.059975203331062765,
      0.06368133471884597,
      -0.45176755490738923,
      -0.16407470589494658,
      0.03501521229674472,
      0.07393709597828704,
      0.06290753340182645,
      0.07376279985688998,
      -0.10873110767225204,
      -0.0909352647179027,
      -0.01903842311196393,
      0.039233074447428955,
      0.08175257535358073,
      -0.022776344544694172,
      0.0290356870041535,
      -0.02573445441611416,
      -0.06368231335109965,
      0.02064776192431806,
      0.003903895518171427,
      0.028205398673960057,
      0.1165063074597858,
      0.06538682255611991,
      0.01366605116732245,
      0.3044338505536058
    ],
    [
      0.018068968647390635,
      0.05391454816867512,
      -0.0015576615299725362,
      0.025558422181333664,
      -0.02778663926227561,
      0.043537759331129716,
      0.00963732910040632,
      -0.019621773837182756,
      -0.0160076434519809,
      -0.006253797290336203,
      0.05044546255390141,
      -0.410544474752555,
      -0.13117236392254902,
      0.03535010430888628,
      0.06126040993140806,
      0.033086382020534245,
      0.06844172707731555,
      -0.12566899825149977,
      -0.021329639273192407,
      -0.05731340809602973,
      -0.013328063214496696,
      0.046673284819583674,
      0.0024631833738600183,
      -0.0031786921459401444,
      0.03790733999471122,
      -0.022862620836657535,
      0.02332502533863701,
      -0.023797285885499876,
      0.05533810697963922,
      0.09053822327279414,
      0.036481545367865166,
      -0.048522157508729444,
      0.2600408658650433
    ],
    [
      0.0038626619691521863,
      -0.0453198844449401,
      -0.055203016643307214,
      0.016902738656681585,
      0.04463532644252564,
      -0.031743972258300654,
      -0.04573073584275238,
      -0.016194842965653367,
      -0.02428206004525243,
      0.003582075597949822,
      -0.059270848964671816,
      0.3828304647837077,
      0.10368410482179176,
      -0.06264766806913909,
      -0.06340327928684837,
      0.02755174999798134,
      -0.06922323106346784,
      0.11752800201347413,
      -0.0025287347809561495,
      -0.026495190971079982,
      0.01861218500835706,
      -0.05175382535955374,
      0.07809107641165682,
      0.008566567678602153,
      -0.02848024194418281,
      -0.009910632742941513,
      -0.04831348746470954,
      0.015176019102093059,
      0.03724656334775065,
      -0.0861176702520617,
      -0.053868448627129605,
      -0.02833069642544339,
      -0.15409288817300612
    ],
    [
      -0.03591052771773989,
      -0.045045575808694185,
      -0.04420822357415948,
      -0.010658912202784808,
      0.039804533901486874,
      0.03836489050178457,
      0.023260358299354147,
      0.049752980529786044,
      0.043052372634624296,
      -0.017172479110923383,
      -0.03164639880290767,
      0.020768482414594558,
      0.019021872532321793,
      -0.04387170127172408,
      0.02909826708331736,
      -0.01123233232427066,
      -0.0002490353547601703,
      -0.01934899906610433,
      -0.03407136619053253,
      -0.05197158023203702,
      -0.030544316400441446,
      -0.004299332087245899,
      0.033265843154288315,
      -0.04021180610658896,
      0.04986739454772741,
      -0.02931111486391629,
      -0.010577007626797592,
      0.03211959887263632,
      0.03252477991410709,
      0.0004483739873130863,
      -0.046663831018766255,
      -0.00265337988149135,
      0.0066275466753935065
    ],
    [
      0.04828337526410376,
      -0.015863046756406086,
      -0.00211638592605771,
      0.040050744048578175,
      -0.04829229264985407,
      -0.006099195106649755,
      0.028213499903127874,
      0.026666800234297374,
      -0.04011817424648155,
      -0.040912522131801174,
      -0.03365318282711459,
      -0.2189115929167816,
      -0.09181130705399193,
      0.0679481034979474,
      0.07078848227077107,
      -0.005027323274787025,
      0.021579941289526696,
      -0.015570349129645044,
      -0.010046325423598658,
      -0.03058419939148015,
      0.014485583443378053,
      0.010462135563713703,
      -0.058937095615186536,
      -0.06189983858248981,
      0.025806485055276024,
      0.02862758412965902,
      0.042494293496762536,
      0.045238551535915494,
      -0.04209877607822177,
      0.014289837551379699,
      0.01451304918602639,
      0.04560558989095391,
      0.1963281421487349
    ],
    [
      0.013395753886343996,
      0.04027112930882047,
      0.044967637127743994,
      0.001436792109437893,
      0.042207076097048435,
      -0.023391886068277985,
      0.0294311381032586,
      0.023848801332201644,
      0.06042002839210562,
      0.05220669339081926,
      0.0613219984725229,
      -0.4862745708071942,
      -0.11102663783263376,
      0.07548821559215657,
      0.08809371320502733,
      -0.011692310183306635,
      0.0484855859608442,
      -0.08197907122091345,
      -0.061643813062395844,
      -0.04902443091352304,
      -0.029778964815178777,
      0.059088981818006855,
      -0.057301517772549854,
      0.032273124672235365,
      0.03976959856027689,
      0.025711860759155308,
      0.032316496920752814,
      -0.039905768002269755,
      -0.0301030232225905,
      0.07452410947693629,
      0.09499306718187532,
      -0.006192281093362312,
      0.2554904896474213
    ],
    [
      -0.018427365013534976,
      -0.019565672637705405,
      -0.0070080457749699,
      0.02182221261401833,
      0.03550242878961248,
      0.011870210724749631,
      -0.036227331145247614,
      0.03408711798036353,
      -0.033909070960803034,
      -0.0052309229325318025,
      -0.03719567173481125,
      0.35223205998287654,
      0.047050571109935366,
      -0.08371677709852784,
      -0.05748063003764087,
      -0.05187325004165977,
      -0.010252125014165179,
      0.08707237917533925,
      0.006713654659694628,
      -0.009420056795903022,
      0.049688822680150645,
      -0.03228091956158958,
      0.011277012838479603,
      0.03881994819137674,
      0.01762336440663116,
      0.06394088759039311,
      -0.07663869797747352,
      -0.003754507070070102,
      0.024907595216474468,
      -0.015686011504659335,
      0.005690667201675822,
      -0.04570318121881508,
      -0.20871180024928937
    ],
    [
      -0.03793643896909675,
      -0.03067529668360078,
      0.04751977124351267,
      0.008354260402832239,
      0.04306140496788499,
      -0.01265472087298072,
      0.03663479743984582,
      -0.005088614223120969,
      -0.02387009242866734,
      0.02789004030078207,
      0.04481018099404116,
      0.01321580718608286,
      0.02517096652929868,
      0.004562990572568576,
      -0.03790340493625587,
      -0.014543638672581105,
      -0.047181800636722344,
      -0.017960399052964187,
      -0.019377833376064312,
      0.011587202007866329,
      0.02168341088575165,
      -0.03745242962467915,
      -0.036441950556296454,
      -0.014548465707175037,
      0.01597733298238783,
      -0.02804129294181679,
      -0.02469918340985111,
      -0.029765250700174092,
      0.02844637079324551,
      -0.004457833567980461,
      -0.04273197482989477,
      -0.03985651091980237,
      -0.04257180204898297
    ],
    [
      0.023304172069879985,
      0.04919900316969787,
      -0.011735614910776479,
      -0.03251044190657632,
      0.017500109426354108,
      -0.007170855124419715,
      -0.02654331812554821,
      -0.019240423725660618,
      0.059685455885825016,
      -0.005885268425395207,
      0.03194978885130097,
      -0.48066229661602217,
      -0.1200461156920028,
      0.11065914292811067,
      0.10304837313820747,
      0.00835417151353486,
      0.04722799416529206,
      -0.0891843111761885,
      -0.06907094201689486,
      -0.05542869719378831,
      0.037876943133351125,
      0.03595876093756856,
      -0.022795062402413538,
      -0.025309542039706423,
      0.03604538713428201,
      -0.027408229161166864,
      0.018363687454588273,
      -0.04682843038618931,
      0.015069739181939287,
      0.08213565372254346,
      0.08186447741788407,
      -0.04182903251733386,
      0.27499125018080733
    ],
    [
      -0.02044792470120435,
      -0.02429422721132248,
      -0.052021872027424754,
      -0.025043855517138516,
      0.0011313542705846402,
      0.0374165089458927,
      -0.04002380635361207,
      -0.0009490350234837797,
      0.020138745730120068,
      0.037318527856285595,
      -0.049385821774686735,
      0.2597588576596166,
      0.11654549531883765,
      -0.0032630104043366013,
      -0.030269537038825022,
      -0.05923547066023899,
      -0.0006508662628131319,
      0.05961928209354161,
      0.06418666145913048,
      0.01537606303667938,
      0.03705859105549683,
      -0.06665770050688082,
      0.06668537566510382,
      -0.01827613201408206,
      -0.008740019956958651,
      0.04809958602727111,
      -0.00028586529620351213,
      -0.032752995752003605,
      -0.03436090529426222,
      -0.056232347265780615,
      -0.02589654214685013,
      -0.011312835848484746,
      -0.20946232118703928
    ],
    [
      -0.02528453754794421,
      0.02248570256348287,
      0.0397368929010768,
      -0.0459045096441601,
      0.006225173223554662,
      0.025750653907950893,
      -0.04620319023546848,
      0.03382042596057266,
      -0.03822753402556653,
      0.009953095123801249,
      0.004997730627254593,
      -0.009874138420698283,
      -0.026023919190467197,
      -0.004798917503659402,
      0.011625587283827532,
      -0.006801825481174675,
      0.020164735198949683,
      -0.010494379102687993,
      -0.008151900289585299,
      -0.0482378923295616,
      0.009455741536593038,
      0.001956460184357851,
      -0.031368908401014334,
      0.025332213823828966,
      0.028365526996103348,
      -0.0053441091526055425,
      -0.029579682218434017,
      -0.002620154563137911,
      -0.038843507531345654,
      -0.033403957184959365,
      -0.007108859925945532,
      -0.04082861541303093,
      0.007354386483098874
    ],
    [
      0.0014018475603090159,
      -0.04476311015897149,
      0.014689419365675712,
      -0.041719121914520506,
      0.023600835235088338,
      0.027632043336204764,
      0.0014140288538839543,
      -0.04457350689764405,
      0.0010080914057884938,
      -0.011780339495095438,
      0.046140937137952434,
      -0.23773739969368757,
      -0.023664440309901356,
      0.07601015098842642,
      0.039153719376543224,
      0.03713652994666893,
      -0.005073651513964813,
      -0.0008349460843877514,
      -0.019211675880888478,
      0.04438027003428559,
      0.020537461401491507,
      -0.009978317758662564,
      -0.013467115744536986,
      0.03812870247058497,
      -0.04346774014594155,
      -0.0210970864657754,
      0.04680565460166545,
      -0.033375508810398594,
      0.043299710729753624,
      0.006519160013602061,
      0.031536495758725046,
      -0.035659825920411496,
      0.10581830493362605
    ],
    [
      -0.03734373324450037,
      -0.17149581578634593,
      -0.16573706911950653,
      0.034224585624862525,
      -0.011251512839908722,
      -0.030824987835811626,
      -0.03337239966502197,
      -0.033877065303495706,
      -0.025739548029302766,
      -0.04116153109616268,
      -0.07697349675662898,
      0.8890891164707175,
      0.16796741903687834,
      -0.2095866408089236,
      -0.13183655999786872,
      -0.05209754111417171,
      -0.16769861783532927,
      0.24440216642620163,
      0.08834701711953966,
      0.01127054219941103,
      -0.03564019423552269,
      -0.1112397559241583,
      0.09283526614068333,
      0.03716116305857082,
      -0.02140928693735697,
      0.10014378827870725,
      -0.14242918362598445,
      0.045721559872967825,
      -0.013181316679859322,
      -0.14041792963785296,
      -0.14033327017030206,
      -0.0027815284729704993,
      -0.5914096311165821
    ]
  ],
  "w2": [
    0.653562795631318,
    -0.8609802511501712,
    0.15524869858247511,
    0.7281509049062269,
    0.7629403540583375,
    0.9628444043129143,
    0.34568986182620826,
    -0.4665586393785827,
    0.07280035399162506,
    -1.4963526323897671,
    -0.5299069098557446,
    -0.8384798425105882,
    1.098434655262004,
    0.04013356540362819,
    -0.2441074650412235,
    0.7734170706211535,
    -0.9938494768062497,
    -1.0416495720211731,
    -0.14825235715050827,
    -0.6254123969421405,
    -0.5578571568853087,
    0.4848111171730393,
    0.013838645241596307,
    -0.31753999997108,
    -0.6230695271139705,
    0.4453287422401993,
    0.035428426831932515,
    -0.6150964519016477,
    0.38158290211610996,
    -0.01915852805777684,
    -0.255487134267617,
    1.2751739936167472
  ]
}