{
  "b1": [
    -4.449304773951481e-06,
    2.577145544518431e-07,
    -3.2923215910972077e-07,
    -1.5347335277378444e-08,
    -5.292477036690924e-06,
    1.2173860840995085e-06,
    -7.056206055405227e-06,
    -1.378197753049504e-06,
    -7.948051608475057e-07,
    -2.08066874649116e-06,
    -2.8745771274061177e-06,
    -3.40187910599072e-07,
    3.0136372531343205e-07,
    -1.7509391193520423e-06,
    -1.2957642227485988e-07,
    1.6478994328344428e-06,
    3.0710057307197393e-07,
    -1.5473314029220108e-06,
    1.1187490065316242e-06,
    -1.6074192534900296e-06,
    6.957928512835793e-06,
    6.014014388210233e-07,
    -4.281681481395408e-06,
    2.5760397423642796e-07,
    -2.792183204515382e-08,
    9.496687416582337e-07,
    1.4822148685799157e-06,
    9.024329698935607e-08,
    9.5793812002461e-07,
    -1.0040279129978726e-06,
    2.5473326106621566e-08,
    -7.297726442405778e-07,
    -6.693636363208555e-07,
    1.0815848430840173e-06,
    7.948117814141464e-07,
    1.904445019752718e-07,
    2.119885063079511e-06,
    -6.218112995081582e-06,
    -1.919014431737478e-06,
    -1.4594259477523175e-07,
    -1.0775660219117609e-09,
    -1.3683320890095382e-06,
    -2.028150635174195e-08,
    1.902931102188458e-07,
    4.373119992537294e-07,
    2.373356955897463e-06,
    4.097809806595996e-07,
    -5.576470019415481e-07,
    -2.2578585846100644e-07,
    1.6387702793484932e-09,
    -2.338606839818015e-06,
    -1.8436470352386124e-06,
    -1.984648940879749e-06,
    -1.5016709180113997e-08,
    -2.3906737190579054e-08,
    -1.201906305130876e-06,
    -4.6173517594265913e-07,
    -7.149751410227609e-06,
    3.5339104132739286e-09,
    2.3642235874928913e-07,
    -2.7796624319828615e-06,
    3.0727168805468853e-07,
    -9.379774217440201e-07,
    6.101922634282967e-07
  ],
  "b2": 7.318364664277155e-19,
  "feature_names": [
    "step_frac",
    "remaining_frac",
    "is_two_player",
    "is_four_player_plus",
    "is_ahead",
    "is_behind",
    "is_dominating",
    "is_finishing",
    "my_ship_share",
    "my_prod_share",
    "lead_ratio",
    "base_score_norm",
    "base_value_norm",
    "eta_norm",
    "send_norm",
    "source_count_norm",
    "needed_norm",
    "target_prod_norm",
    "target_ships_norm",
    "target_is_neutral",
    "target_is_enemy",
    "target_is_friendly",
    "mission_attack",
    "mission_expand",
    "mission_defend",
    "mission_reinforce",
    "mission_swarm",
    "mission_snipe",
    "mission_comet",
    "mission_other",
    "enemy_priority",
    "committed_load"
  ],
  "hidden_size": 64,
  "input_size": 32,
  "kind": "mlp",
  "temperature": 1.0,
  "w1": [
    [
      -0.01761769874913387,
      -0.03491953191232374,
      0.015088997999211427,
      -0.042756371333245724,
      0.003584321379228233,
      -0.013431108308741446,
      -0.04420455682730325,
      0.0007435733189420258,
      -0.04625347222839301,
      -0.006638223208206106,
      -0.043018906947312044,
      -0.04112935337394762,
      -0.0075752440249196315,
      0.03257134718101439,
      -0.0375392913275045,
      -0.027677215865492034,
      0.012940859336026381,
      0.04441470037850631,
      0.00760171737711262,
      -0.010192794815737547,
      0.04762551055929201,
      -0.04548533896218275,
      0.035846845904867954,
      -0.020899913647647966,
      -0.03557449166425625,
      -0.03821002930580657,
      -0.019151817589806566,
      0.03161263591200314,
      -0.03192736200760626,
      0.008005662455931635,
      0.013886897587844458,
      -0.012760824038865026
    ],
    [
      0.004774337084251637,
      -0.04372084478811328,
      -0.044039625288822326,
      -0.029404128718067347,
      0.01803898229144947,
      -0.007240769433059713,
      -0.01858502524776642,
      0.008556186350763873,
      -0.004681682107111895,
      -0.02002324485973374,
      0.02943820586680355,
      0.02004793560206625,
      -0.025571683035709208,
      0.007525367104826627,
      0.0024604287459949496,
      0.03751381398598158,
      0.022797276900948613,
      -0.020940085744093215,
      0.04809662967478221,
      -0.03829900639722739,
      -0.008187717821477281,
      0.025819934893802955,
      -0.034801546533949526,
      -0.0012092741751430064,
      -0.04607927429525624,
      0.01681353024328171,
      0.026457086621281312,
      0.007302594027738397,
      0.037547781183088824,
      -0.018511351367754496,
      0.01952979434192036,
      0.009437075947063858
    ],
    [
      0.007989473408215639,
      -0.004379796102017802,
      0.03399644881909499,
      0.044468109510793746,
      -0.0025903976680802694,
      0.016415220547467448,
      -0.04393338647243718,
      0.02014920213044239,
      0.014712608174955297,
      0.04930930867654628,
      0.03219214942881234,
      -0.021574238787435213,
      -0.011425778487152405,
      0.016848254278277967,
      -0.04772927320996277,
      -0.00383055367806319,
      -0.033162446437540835,
      -0.03834883892571819,
      -0.0441230382939931,
      0.02684532238462403,
      -0.03706597779813158,
      -0.02526086939983963,
      -0.010905029686677293,
      0.03716422095000185,
      -0.04194186987998614,
      -0.005079584756259481,
      0.00494399091440374,
      0.03833838264415125,
      0.031927983783574136,
      0.03637441905151304,
      -0.022158222780769392,
      -0.008470385177475297
    ],
    [
      -0.01412288943730031,
      0.03841926737248645,
      0.04577310504906388,
      -0.03490790942088911,
      -0.032378247878773976,
      -0.026804313318046426,
      -0.026666406979249133,
      -0.0015037269658643383,
      0.008912337814488356,
      -0.023725344319025028,
      -0.04959065500882886,
      -0.008099603529135739,
      -0.013073491984029585,
      0.006636654865805199,
      0.04530649996449791,
      0.019049361876763954,
      0.0015437577808581353,
      0.011767999842321292,
      0.01762177550533757,
      -0.044603978139020374,
      0.03995330100579522,
      0.02800020118467143,
      0.037451318413447655,
      0.029784044658257215,
      -0.010762109310873137,
      -0.010102349395991401,
      -0.03964629062896757,
      0.013428956568570904,
      -0.04377521783813124,
      -0.04326175367361468,
      -0.0291236968027188,
      -0.03376968067227644
    ],
    [
      -0.01599538649169112,
      -0.044747732088010035,
      -0.04998196428690107,
      -0.03487350677205721,
      -0.03985630395689027,
      -0.013639007796542903,
      -0.04745520381042216,
      0.03743323773738196,
      0.011403081975688407,
      -0.03514854467417474,
      -0.024779516821329,
      -0.015156849138059135,
      -0.013576027376064578,
      -0.037656968199620375,
      0.03484792045504562,
      0.04930894905121225,
      -0.003512317660678683,
      -0.0014212523255908466,
      -0.04135215561729215,
      -0.03986722179177244,
      -0.01573641617569982,
      -0.023443619838729408,
      0.03288553781215605,
      -0.03394212241394614,
      -0.04769042789547519,
      0.045092253790644826,
      0.0028257395042124767,
      -0.035339746110090935,
      0.004317242588211434,
      -0.047208756371405175,
      0.002805651616793956,
      0.047850697781567475
    ],
    [
      0.036332766660794234,
      0.019620895976864276,
      -0.02388726289097972,
      -0.013330020823882117,
      -0.03329411974050766,
      0.027193790840203125,
      0.0032604571353719953,
      0.02790548913381772,
      -0.017032602822050578,
      -0.02769470778833099,
      0.031152342063443583,
      0.04821528540962919,
      0.035227699913586485,
      0.03045200876787823,
      0.031943449583678125,
      0.023987606384092412,
      -0.027051349282068187,
      0.001267960445102569,
      -0.014591004946470188,
      -0.046905192856561584,
      -0.04720629245779356,
      -0.02225372077831481,
      -0.024082563673224346,
      0.01944898623931421,
      0.04565150763413378,
      -0.005262231568258714,
      0.043702120127624235,
      0.04880380582028602,
      0.04550006313213332,
      -0.013746986802100118,
      -0.02795255031429217,
      -0.02731460236526194
    ],
    [
      -0.03033075972894761,
      -0.029569719878433102,
      0.012399583537726426,
      0.04003083378841143,
      0.03403777477198399,
      -0.0020526573738461787,
      0.015290748078045506,
      0.029964374484966017,
      -0.04152749729117975,
      0.01605301934733974,
      0.04097065754911695,
      0.02834499678285837,
      0.025023180438437487,
      -0.0021381935860616216,
      -0.03219648424231317,
      0.028911779050513776,
      -0.01686361628704963,
      0.03029262691333922,
      0.04723185382703333,
      -0.010503794713539254,
      -0.009861318213229853,
      0.04476028866091797,
      0.022479866563421526,
      -0.03308727822329447,
      -0.03729616327021357,
      -0.03489125066138437,
      0.04048520957332394,
      0.030650198203219615,
      -0.035382569125612585,
      0.032737956566500734,
      0.0480235381386477,
      0.015724830937644287
    ],
    [
      -0.01495951173930294,
      0.004864626200924872,
      -0.036902992996808034,
      -0.048575706184389444,
      0.04708781922973419,
      0.01496746696738306,
      0.0026567265121525043,
      0.04336248050574268,
      -0.006620273495253902,
      0.03717303131453468,
      0.032614146983769035,
      -0.029055738395986304,
      -0.024836648219027042,
      -0.020787906822468324,
      -0.0258817100778823,
      0.008643372267157903,
      -0.023907636084332495,
      -0.008382570685568002,
      -0.03698007175701965,
      0.0411121771251209,
      -0.01462159760467411,
      -0.004295751044144947,
      0.008334877204184998,
      0.040540148947769236,
      -0.007937172929093484,
      0.04178061891991291,
      0.00016489411202315064,
      0.00318249624359338,
      0.002350658558716634,
      -0.04824987338642278,
      -0.00598888695925871,
      -0.03168933616179225
    ],
    [
      -0.049606898956790775,
      0.029916250244061336,
      -0.03276612358381598,
      -0.0026507067538043662,
      0.022518804575655617,
      0.005647562490221325,
      -0.01740257970027443,
      0.001834871270303684,
      0.005543555168546448,
      0.028426404790951057,
      -0.03938985309466803,
      0.006224943427811538,
      -0.025126395836275604,
      -0.022201199012779508,
      0.027146861317301478,
      0.0007712004779418453,
      0.00597975898474866,
      0.02634865270733506,
      0.04135473146655515,
      -0.005813740787510862,
      0.011252788434446038,
      0.0006930984252160625,
      0.00121614724353194,
      0.019134520109568186,
      -0.004765420773509033,
      0.0033180310913732756,
      -0.0021963681967915208,
      0.04415011275385007,
      0.01992178821802858,
      0.03780184618469705,
      0.044217264025196705,
      -0.024041327633930583
    ],
    [
      0.00595075910555057,
      0.0443246227326019,
      0.033997897670574095,
      -0.036286556410314856,
      -0.03784215979678634,
      -0.005788191172495638,
      -0.04274747070309766,
      -0.025936124154673015,
      -0.04269058321492802,
      0.016945039847491763,
      0.028391521048569048,
      0.03994360999382888,
      -0.03452982546393882,
      0.02174523758065482,
      0.01592543516520984,
      -0.03570262037476289,
      0.038038354914586604,
      0.04719319069328019,
      -0.027912444492975464,
      0.045070513635300534,
      -0.010174312528272812,
      -0.001096103913060361,
      0.04898714547442865,
      0.03306456769169667,
      -0.033853394011912084,
      -0.00686128065971961,
      0.0015605057804359058,
      -0.016088385566118014,
      -0.030425533386606887,
      -0.01795616211889548,
      0.0222130028453721,
      -0.04805067722122552
    ],
    [
      0.005404557496517483,
      -0.005957064396857206,
      -0.048194676494423654,
      -0.016850211085800936,
      0.01239135272379913,
      0.0012262284463455564,
      -0.043573795318052215,
      0.04850832441340994,
      0.028834509564277275,
      0.047167912444310234,
      -0.03952491514984425,
      -0.023653275106596136,
      -0.04606980993231068,
      0.027779193743726435,
      -0.022871967728467568,
      -0.03704516271371411,
      -0.007565122912022623,
      0.040767673452467616,
      0.03178854338362629,
      -0.023991422798636756,
      -0.03506320525959218,
      0.04176660055207067,
      0.007059492539325385,
      0.020189420376640864,
      -0.04105377921531923,
      -0.044235883017958055,
      0.01882055713485481,
      -0.007468295920427737,
      -0.042758590527680954,
      0.043672954866962495,
      0.013441076052528558,
      0.03016296753311357
    ],
    [
      -0.04162579921577833,
      0.03562252344930433,
      -0.043338086700464414,
      0.03627749690538462,
      -0.004623271524319248,
      -0.016084822271536382,
      0.005306071657892908,
      0.04266692840712272,
      -0.0232145254575265,
      -0.0370779181532241,
      0.0026911624648065717,
      -0.02612552866978218,
      -0.03905147977047757,
      -0.03383630111775999,
      -0.04497312590569608,
      -0.029823260170127656,
      -0.01883101180307334,
      -0.01944197635331977,
      0.02596820857225898,
      -0.021027115592049474,
      8.859986183940016e-06,
      -0.03218715270213244,
      -0.015299897787214113,
      -0.048206888335027065,
      -0.024955124380477256,
      -0.0484671006502472,
      0.023308038343231363,
      0.005104912801125361,
      -0.031054350350622165,
      -0.0024993648759027735,
      0.04346394379032483,
      -0.03937152577160823
    ],
    [
      0.03189208383301212,
      -0.006781940057833075,
      -0.0004995412905131454,
      0.033461393333022275,
      -0.01069095257212979,
      0.0006685952155165653,
      0.018774474932794438,
      0.04824405404147972,
      -0.015729273570381317,
      0.033228847689232,
      0.020672841528348085,
      0.01385032888190381,
      -0.00950061303895537,
      -0.015108224951228873,
      -0.04466190343985603,
      -0.03701806654398033,
      -0.04317667262331584,
      0.024543136649199184,
      -0.024299756403090324,
      -0.03385511029568188,
      -0.04155151272920693,
      0.03430696187212041,
      0.03705378212477483,
      0.016874567467548392,
      -0.021806671769337052,
      -0.025792414827718265,
      -0.020694150741966455,
      -0.0040547056605279245,
      -0.03424670601707943,
      -0.005223767262614307,
      -0.023675391936535797,
      0.046178497568268057
    ],
    [
      0.04726206653851169,
      0.004705586472771494,
      -0.02555710154493004,
      0.046566677005878514,
      -0.019046619494317806,
      -0.014341608298601295,
      -0.04989485944462705,
      -0.011837339338741782,
      -0.002537318424596381,
      0.0002747590659956969,
      -0.02990374551901618,
      0.0005310466370025489,
      -0.049499813760577285,
      -0.023548860017849893,
      -0.041047609598188116,
      -0.01004932070588725,
      -0.045892604558508916,
      -0.04764215419786418,
      -0.019542653745798364,
      -0.026764935251745448,
      0.008558328418163341,
      0.0029630958010176626,
      0.02505406301859925,
      0.015708475420441216,
      0.021599344003231147,
      0.0379056992725683,
      -0.011048352893955005,
      -0.01738652458736505,
      0.04847290850742963,
      -0.035006174039897336,
      0.022413826397063175,
      0.014322070308846444
    ],
    [
      -0.04562124020472333,
      0.03352882474696712,
      0.039194106011428864,
      0.012733212433192654,
      0.023384760118062054,
      0.031221891571239405,
      -0.03606936857450182,
      0.0023757284528517332,
      0.0004370304176158211,
      0.03349368972888952,
      0.030467630998454797,
      0.03267753263645391,
      0.008409706276566169,
      0.03930103534979315,
      0.01827380356495877,
      0.01933258113582234,
      -0.027041642633438782,
      -0.046818576005957055,
      -0.036671335631540625,
      -0.01395536528118835,
      -0.039508352893130295,
      0.033608103328111795,
      0.005852724649593466,
      0.012750597927579875,
      0.012622645893278595,
      0.01806443767139749,
      -0.0010705685140245502,
      -0.04966856728721521,
      0.02976975520708526,
      0.024854500307169836,
      0.0002969756598231014,
      0.003519932703197098
    ],
    [
      0.015930244575522987,
      -0.04339331647835189,
      0.023680480753657883,
      -0.024780646853730992,
      -0.04255386928943747,
      -0.02344417778046011,
      0.022935151703372503,
      -0.02947824729179135,
      0.023984308749684127,
      0.04757490682579681,
      -0.0006034742156343794,
      -0.011875757807835311,
      -0.0021130791682049893,
      0.018297265768726326,
      0.02675034549515566,
      0.011697813552683204,
      0.014409009887905794,
      -0.0424928614975834,
      -0.03533225418570822,
      -0.02450831558701817,
      0.02432172573572905,
      -0.019654294552036208,
      0.006776169786930831,
      -0.048655422420113684,
      -0.04393389859363583,
      -0.023115418497505442,
      0.01720015786552359,
      0.0192185172570448,
      0.017570765681277446,
      -0.021017665428592316,
      0.0016552173038736034,
      -0.0035335980807269796
    ],
    [
      -0.0033661956400453997,
      -0.038149406629270216,
      0.03936659971810002,
      -0.030074997014049698,
      0.04781207969699857,
      0.043625434095371646,
      -0.04824924731776073,
      -0.004102917703640285,
      0.03198989407150519,
      0.0468108591929456,
      -0.005054595934317412,
      -0.022907497867326505,
      -0.02898819904188774,
      0.044681576869226,
      -0.02901951206269371,
      0.00814731354725065,
      -0.03604834916893469,
      0.002811527363758567,
      0.04539560390829888,
      -0.03689923564750661,
      0.032021701061478405,
      0.001034485401060308,
      0.038686215961484284,
      0.020173960943798273,
      -0.02686163969495301,
      0.039758439855717476,
      -0.0013859343572851124,
      -0.047516559690933484,
      -0.049640952833026976,
      -0.0006582093109415257,
      -0.004923662849641469,
      -0.01980537122399675
    ],
    [
      -0.03592971062174169,
      -0.015605532688608386,
      -0.018393742793905966,
      0.03402310336479869,
      -0.04982795369753841,
      0.025073404117131694,
      0.03390953213364324,
      -0.037995865240781745,
      0.042638814961759246,
      0.02130092501213524,
      0.040155108978490645,
      -0.020856178389564575,
      -0.01275731006109052,
      -0.010623429287179556,
      0.04981333506092301,
      0.008917278705639589,
      -0.014085543308546776,
      -0.0069115120694783925,
      -0.02240060360590833,
      -0.04528408763202055,
      -0.03982901420323737,
      0.03357694947331337,
      -0.02143768099325636,
      0.043448091524131385,
      -0.025067528358818147,
      -0.02343572358013614,
      0.0010962987807403236,
      -0.031015095283699314,
      -0.01266507149849634,
      0.045734401528848966,
      0.03842510822114173,
      0.031194676301129542
    ],
    [
      0.013089418532697591,
      0.04134350749494501,
      0.04407104858283066,
      0.004922814818796373,
      0.021955517875306512,
      -0.045052396555643276,
      0.023236365594256386,
      -0.004913957703922645,
      0.025267665146691713,
      0.014450401607213703,
      -0.021378049220834906,
      -0.0453596327516328,
      0.04264627694998908,
      -0.03741134759767479,
      -0.002677662727741803,
      -0.01563343504695544,
      -0.019966999945353604,
      0.02344165369562194,
      0.04748860962817733,
      -0.023799009001637512,
      0.015599532603222888,
      -0.0200993376840627,
      0.005732170245704039,
      -0.010379136692717736,
      -0.033266753224130696,
      -0.03382025070256214,
      -0.02921274788632633,
      0.04059599102424573,
      -0.00029242146731426336,
      -0.028194494724824427,
      0.04062705777014255,
      0.04964863981153499
    ],
    [
      -0.0050041937975618955,
      -0.03604200101928127,
      -0.03076089784317902,
      -0.04092854918934771,
      -0.015805100679228416,
      -0.04089056602173468,
      -0.02608894934750809,
      -0.024164243184508064,
      0.006960940836823237,
      0.03872402021446673,
      0.024964153341214355,
      -0.008855684106757486,
      -0.008628943558495226,
      0.0023396694754723953,
      -0.012259494102040868,
      -0.016180091804481548,
      -0.043659022359682935,
      -0.022488163035983964,
      0.04669695540099378,
      -0.03731679035064487,
      0.00033957476111180497,
      0.012865253691838966,
      0.036286134905094115,
      -0.02830785644450326,
      -0.022897911893732747,
      -0.0251472570228007,
      -0.010024286325431087,
      -0.00541416076433906,
      0.045394357526314266,
      0.03476355272943805,
      0.0372874912071518,
      -0.04781980459637257
    ],
    [
      -0.04677423035255938,
      0.020958136422378214,
      0.03957660986320305,
      -0.0026731722293188765,
      0.008725430426683743,
      -0.049982131218062435,
      -0.010840932500508216,
      0.042682727372766065,
      0.03256441646417469,
      0.03555162617691971,
      0.04723107011803701,
      -0.024959759733618695,
      -0.03906595871814171,
      -0.0344512821135758,
      0.0021630562014499062,
      0.018209245653660475,
      0.043962057063039406,
      0.02251390766220445,
      0.01483852027526973,
      0.026351417845516024,
      -0.004267495807257759,
      0.005285686341878845,
      -0.046045374124224464,
      0.028101224868597865,
      -0.026742317103309723,
      0.041981855782896475,
      0.014550577636824269,
      -0.019621773837182756,
      -0.03720331517869776,
      -0.024674855245486575,
      0.01363606766685568,
      0.01985937197540993
    ],
    [
      -0.03878659869063331,
      -0.04296420776270585,
      0.002444269605642401,
      0.008289097392336842,
      -0.011191175817946325,
      -0.027641696638996016,
      0.010106691113486421,
      -0.04895383601078666,
      -0.01984735874167778,
      -0.00393045548813889,
      0.045894598591107366,
      0.014552784311199642,
      0.038389064944754164,
      -0.0024186405376703172,
      -0.02656100858917826,
      -0.025294011215777918,
      0.045967943748892466,
      0.0206351391831554,
      -0.01920718240865691,
      -0.047887567650808566,
      -0.0001689755284424721,
      0.017513233664638632,
      -0.00799841278710063,
      -0.0243406938475765,
      0.01673550488376796,
      0.04251100619045851,
      -0.027321392675531322,
      -0.04659025766266676,
      -0.016194842965653367,
      -0.00787233132823862,
      0.018257269698162014,
      -0.030191921707346834
    ],
    [
      0.029705394865163656,
      0.023908640496093966,
      0.00048355705427223636,
      -0.029478141296136674,
      0.04698128940697175,
      -0.018828425730871335,
      0.03199616776282249,
      -0.026919118713502534,
      -0.027859089466731032,
      0.02604368515586031,
      -0.020510996629742092,
      0.04527762242835259,
      -0.0004168926172161988,
      -0.03122692873297063,
      -0.027703043609332324,
      -0.008298162209618931,
      0.0164456506812154,
      0.04503044748710957,
      -0.03530965467297821,
      -0.01071677404584004,
      -0.028705092501916954,
      0.047470460470096135,
      -0.035808892238598365,
      -0.04487871749976273,
      -0.04398647458545505,
      -0.010672412092041304,
      0.03981674068572725,
      0.03835836374327537,
      0.023272376591865387,
      0.04981605222799798,
      0.04315526812525783,
      -0.017077083130298033
    ],
    [
      -0.03144884466791274,
      0.0435884127579622,
      0.02463110180036522,
      -0.04681063122166162,
      0.01644277097656361,
      -0.012138058365041771,
      -0.012611380416762592,
      -0.01683025103626017,
      -0.033073534015476164,
      -0.049712409813781167,
      -0.022019099570092238,
      -0.014952874238496509,
      0.045539935771798976,
      -0.0376838681233572,
      0.0464662472913516,
      -0.029259692268311908,
      -0.014238001589267857,
      0.03197695607315228,
      0.03214656837899394,
      -0.006682566370224062,
      -0.045074266414898284,
      -0.0027258375377324645,
      -0.012728561057501265,
      0.04202314213244646,
      -0.03069738125554533,
      -0.013569613392316576,
      0.039699336494903516,
      -0.04697179449225805,
      -0.008919817024459665,
      0.031104709765648577,
      0.02666705783827162,
      -0.045934893176934506
    ],
    [
      -0.04651455993505482,
      -0.0437420335953761,
      0.04200764416601905,
      -0.024298404756977077,
      0.024728447780192005,
      0.03985517889679692,
      -0.016093074614609983,
      -0.022768533725313168,
      0.045768962246326005,
      0.01169783200151889,
      -0.023782780565031386,
      0.021594034121057586,
      -0.01835929215506406,
      -0.02247346623494588,
      -0.04959334251889681,
      0.025565230270144318,
      0.04171417502905012,
      0.013274894062405434,
      0.04428854004980163,
      -0.04752513196525338,
      -0.026613373974515978,
      -0.0025303196770655014,
      0.04567776506077044,
      0.04544025555072242,
      -0.011348521120996137,
      -0.0248915478930434,
      -0.007006191600262935,
      -0.0006526156271194905,
      0.04280994198958621,
      -0.0317590723402363,
      0.0302568044178245,
      0.023848745208429254
    ],
    [
      0.03227560227370191,
      0.027281887661757934,
      0.010726372793280401,
      -0.017220018907455826,
      -0.018044660385914735,
      -0.013814155918484162,
      0.0282258117344421,
      -0.0420985128641987,
      -0.03026806962086942,
      0.02528942185707894,
      -0.025268299109067503,
      -0.04372326728623178,
      -0.046636806583328895,
      0.0051471296407487,
      -0.017343812907331765,
      0.048025814505298754,
      0.03854625207721191,
      0.04842758983768665,
      -0.023615696708139743,
      -0.04144803343337744,
      -0.040357742144867585,
      -0.00029523030255642247,
      0.02097711710044492,
      -0.005159982897422227,
      -0.026580370118520293,
      -0.008305013714631906,
      0.0120307645881642,
      0.01741086187581219,
      0.024797704472068385,
      0.03454502713663426,
      0.016443471896182917,
      -0.037883500983252376
    ],
    [
      0.034087349177514444,
      -0.020620303098471765,
      0.006689902888824463,
      -0.012702896256702768,
      0.02380774536389379,
      -0.0300809909109788,
      -0.025255605145650284,
      -0.02546597031093836,
      -0.034666778135564374,
      0.038417883769547335,
      0.007829557793863729,
      -0.017547237545119145,
      -0.010414836656969273,
      0.049142632171755574,
      0.0008054323437433168,
      -0.026861535013898593,
      0.031025714368012037,
      0.015006285661420706,
      0.048996993210364395,
      -0.039635719780101136,
      -0.0025237240770272784,
      0.03178071468772347,
      0.03405563641212668,
      0.04156859353489121,
      -0.045963813456235694,
      -0.02062238366774721,
      -0.038078337125188745,
      -0.031042681932081807,
      0.047296517959181245,
      0.008179950870766351,
      0.04301885699498453,
      -0.012775611667533831
    ],
    [
      0.03661276736810487,
      -0.005088523979823975,
      -0.024005087541415497,
      0.02777762760576277,
      0.044570366341405675,
      -0.03942199376414919,
      0.009614796811497942,
      0.011994797996952845,
      -0.028235350489633486,
      -0.013129061419933837,
      -0.03586296128729784,
      -0.029612518107534135,
      -0.024509604680181336,
      0.00993739843856804,
      0.015168324798675872,
      -0.029655798453562355,
      -0.04885160165518942,
      -0.017293541433757584,
      0.017825223927588014,
      -0.03147827899540739,
      -0.0187804266229758,
      -0.02966634358754743,
      0.029528116804082117,
      0.004811694459137571,
      -0.043672892147175936,
      -0.03986068910547815,
      -0.010470328730325086,
      0.005013761039489629,
      0.013918194572625431,
      -0.04089239511186474,
      -0.033630977928433656,
      0.01954059313732691
    ],
    [
      -0.009020952493720057,
      -0.021668922610140365,
      -0.01923946578754057,
      0.04531888369572214,
      -0.018762880162372004,
      0.0066520064202657886,
      -0.014280870454862463,
      -0.008355461792489017,
      0.0364252851934271,
      0.04966285400366184,
      -0.013620904559449467,
      -0.030419358941000816,
      0.02278586693988081,
      -0.02970803505241312,
      -0.0493551891955266,
      0.0401632976437077,
      -0.007487545469642812,
      0.03178902312303912,
      -0.009451392090911528,
      0.03838169188649636,
      -0.003909376432706058,
      -0.03384248137513786,
      -0.04851656254254625,
      0.005252682861525874,
      0.014066669200709637,
      0.04098687122657224,
      -0.041096888800811394,
      0.012219459509274035,
      -0.012915637539886738,
      0.000341947003681605,
      -0.03541035944914423,
      -0.021669935342064135
    ],
    [
      0.0021157570958119753,
      0.04254897496375701,
      -0.03912171959856042,
      -0.0009490350234837797,
      0.03048045325151779,
      0.04668760732167196,
      -0.030266833515344586,
      -0.03733496454559842,
      0.0443066185543469,
      0.04755390516707872,
      -0.001727355471944324,
      -0.044803336532757934,
      0.04259874839650851,
      -0.011285907104977207,
      0.04047809001713398,
      0.012034045750165905,
      0.032593542793607204,
      -0.03422433387652974,
      0.028503362971355785,
      -0.027694116312205433,
      -0.009551544774525545,
      0.03453575889589804,
      0.03291877021860719,
      -0.03160507065023877,
      -0.028186312286769922,
      -0.010018068738624675,
      0.0017892518315307028,
      -0.011642362654799477,
      -0.037694329657057574,
      -0.02540086217133632,
      0.022487265044597103,
      0.03973031874086543
    ],
    [
      -0.04589008651910626,
      0.006234352314624583,
      0.02574615095702783,
      -0.046187129864173816,
      0.03382044468615422,
      -0.03822689846915267,
      0.009952002499590084,
      0.005005183703459515,
      0.012704214900019857,
      -0.01937860804655585,
      -0.007992788033238697,
      0.008116885448054521,
      -0.0074453708832053515,
      0.01579901538011498,
      -0.0052629225919107,
      -0.0061647342695341995,
      -0.04751573053043134,
      0.011628813517875619,
      -0.0011252489151196401,
      -0.026370662805838448,
      0.02635651947451774,
      0.027893269756470666,
      -0.0041710959102622125,
      -0.031938851708789844,
      -0.0026781153676343375,
      -0.0392844479785656,
      -0.037154412002433045,
      -0.006940099324783455,
      -0.040828685609786225,
      -0.005915450886852151,
      0.0010161503008122152,
      -0.04592331306461912
    ],
    [
      0.013643575282629727,
      -0.04177662697593623,
      0.023347292713420946,
      0.027763608634765048,
      0.00114760760081951,
      -0.04457350689764405,
      0.00039167658284665243,
      -0.012213737031261884,
      0.045086219815548195,
      -0.036381983666639375,
      0.03570628135064093,
      0.04962887289586204,
      0.02320839188094037,
      0.031502980872857224,
      -0.030636597996856627,
      0.04817262665527264,
      -0.0008286992535404907,
      0.04569521099055323,
      0.04161680404737338,
      -0.033501314279404,
      0.028838152230590053,
      0.04307008407932048,
      -0.04344837901515061,
      -0.014922726118300055,
      0.025617976674602007,
      -0.03412413043235395,
      0.039653724144050266,
      -0.022500740807457134,
      0.031562665444912645,
      -0.03563015891470812,
      0.00022106355433547273,
      0.04199072883200713
    ],
    [
      -0.029167820052759204,
      -0.02371390297174341,
      0.0006000279134023551,
      -0.01809224831143994,
      -0.046317279313394175,
      -0.031790361252825375,
      -0.033877734667131974,
      0.043640376089660954,
      0.01796749670230566,
      0.03954070908992065,
      -0.03312646494250037,
      0.028325258702366705,
      -0.03851194196173008,
      0.002980750979435345,
      0.01369641173964071,
      -0.014022254671909857,
      0.037456754148781135,
      0.005227409941528066,
      0.007916646320441473,
      0.038369650683929224,
      -0.039539120158529596,
      0.04917863431396436,
      0.012977621597498191,
      -0.010458201742672703,
      0.029767060556610093,
      -0.02351570008204458,
      0.04904982475112712,
      0.0077360511915351765,
      -0.013974861554183926,
      0.026338204691164022,
      -0.005772506575746413,
      -0.032324682588283686
    ],
    [
      0.0243597647568317,
      -0.045169772971431786,
      0.03198351129495319,
      -0.024634749956375036,
      0.013925574942369963,
      0.04840551977626722,
      0.008588114088074864,
      0.016369853091033528,
      -0.018733692018147254,
      -0.04981984393570214,
      -0.04661960311216095,
      -0.03517490576508764,
      0.011594769093935772,
      -0.0068390608909997385,
      0.0013149415662716438,
      0.03955451545672637,
      -0.036682665836752115,
      -0.02747901588227527,
      0.015249283394304447,
      -0.047685395162353,
      -0.0497384506708971,
      -0.01458831354121367,
      -0.0393637347794408,
      -0.014199192445734142,
      -0.027574103762776817,
      0.008365447032169055,
      0.008909160743450151,
      -0.029581562901858593,
      0.012392955890649327,
      -0.0026007449448961313,
      -0.036524048676554274,
      0.043658179516745395
    ],
    [
      -0.025641176436100477,
      -0.03506789711924792,
      -0.0404187382444862,
      0.01382100965432198,
      0.037128131293259516,
      0.02821561341714869,
      -0.009803916074420964,
      -0.023576016003537627,
      -0.04885016522206085,
      0.014495132587002713,
      0.006233912461244643,
      -0.015202769224655443,
      0.014531151841676597,
      -0.005756365130889236,
      0.04380887808033053,
      0.0233524361159134,
      -0.024916184685343595,
      0.039926576600757546,
      -0.04572578643449119,
      0.00332136552950944,
      -0.009401127557711398,
      -0.026400950096194437,
      -0.04416208199281845,
      0.02805584924815247,
      -0.048764990558743795,
      0.005105049750788999,
      0.04409206077252192,
      -0.03577334552021454,
      -0.030048173279868008,
      0.010627712281027674,
      0.0006956163241800609,
      0.014157324813385563
    ],
    [
      0.03133809242449382,
      -0.03253586208905309,
      -0.019061560426614547,
      -0.019973383377519395,
      -0.04515087111215408,
      0.03893524238788043,
      0.028297608411467765,
      0.0215398613649654,
      -0.0493650503525207,
      0.03444327640982759,
      0.024518935026633278,
      -0.0032597811938892404,
      0.024201080256360512,
      -0.004632155592250533,
      -0.027490027772772298,
      -0.039471783366801176,
      -0.026981880961160904,
      -0.04573435449842853,
      -0.016332913419256086,
      0.024812746411539615,
      0.019510922538377808,
      0.03468618639617443,
      0.02116842273811466,
      -0.023553889096783295,
      0.005378775804664848,
      -0.006406405591027988,
      0.028845001695510145,
      0.002324463406124511,
      -0.02347037546663211,
      0.014364846566721013,
      0.04651427157555637,
      -0.028300265320363383
    ],
    [
      0.03800490441646884,
      -0.04847510946442378,
      -0.023961014921761774,
      -0.026389070718196864,
      0.024389901731677693,
      0.04446978953420096,
      0.02461725486556162,
      -0.017312860345887415,
      0.03801839807472568,
      -0.017142823043071593,
      -0.026081104844051024,
      0.04054746459130468,
      0.013045504032259684,
      0.019165988205269234,
      0.01660791241878627,
      0.04790187094490825,
      -0.0028413764741989918,
      0.03359347055034374,
      0.019649182204287286,
      0.035904945104316924,
      -0.006278599086629944,
      0.02231178280953445,
      0.007034047607152683,
      -0.019072247057149543,
      -0.02880338922771585,
      0.012273694569124258,
      -0.04221976506322283,
      0.04107897294427906,
      -0.03554050845435738,
      -0.04747178224153028,
      -0.03933004224036857,
      0.042894812148574865
    ],
    [
      -0.015514925743088314,
      -0.03582205929551024,
      -0.04713295532697186,
      -0.04583505605280237,
      0.019255859463209003,
      0.013387812705819548,
      0.019694554252804215,
      0.02367852631709655,
      -0.04342795854732922,
      0.009042222491353816,
      -0.013665606536473541,
      0.03203914913032396,
      0.03198896765732989,
      0.03928264866473689,
      -0.04352210783144855,
      0.03677767239755094,
      0.04115640638961911,
      0.044941283516122116,
      -0.03913735032595925,
      -0.029633146526387124,
      -0.03880302754501952,
      -0.046358047913720384,
      0.03477172472410746,
      0.030996413937186825,
      0.013417275315128053,
      0.03249049577202956,
      0.013153649592592732,
      -0.021263491006854675,
      -0.04001229097496441,
      -0.039999017344384484,
      0.02573017167771884,
      -0.029503929001453842
    ],
    [
      -0.01808653383721327,
      -0.00762538045377333,
      -0.047910072882972284,
      -0.024329773388730404,
      -0.021742479501237227,
      0.02157621887315212,
      -0.013199487140205626,
      -0.017917180978329863,
      0.046398485401168976,
      0.0003722018891034402,
      0.03513581352686767,
      0.011676675288929808,
      -0.046921843313353966,
      -0.008793232993197628,
      -0.0062948569255361336,
      0.027302108842065142,
      -0.015171416971597197,
      0.020196518244780425,
      0.0037082580200904305,
      -0.028235933268753836,
      0.03622393222736552,
      -0.041019606035740466,
      0.03198111525707668,
      -0.032856232964433865,
      -0.04987009426686487,
      -0.029788355089961173,
      0.026218101941435368,
      0.04778657038060167,
      -0.04956383306696738,
      -0.0010343887179499406,
      -0.0008535094278770189,
      0.029676653912443163
    ],
    [
      -0.031548132323976595,
      -0.0005419792892635285,
      -0.01528157809647044,
      0.0331835840010198,
      -0.023942812829759335,
      0.044386988996636394,
      -0.02162717064141777,
      -0.02852856595941691,
      0.019947935361224894,
      -0.0001685070093701266,
      -0.03900782163599401,
      0.013608118858903713,
      -0.04191696686478776,
      0.02876403185724072,
      0.01973363888861408,
      0.02869327674385099,
      0.012839854276545661,
      -0.014521010255922985,
      -0.009898537337264889,
      -0.010505997606302638,
      0.03904074411483086,
      -0.04141691198643252,
      0.03884487870772383,
      -0.047448540337983916,
      -0.02938832171027286,
      -0.02367788764142081,
      0.04012156840036583,
      0.00011901793711243114,
      -0.012069485349647791,
      0.03836109056430555,
      -0.02664258847900839,
      -0.00390941040722953
    ],
    [
      0.0031544584071748825,
      0.025447566988282006,
      0.02529894050886054,
      0.014629988397571526,
      -0.015151456618910434,
      -0.017333979515930877,
      -0.03446732653549793,
      0.0343106072025795,
      0.01621001686792452,
      0.024198724274507873,
      -0.03304494767124021,
      -0.006118717503848716,
      0.027343724817300255,
      0.007918399895040307,
      -0.03739393062380904,
      -0.003798202960841534,
      0.03851124301240602,
      -0.026203348768663242,
      -0.030842268242778005,
      -0.019850093546731524,
      0.020316616316530145,
      0.03436709827935727,
      -0.03454056626309746,
      -0.03440229098816611,
      -0.025241896716386172,
      -0.017343839568012043,
      0.0022178756807983537,
      -0.0339075645534597,
      -0.01719249266699463,
      -0.03107170004361718,
      0.04751481973281789,
      0.022873229848506222
    ],
    [
      -0.03981953148823197,
      0.04623720281843736,
      -0.03983756925821992,
      -0.011576710528910095,
      0.04838212918064501,
      0.02948877982952094,
      0.02332789134469853,
      -0.006507699732616135,
      -0.03038191528908688,
      0.013797077273022668,
      -0.039314396875677164,
      -0.029625632874157093,
      -0.011198863874885062,
      -0.046752396891534626,
      -0.009989165875762481,
      0.029100087508907677,
      0.019609559273996987,
      -0.00043306333136641475,
      0.013091985515393452,
      -0.0034822552674040664,
      -0.03581874723940078,
      0.010179689615358685,
      -0.00952866300529417,
      0.02428439879201119,
      0.04080038879282125,
      -0.006982595759207731,
      0.007397803356816491,
      0.024910005664230208,
      -0.007884519661967793,
      -0.027349293877604156,
      0.02222059079128789,
      0.03800765215039774
    ],
    [
      0.027404821762384363,
      0.020007832618344053,
      0.03524437845291877,
      0.017959652231264823,
      0.014153664307478935,
      -0.004609730517470212,
      -0.018698592455363983,
      0.01282769419301314,
      -0.04021330494254379,
      -0.008041938879562747,
      0.028237784787084837,
      0.021273215059419065,
      0.01295667487246274,
      -0.025015705376381966,
      -0.007624732556889945,
      -0.004480557729070604,
      0.01219786474122793,
      -0.009139832490259498,
      0.017502264353305264,
      0.043049447170367676,
      -0.031693792421747434,
      0.015419240348817104,
      0.02781794221001275,
      -0.01109944815374437,
      -0.0010159835903406523,
      0.047464197629835864,
      -0.04618544708846278,
      0.004335991455526267,
      -0.03391573897286052,
      0.02814719910062757,
      0.04405875129881091,
      0.0019220009634463777
    ],
    [
      -0.03989126842205089,
      0.007456239956523299,
      0.004103722134285411,
      0.02172960972468221,
      0.0012192652721633788,
      0.013926128888552481,
      0.032898722422870244,
      0.002168827014306052,
      -0.008964980722198666,
      0.0447974190325395,
      -0.02899086818295197,
      0.018482798145152784,
      -0.01074536557839866,
      0.0262967378301936,
      -0.03777835583394392,
      0.048446882118116784,
      -0.014499381662050885,
      -0.04425292936161806,
      -0.022539195614234713,
      -0.010065880020313389,
      -0.04866916606188942,
      -0.008107262216136515,
      -0.007945293464835912,
      0.01979097436883275,
      -0.014787499919403159,
      -0.02348688070569372,
      -0.027557270002741087,
      0.02414706230199164,
      0.04399313699721524,
      0.0027447608687546183,
      -0.02810849070450718,
      0.030148761643660673
    ],
    [
      -0.010803488840314726,
      -0.028798285041181024,
      -0.037069644123577626,
      0.02766075064904612,
      0.030958447764611003,
      0.013429844523349423,
      -0.003083700245299228,
      0.006205391675758909,
      -0.02740086742189909,
      0.04638689952259126,
      -0.01468639104346376,
      0.013716951993161888,
      0.03185421429811623,
      0.03152885714183578,
      -0.0031246540391271366,
      -0.02056565843712885,
      0.004987141384094882,
      -0.037773947079448866,
      0.033285468913087875,
      -0.014410431381885278,
      0.03506696315888608,
      -0.023372065995790912,
      -0.012385150278023262,
      -0.024530132410278824,
      -0.007389553130553206,
      -0.03140224901084106,
      -0.04973049476337689,
      0.022178941070223546,
      -0.02187883082182898,
      -0.025626570262898815,
      -0.019817535377629012,
      -0.002044486799753524
    ],
    [
      -0.0071504216851460065,
      0.01373249258935828,
      0.015928816320595965,
      -0.013756840562259287,
      0.04287417034036801,
      0.03544454603277943,
      -0.044291339404088706,
      0.03278998774632014,
      0.04058220923060857,
      0.028405599869585536,
      -0.035957455637729695,
      0.032920022537343545,
      0.013290755220971113,
      -0.04861973204050997,
      -0.048763998394476,
      0.04517745110276749,
      0.01580924636433054,
      -0.025378546429207543,
      -0.0399589303253169,
      -0.03557285694551483,
      -0.026635856043053074,
      0.0274790429688076,
      -0.015355592381294681,
      -0.03457892166271295,
      0.040408727081480855,
      0.02917897569033206,
      -0.03320872365719574,
      0.03911353549959218,
      0.01083671448914273,
      0.027965091240859802,
      0.016848165815641122,
      0.03939210651067848
    ],
    [
      0.028807460668126207,
      0.033880711567227426,
      -0.03026253916831048,
      0.01927927077792642,
      0.0030799937691498797,
      0.024191193907915978,
      -0.006140973664857058,
      0.0382682473338996,
      0.0055067010383571275,
      -0.023550256567622302,
      -0.026582015435564616,
      -0.03613046927825057,
      -0.0006988545422107351,
      -0.04418640754110592,
      -0.003263727859956734,
      -0.035557813793344745,
      -0.0007996013161670244,
      -0.00029796929277288176,
      0.003918724882850375,
      0.03633383578368793,
      -0.049339321881266385,
      0.03403109473726024,
      -0.003203959244574939,
      0.0063029644244419385,
      0.01653005428375112,
      0.034060051594920183,
      -0.012504212241013246,
      -0.008118318766392475,
      0.046061353889067805,
      -0.04250948645983232,
      0.013704501359982225,
      0.013612638061056547
    ],
    [
      -0.04714720267750027,
      0.01096697642261832,
      0.01825824921980875,
      0.04314930364414013,
      -0.016955167723345377,
      0.048171264003199134,
      0.0010620005600415975,
      -0.0015324445387931542,
      0.03975574964534967,
      -0.046610744361244044,
      0.021817854012888133,
      0.012600829865744427,
      -0.016131887660375398,
      0.036204134010570474,
      -0.013414196076199283,
      -0.0025467867678106507,
      0.0024833112795406,
      0.02718774822926369,
      -0.028885984720296336,
      -0.006532218790064648,
      -0.007761139980277454,
      0.005453375415171099,
      0.032672485924622595,
      -0.020762889560156088,
      0.032773407171465666,
      -0.009630911378062301,
      0.0003749176742782856,
      -0.022830204760309572,
      0.0006423982566670984,
      0.04755405150608344,
      0.015455357753527674,
      0.029194858287747576
    ],
    [
      -0.01691047946341541,
      -0.0182908261801812,
      -0.02007827305576109,
      0.008645116517506313,
      0.01348156368275448,
      0.02842155545688865,
      -0.04599511596990453,
      0.022267653461019745,
      0.0385599321940747,
      0.004539997368043415,
      -0.04503026727301424,
      -0.019934545997692375,
      -0.04937462430545093,
      -0.030990400125369907,
      0.04213287006958622,
      0.010868505392090647,
      0.0157764401131348,
      0.02894592726278892,
      0.040994216864218065,
      0.011156766946251907,
      0.011669914533981408,
      0.012698443898246333,
      0.0196403508552349,
      0.009613582949185673,
      0.018097925993057495,
      -0.02875112552279189,
      0.0167002175998623,
      -0.00421206681037124,
      0.026267475764382132,
      -0.039845554998447205,
      -0.031870409977021445,
      -0.046302225864218324
    ],
    [
      0.027453503678559688,
      0.04140828783067548,
      0.015571745643725002,
      -0.01311306813961114,
      0.032261153309901286,
      0.028654004863907324,
      0.006210148267189416,
      -0.02419972877021842,
      -0.019795915405879695,
      -0.007821476920262025,
      -0.01815228967375137,
      -0.006908838513569721,
      0.014178831906236021,
      0.04339958194515294,
      -0.04454696097435772,
      0.00675073867442763,
      -0.04608597449512862,
      -0.0380711139513823,
      0.03104511205709129,
      0.007513843304264023,
      0.041862968656903844,
      -0.005334539566943111,
      -0.04858695515993033,
      -0.011304005483825616,
      0.00919708236539828,
      0.043770547447359164,
      0.04807845067627428,
      -0.0024551587031136136,
      -0.008758290448184847,
      -0.0397759962438915,
      0.014450584107423371,
      -0.028772262307713563
    ],
    [
      -0.034824148363586674,
      -0.04844933256355479,
      -0.0495240105805097,
      0.018376108012621274,
      -0.03783444185444892,
      0.04663484533016905,
      -0.041188409631492194,
      0.036954914868881895,
      -0.037104926059966896,
      -0.0482240302943679,
      0.02193276490570785,
      -0.025897956806091443,
      0.023339599171066146,
      -0.03132868383899335,
      -0.04493407171941512,
      0.02740172374323006,
      0.0214787963362434,
      0.03532737125646877,
      0.022905048236407273,
      -0.04148387294069408,
      0.012862315444267481,
      0.020834010626136722,
      -0.00394202793423738,
      0.043321836627615455,
      -0.02459494328981554,
      0.04643844098679897,
      0.021721010678983278,
      -0.048859903171248026,
      -0.04852704339971251,
      0.014973344313934649,
      0.031732006216985395,
      -0.04203312106715439
    ],
    [
      -0.01889395097938174,
      0.02294234864335972,
      -0.033402140098410665,
      0.03609675529220344,
      -0.0013681840004522504,
      -0.04402209794798532,
      -0.01324528571397295,
      0.007496323233668856,
      -0.0061290837210350915,
      0.017686449307150402,
      -0.0355111908426938,
      0.02985198704372989,
      -0.013661378643969792,
      0.014552347393511926,
      0.012922030274534155,
      -0.008203987887746468,
      -0.011544149431475534,
      0.028835587369423814,
      0.04455558427562321,
      0.028375541530885052,
      0.0066816541059952494,
      -0.02067613498638313,
      -0.04393621934812715,
      0.04730824012058056,
      0.0203265702738875,
      0.032734436696795245,
      -0.016795997418792397,
      0.01058230230637598,
      0.047744794946536856,
      0.0332203050301543,
      0.010111887254910117,
      -0.019140116383247127
    ],
    [
      -0.007144229967893401,
      0.038810418170238864,
      -0.012334299358249073,
      0.018482195866256868,
      0.010176369747171805,
      0.03961159380849695,
      0.030746159479433505,
      -0.02166906916457847,
      -0.04983308365325102,
      -0.02369695993673682,
      -0.007751983101246349,
      0.008726679974580124,
      0.03160361503427217,
      0.03877473916696056,
      -0.04579620975642938,
      0.03332260191663386,
      0.031112126174442215,
      0.03683505791029607,
      0.007226438799843523,
      -0.02266256884611015,
      0.035118254123076696,
      0.030748741912980448,
      0.018463879657570372,
      0.041327491784781754,
      -0.015314675469281247,
      -0.04149710939941142,
      0.005367435876103089,
      0.029738857881529468,
      -0.02995694519006449,
      0.02506733232742117,
      0.04317028837767187,
      -0.02659681494613822
    ],
    [
      0.010689826544584488,
      0.0177661830487922,
      -0.0034677225699622665,
      -0.029341389293969435,
      -0.02452655163135959,
      0.025113357610530865,
      0.02916648256025328,
      -0.004028254344640748,
      -0.04122990077042678,
      0.030657497102169595,
      0.027216612478751952,
      -0.02674164049495751,
      0.007955191710220012,
      0.03967454943803785,
      0.038519181546118914,
      0.0021858485655645494,
      -0.0023123168304151702,
      0.008880039682350498,
      -0.031101682652373067,
      -0.030747394693257976,
      -0.03193067252198985,
      0.020085199030773528,
      -0.0137174229488775,
      0.006464281447394787,
      -0.00975087077942599,
      0.0017233447732661182,
      -0.03509909790284571,
      -0.04554055413408717,
      0.049714158842912776,
      -0.012618783089053735,
      -0.039388187813324885,
      0.013274275149370808
    ],
    [
      0.028734772330569383,
      -0.03438452912218126,
      0.00972121502703374,
      -0.015507834195682357,
      0.001945999353668519,
      -0.04794298924946431,
      -0.046642116369631684,
      0.04904046421555472,
      0.036608372501411274,
      -0.001368332628961961,
      0.00671837115772337,
      -0.023772863641238776,
      0.02792762970809427,
      -0.007368932612707742,
      0.04462133123004852,
      0.026724890300147394,
      0.03181609029537097,
      0.04646517568296722,
      -0.024565163516527683,
      -0.04625986776462843,
      -0.02990108877821689,
      -0.03187956428568485,
      -0.04163436291551645,
      -0.04494716956728829,
      0.005738024688983923,
      0.03706310721602242,
      -0.00417190679398517,
      0.04472050655305803,
      0.04099197156339987,
      -0.04353093588483069,
      0.009806794339986562,
      -0.01026029372525062
    ],
    [
      -0.03800859558188252,
      0.045928458808825644,
      -0.024281831720936932,
      0.0064476178833901,
      0.014062765750449608,
      0.04564200261301241,
      0.01697094688949404,
      -0.010688171399630398,
      -0.005166787135548549,
      -0.03402829170992488,
      0.04657564689501607,
      0.04926949406654809,
      -0.027816747538241978,
      -0.04608234954699106,
      -0.02445243624294965,
      -0.014799208368031006,
      0.04017716606827762,
      0.04063536446929329,
      0.03377828498327186,
      -0.04536759417938623,
      0.028637323910992052,
      0.02103144525138352,
      0.014668665648735936,
      0.048470782540507115,
      -0.04442321874122562,
      -0.0355256279364485,
      0.025495074693692856,
      0.04393805578272915,
      0.017688917181062216,
      -0.02004472328431691,
      0.00914533158387593,
      0.02578963575508121
    ],
    [
      -0.03945841193722494,
      -0.017608620493691062,
      -0.024299408749054695,
      -0.037585643399519364,
      -0.0018706009557252399,
      -0.033142283229988204,
      -0.02615471551038958,
      -0.035685069177822416,
      0.01776413292692345,
      -0.0487384742933228,
      0.021722209589275947,
      -0.030648399416710503,
      -0.04641834078684576,
      0.04267675957095587,
      -0.027880014792808973,
      0.04339756122681349,
      0.036834282818274194,
      0.03858503814656461,
      -0.03611002407303779,
      -0.005160882891327402,
      -0.040301257427081565,
      0.04276280207488748,
      0.0342249311668695,
      0.012951663401514137,
      -0.0047666155008142756,
      -0.01601325838088972,
      0.03230608272096652,
      -0.002246171149901766,
      0.012818315152847827,
      -0.03584710641122156,
      -0.02783537208616711,
      -0.044327582296013184
    ],
    [
      0.021371087842017057,
      0.005330259096187747,
      -0.035536054369009556,
      0.03707231443330048,
      -0.023366964922198686,
      -0.00882183294984924,
      -0.03443850368893172,
      -0.022889286599315453,
      0.03395092727350832,
      -0.016554445098905163,
      -0.033227363953909454,
      -0.001100294270327195,
      -0.01822472655369349,
      0.04020155510858973,
      -0.0385059392453788,
      0.04786038954182157,
      -0.0441203570288031,
      0.03915271752167175,
      0.016722584219938302,
      -0.028751761807486526,
      -0.002254464600024908,
      -0.02151621810852639,
      -0.024220685843489433,
      -0.029705433582680223,
      -0.013572004860595255,
      0.04911281719838103,
      0.0498085627247952,
      0.04250797721605594,
      -0.04024351508159543,
      -0.021207393660604423,
      0.039612796849230913,
      -0.044252900424678714
    ],
    [
      0.022647291375861477,
      -0.020647554183389687,
      0.047863121616053356,
      -0.04839714732608977,
      0.03070230710473711,
      -0.01590940392703979,
      -0.03598565370876903,
      -0.04980769694628944,
      0.03322447746041761,
      0.00265866907084525,
      -0.03141793377456557,
      -0.006474692766209621,
      0.041197741307848715,
      -0.02817383625637203,
      0.0071333746586975414,
      -0.036192549743387814,
      -0.031987373353161055,
      0.027045634907884933,
      0.021163581267215376,
      -0.030329185638084597,
      -0.04207332892047549,
      -0.04125755793046134,
      0.010855576940513667,
      -0.0004523036805627816,
      -0.022611155230315073,
      -0.029396843836452358,
      0.011243331931456569,
      0.020775760433409098,
      0.03115837141288809,
      0.008293685744855731,
      -0.029770912413917033,
      -0.04343047045103731
    ],
    [
      0.023271554099423414,
      -0.009187465785603099,
      0.02216583359015471,
      -0.044462819756225375,
      0.031064912480993,
      -0.016478059975983384,
      0.03419102427355896,
      0.03645053352835958,
      -0.0006980955942509069,
      -0.048455265274466856,
      0.041021832886114,
      -0.0023079643361880063,
      0.03720520179644696,
      -0.023354978476746748,
      -0.03140582574433373,
      0.033162341502229103,
      -0.013320645688703479,
      -0.03359544993953222,
      -0.012866549057463057,
      0.009467265095173547,
      -0.04953605133581395,
      0.002004775402271371,
      -0.005423261248517797,
      0.001540302729418571,
      -0.037922804536880385,
      0.02145724008894508,
      0.03165355237576754,
      0.036547189140725245,
      -0.017902121857461074,
      0.021142874686600886,
      -0.011860851275153328,
      0.025131605535548267
    ],
    [
      -0.04387942878548227,
      0.037277554950063164,
      0.04540241877077792,
      -0.0005196463715740563,
      0.0013299258445344038,
      0.003051050606744099,
      0.003730365138209869,
      -0.047931219455944155,
      0.046740024166294976,
      -0.027632913934432853,
      -0.031763396882922804,
      -0.03955507698375728,
      -0.02493553502210292,
      0.03181460401129642,
      -0.04706506118742677,
      -0.0403535558086849,
      0.019718369579012046,
      -0.030169246515463988,
      -0.04813577267367956,
      0.009807787576837397,
      0.007648253041461184,
      0.0024203854968733018,
      0.020264534238139044,
      -0.03984558107960223,
      0.03695261261903217,
      0.0216999361895673,
      -0.04548293778820853,
      -0.03769508342083891,
      -0.0006408090994491578,
      0.0002146905614236102,
      -0.02204049579033427,
      -0.03779612541226273
    ],
    [
      -0.009434964999133629,
      -0.03630422953167839,
      0.009181515604638767,
      0.03610902445542304,
      -0.0352779283457707,
      0.007284142421226736,
      0.024658159769841106,
      -0.03356769610330881,
      0.03260161520971592,
      0.043758369408948505,
      -0.011125218043515295,
      -0.007837886643495903,
      0.033986582573379664,
      0.002624370695139345,
      -0.010481940724427034,
      0.044129270430829655,
      0.02757865210371255,
      -0.015942821261407124,
      -0.02590184282974462,
      -0.016571478408653372,
      -0.0064418115891320855,
      0.04820213057781508,
      0.030437844981124163,
      0.04119735120907134,
      0.03150431990667585,
      0.03475699212262501,
      -0.04464468261235971,
      0.0017374494274178143,
      0.045786098897579286,
      0.043519417726312896,
      -0.02507124820085236,
      -0.007786508624167518
    ],
    [
      0.013268761984545383,
      -0.013557740914046124,
      0.0030788945075207654,
      -0.0430735786822809,
      -0.006696901421296681,
      0.00047746574069587047,
      -0.04791814439483448,
      -0.03605933009033803,
      0.04696887991900713,
      0.02765720192802177,
      0.043692532570471385,
      0.013528055973091077,
      0.030952025703738773,
      0.038549079041609195,
      0.03837955741190002,
      -0.046562869002960326,
      0.01395318961966274,
      -0.023053968081112333,
      0.017953559821574983,
      -0.022803182192689158,
      0.004225443904347581,
      0.04258392437008867,
      0.012125778273123645,
      -0.02508837920224496,
      0.0020305000347399906,
      -0.00664186704753462,
      0.04508658650474167,
      -0.021247715418753158,
      -0.019458825627301935,
      0.014908559023294523,
      -0.03796281208965581,
      0.009428330365725726
    ],
    [
      0.04560855331918047,
      0.0013784973976116684,
      -0.023158237285415474,
      -0.003358272023314124,
      0.003383277205687418,
      -0.03515926641227518,
      -0.03760738484723509,
      -0.03686307006687637,
      -0.020639572854475607,
      -0.0093451773645739,
      -0.02116867507971494,
      -0.02570009702542816,
      -0.041219134044870855,
      0.004608238733479687,
      0.03399060006314333,
      0.010995412946777548,
      0.00705939234326148,
      0.014961016816665286,
      -0.029903534416226955,
      0.02106707905864434,
      -0.003911656966947475,
      0.004772489360147122,
      0.011279968528342134,
      -0.0030723450180276304,
      -0.018949545896826438,
      -0.02577225774737147,
      -0.027841940381523912,
      0.0012449499561753786,
      -0.011682833008761863,
      0.008535549057630236,
      -0.04881157509208898,
      -0.014734797582865724
    ]
  ],
  "w2": [
    0.035845343754627175,
    -0.026237610486356595,
    0.006175283293604652,
    -0.0008746987346187668,
    -0.021120714909512613,
    0.04832834079514526,
    -0.021737576359550058,
    0.028035289516330875,
    -0.0344966663905825,
    -0.04332441261525478,
    0.036197452746465,
    -0.005969621929533882,
    -0.044531787793502565,
    -0.01081488483664445,
    -0.006088471802401667,
    0.024100264213446475,
    -0.03955319322993183,
    -0.027487297106345718,
    0.04581746851510085,
    0.023237450079640405,
    -0.033976577836934176,
    -0.016667377407675262,
    -0.01585964353283891,
    0.01731561828283411,
    0.011570625518849421,
    0.034667941396472335,
    0.03177292743124466,
    0.0019874449401355064,
    0.023995524298675262,
    0.024851870310539363,
    0.025133840609983516,
    -0.003766001970237313,
    0.028299000195244135,
    0.020907234276071076,
    0.041435103489131285,
    -0.037144858697305674,
    0.03657803821804146,
    -0.049716181474472806,
    0.02615124420581061,
    0.008495821274590398,
    4.56386836497729e-05,
    0.04680207851505056,
    0.007191939650415021,
    -0.007980817650003417,
    0.028505341610686446,
    0.03707185780612743,
    0.01128960974732887,
    -0.012768446902475859,
    -0.004562338150045406,
    -0.004191475704848712,
    0.021997085561284033,
    -0.021118516038985558,
    -0.011614027879895463,
    0.005510623297420649,
    -0.011563933567982423,
    -0.018255659683910422,
    0.028644087949010605,
    0.03401404198464156,
    -0.0004587449098008732,
    -0.005348615170396787,
    -0.03109586362792736,
    -0.01947962664324307,
    -0.03580104773968525,
    0.007760343771681587
  ]
}